tree
version=v4
num_class=1
num_tree_per_iteration=1
label_index=0
max_feature_idx=25
objective=regression
feature_names=Column_0 Column_1 Column_2 Column_3 Column_4 Column_5 Column_6 Column_7 Column_8 Column_9 Column_10 Column_11 Column_12 Column_13 Column_14 Column_15 Column_16 Column_17 Column_18 Column_19 Column_20 Column_21 Column_22 Column_23 Column_24 Column_25
feature_infos=[4.5261268615722656:6.6735506057739258] [0:0.30895960330963135] [0:0.17840375006198883] [0:817] [-4.0005998611450195:0.63209998607635498] [1.7524000406265259:5.8580999374389648] [0.49950000643730164:2.5725998878479004] [0.50260001420974731:3.4303998947143555] [0.042048756033182144:2.4555251598358154] [0.010025981813669205:0.36873874068260193] [0.0090028932318091393:0.16563557088375092] [1.0451443195343018:2.0904526710510254] [0:0.99819934368133545] [1.2137999534606934:7.690000057220459] [0.0082251410931348801:0.17745064198970795] [-2.655210018157959:2.6963198184967041] [0.67799282073974609:1.4561139345169067] [0.020594630390405655:0.26032966375350952] [9.9916038513183594:10.065645217895508] [0.6385388970375061:0.97055602073669434] [0.014678142964839935:0.19246174395084381] [0.017439300194382668:0.16877686977386475] [0.014259993098676205:0.16595840454101562] [3.9600000381469727:149.96000671386719] [24.139999389648438:206] [155.13999938964844:2010.1600341796875]
tree_sizes=842 1000 902 992 993 1000 1010 1000 1004 1007 1136 1001 877 1038 887 1123 992 1238 1146 1019 1005 984 889 1016 888 741 870 890 1022 895 985 1012 1010 1117 1020 1124 891 1025 909 1043 776 1027 1266 998 1264 1012 1143 998 988 995 977 999 1026 893 1045 911 932 795 924 908 1153 1149 895 991 1024 913 907 935 944 1053 919 1036 1010 1130 1029 919 885 1132 1140 1141 1016 1044 1034 937 785 1048 1004 1001 1254 1255 924 1015 995 1099 1003 975 1021 1038 915 986 905 1037 930 927 919 1016 918 951 782 1022 810 813 947 815 904 906 899 920 840 823 1122 1144 1122 911 1039 1001 924 927 910 1041 1024 1026 1017 1008 1015 886 984 929 1026 918 1141 1039 1165 1157 909 1034 1054 1120 923 908 1106 872 907 1015 1130 999 919 900 793 902 922 898 892 1029 894 893 1139 987 903 1006 1112 1021 1020 1017 1177 885 898 1160 906 1160 1002 996 1006 1023 1022 888 1016 905 1139 1142 989 1018 1041 1017 870 1130 991 1006 1057 1005 1145 903 928 906 905 879 1130 1018 910

Tree=0
num_leaves=8
num_cat=0
split_feature=8 1 17 0 0 8 6
split_gain=23.4938 8.92319 5.06922 3.12214 2.21197 1.11835 0.616644
threshold=0.52867847681045543 0.03253543563187123 0.064434826374053969 5.5562388896942148 5.9013950824737558 1.2098638415336611 1.157249987125397
decision_type=2 2 2 2 2 2 2
left_child=1 -1 4 -4 6 -5 -2
right_child=2 -3 3 5 -6 -7 -8
leaf_value=3.7444428431389425 3.7667825043749974 3.7728969413249205 3.7792742488330693 3.7871197524570368 3.7845211414462696 3.79776428920065 3.7751436245699956
leaf_weight=21 14.000000000000002 14.999999999999998 20 14.999999999999998 13.999999999999998 20 14.999999999999998
leaf_count=21 14 15 20 15 14 20 15
internal_value=3.77554 3.7562 3.78263 3.78825 3.77547 3.7933 3.77102
internal_weight=134 36 98 55 43 35 29
internal_count=134 36 98 55 43 35 29
is_linear=0
shrinkage=1


Tree=1
num_leaves=9
num_cat=0
split_feature=13 1 3 8 2 0 9 13
split_gain=22.3985 6.82175 3.80238 1.99923 1.84861 1.62178 1.1323 0.574825
threshold=3.2563999891281132 0.057760579511523254 293.00000000000006 0.81590136885643016 0.036270506680011756 5.5459570884704599 0.10071613267064096 4.1489999294281015
decision_type=2 2 2 2 2 2 2 2
left_child=-1 3 5 -2 -4 -3 -7 -8
right_child=1 2 4 -5 -6 6 7 -9
leaf_value=-0.035548462999705509 -0.017228028626662506 -0.0039892745401962585 0.0065124721453017134 -0.0017910672564863822 0.020416630658362293 0.00019984269419075112 0.0049376361388343039 0.014042963268445027
leaf_weight=12.999999999999998 13.000000000000002 20 13.999999999999998 13.999999999999998 18 18 12.000000000000002 11.999999999999998
leaf_count=13 13 20 14 14 18 18 12 12
internal_value=-0.000726673 0.00301703 0.00659378 -0.00933533 0.0144348 0.00249733 0.00564113 0.00961485
internal_weight=134 121 94 27 32 62 42 24
internal_count=134 121 94 27 32 62 42 24
is_linear=0
shrinkage=0.028


Tree=2
num_leaves=8
num_cat=0
split_feature=12 12 0 0 12 12 0
split_gain=21.223 7.9481 3.80339 3.32922 1.0822 1.02394 1.04634
threshold=0.0018294802284799518 0.19245784729719165 5.5373342037200937 5.5373342037200937 0.30926588177680975 0.039717718958854682 5.9013950824737558
decision_type=2 2 2 2 2 2 2
left_child=-1 2 -2 -3 -5 -4 -7
right_child=1 3 5 4 -6 6 -8
leaf_value=-0.033241289568980315 -0.016228070229291916 0.0020392573005501256 -0.0044638701229612688 0.0094981040887485279 0.020590571180240481 -0.0011348697923001696 0.0090833207477434459
leaf_weight=13.999999999999998 13.999999999999998 20 22 11.999999999999998 21 17.000000000000004 13.999999999999998
leaf_count=14 14 20 22 12 21 17 14
internal_value=-0.000705598 0.0030912 -0.00329135 0.0111947 0.0166574 0.000103002 0.00341923
internal_weight=134 120 67 53 33 53 31
internal_count=134 120 67 53 33 53 31
is_linear=0
shrinkage=0.028


Tree=3
num_leaves=9
num_cat=0
split_feature=12 12 0 0 12 14 19 6
split_gain=21.0191 6.89606 4.22437 4.12855 1.78288 1.02632 0.667742 0.588896
threshold=0.0018294802284799518 0.30926588177680975 5.5562388896942148 5.4585182666778573 0.027979306876659397 0.024352638982236389 0.92872810363769542 1.2391999959945681
decision_type=2 2 2 2 2 2 2 2
left_child=-1 2 -2 -3 -4 -6 -5 -7
right_child=1 3 4 6 5 7 -8 -9
leaf_value=-0.031190356191889996 -0.011192750940883801 0.0022439403835585159 -0.0064213653577874031 0.024288052710619831 -0.001151950582911242 0.013300399647717247 0.014340842812069205 0.0051255622115357231
leaf_weight=14.999999999999998 23 18 11.999999999999998 14.000000000000002 11.999999999999998 11.999999999999998 11.999999999999998 20
leaf_count=15 23 18 12 14 12 12 12 20
internal_value=0 0.00383327 -0.00109034 0.0127102 0.00302897 0.00566412 0.019841 0.00828647
internal_weight=138 123 79 44 56 44 26 32
internal_count=138 123 79 44 56 44 26 32
is_linear=0
shrinkage=0.028


Tree=4
num_leaves=9
num_cat=0
split_feature=12 12 0 0 12 14 19 6
split_gain=19.8653 6.52067 3.99153 3.90112 1.6855 0.971255 0.627948 0.555371
threshold=0.0018294802284799518 0.30926588177680975 5.5562388896942148 5.4585182666778573 0.027979306876659397 0.024352638982236389 0.92872810363769542 1.2391999959945681
decision_type=2 2 2 2 2 2 2 2
left_child=-1 2 -2 -3 -4 -6 -5 -7
right_child=1 3 4 6 5 7 -8 -9
leaf_value=-0.030321658468531045 -0.010880440082394581 0.0021813881374499969 -0.0062427578588195197 0.023611851325089275 -0.0011199095954267395 0.012930455041870426 0.013941958202036801 0.0049826181939992302
leaf_weight=14.999999999999998 23 18 11.999999999999998 14.000000000000002 11.999999999999998 11.999999999999998 11.999999999999998 20
leaf_count=15 23 18 12 14 12 12 12 20
internal_value=0 0.00372719 -0.00105982 0.0123592 0.00294347 0.00550641 0.0192912 0.0080577
internal_weight=138 123 79 44 56 44 26 32
internal_count=138 123 79 44 56 44 26 32
is_linear=0
shrinkage=0.028


Tree=5
num_leaves=9
num_cat=0
split_feature=13 12 0 0 12 13 19 12
split_gain=20.1 6.3449 3.6862 3.29634 2.03661 0.781653 0.590426 0.430771
threshold=3.2563999891281132 0.30926588177680975 5.4585182666778573 5.5562388896942148 0.027979306876659397 5.0581498146057138 0.92872810363769542 0.05559907108545304
decision_type=2 2 2 2 2 2 2 2
left_child=-1 3 -3 -2 -5 7 -4 -6
right_child=1 2 6 4 5 -7 -8 -9
leaf_value=-0.033014794191453797 -0.010130236904708221 0.0021205799370938175 0.02295447542315179 -0.0068398189145055686 0.0041272569335427476 0.00026613980410296231 0.013554168764723849 0.01148671761060267
leaf_weight=12.999999999999998 23 18 14.000000000000002 13.999999999999998 13.000000000000002 15.999999999999998 11.999999999999998 14.999999999999998
leaf_count=13 23 18 14 14 13 16 12 15
internal_value=0 0.00346472 0.012018 -0.00116116 0.00236603 0.00535308 0.0187566 0.00817109
internal_weight=138 125 44 81 58 44 26 28
internal_count=138 125 44 81 58 44 26 28
is_linear=0
shrinkage=0.028


Tree=6
num_leaves=9
num_cat=0
split_feature=12 12 0 3 14 5 5 0
split_gain=17.695 6.22228 4.41152 2.8393 1.50139 1.06438 0.774431 0.709735
threshold=0.021154091693460945 0.37212394177913671 5.5459570884704599 1.5000000000000002 0.02392208389937878 3.8999999761581425 4.1291501522064218 5.8780157566070566
decision_type=2 2 2 2 2 2 2 2
left_child=3 2 -2 -1 -4 -3 7 -6
right_child=1 5 4 -5 6 -7 -8 -9
leaf_value=-0.03032015398536617 -0.0097978350005178787 0.020910996512594548 -0.0027810939502573772 -0.010950622597376242 0.00057371264864778629 0.010378778079235223 0.012885921202028508 0.009731233118286985
leaf_weight=13.000000000000002 23 13.999999999999998 14.999999999999998 11.999999999999998 16.000000000000004 20 13.999999999999998 11.999999999999998
leaf_count=13 23 14 15 12 16 20 14 12
internal_value=0.000101388 0.00479884 0.000501242 -0.0211767 0.00470416 0.0148202 0.0074309 0.00459468
internal_weight=139 114 80 25 57 34 42 28
internal_count=139 114 80 25 57 34 42 28
is_linear=0
shrinkage=0.028


Tree=7
num_leaves=9
num_cat=0
split_feature=1 13 2 18 3 5 2 5
split_gain=17.8547 5.55092 4.97496 1.64696 1.2966 0.989158 0.799773 0.48513
threshold=0.047840017825365073 3.9929000139236455 0.050320481881499297 10.018359661102297 293.00000000000006 4.0807499885559091 0.022764278575778011 3.5202500820159917
decision_type=2 2 2 2 2 2 2 2
left_child=1 -1 3 6 5 -4 7 -2
right_child=2 -3 4 -5 -6 -7 -8 -9
leaf_value=-0.026120732501742967 0.0056529161365252737 -0.0036228006553863344 0.014681282032157803 0.0097295054723181128 0.019250474587214735 0.0030170386948727614 -0.0054041944435001292 -0.0018927595514223116
leaf_weight=21 13.000000000000002 14.999999999999998 12.000000000000002 12.999999999999998 18 11.999999999999998 22 12.999999999999998
leaf_count=21 13 15 12 13 18 12 22 13
internal_value=9.8559e-05 -0.0168375 0.00604816 0.000898497 0.0134583 0.00897158 -0.00145886 0.00179996
internal_weight=139 36 103 61 42 24 48 26
internal_count=139 36 103 61 42 24 48 26
is_linear=0
shrinkage=0.028


Tree=8
num_leaves=9
num_cat=0
split_feature=1 13 2 18 3 20 19 5
split_gain=16.8776 5.24288 4.70371 1.55666 1.22239 1.18181 1.77664 0.933511
threshold=0.047840017825365073 3.9929000139236455 0.050320481881499297 10.018359661102297 293.00000000000006 0.064679510891437544 0.92007103562355053 4.0807499885559091
decision_type=2 2 2 2 2 2 2 2
left_child=1 -1 3 5 7 6 -2 -4
right_child=2 -3 4 -5 -6 -7 -8 -9
leaf_value=-0.025392127557768998 -0.012905283371739041 -0.0035219004700251851 0.014272928549556538 0.0094587454949861642 0.018713846490050839 0.0053385331624991855 0.00036538952424366403 0.0029331210095756102
leaf_weight=21 11.999999999999998 14.999999999999998 12.000000000000002 12.999999999999998 18 13.999999999999998 22 11.999999999999998
leaf_count=21 12 15 12 13 18 14 22 12
internal_value=9.60457e-05 -0.0163696 0.00588101 0.000872608 0.0130864 -0.00141808 -0.00427195 0.00872463
internal_weight=139 36 103 61 42 48 34 24
internal_count=139 36 103 61 42 48 34 24
is_linear=0
shrinkage=0.028


Tree=9
num_leaves=9
num_cat=0
split_feature=13 2 0 3 15 10 1 10
split_gain=12.2301 3.64092 2.26635 1.92311 1.88512 1.69925 0.918184 0.365754
threshold=3.4604001045227055 0.045523412525653846 5.5562388896942148 293.00000000000006 0.65765810012817394 0.051335165277123458 0.09104334190487863 0.048753356561064727
decision_type=2 2 2 2 2 2 2 2
left_child=-1 2 -2 5 7 -3 -6 -4
right_child=1 3 4 -5 6 -7 -8 -9
leaf_value=-0.019482424049834374 -0.0074282041976915965 -0.0027368195017441997 0.0043106523615536298 0.016737093338051682 -0.0067554543858458233 0.011469993584366006 0.0033199729462145664 0.011316263146678713
leaf_weight=21 23 12.000000000000002 12.000000000000002 19 15.000000000000002 13.999999999999998 12.999999999999998 14.999999999999998
leaf_count=21 23 12 12 19 15 14 13 15
internal_value=0.000207683 0.00359809 -3.44266e-05 0.00993302 0.00302315 0.00483883 -0.00200167 0.00830731
internal_weight=144 123 78 45 55 26 28 27
internal_count=144 123 78 45 55 26 28 27
is_linear=0
shrinkage=0.028


Tree=10
num_leaves=10
num_cat=0
split_feature=4 11 2 0 4 7 14 4 1
split_gain=10.805 4.88882 3.39469 2.34888 1.96341 1.67099 1.41977 0.381342 0.28929
threshold=-0.11630000174045561 1.2449066638946535 0.045523412525653846 5.5562388896942148 -0.90189999341964711 1.1140000224113467 0.024352638982236389 -0.59409999847412098 0.12273164838552476
decision_type=2 2 2 2 2 2 2 2 2
left_child=1 5 3 -3 8 -1 -5 -8 -4
right_child=-2 2 4 6 -6 -7 7 -9 -10
leaf_value=-0.0011180918341662904 -0.024047946862306799 -0.0062195445405103383 0.017952207387470807 -0.0030316683847876574 0.0016185913785601296 -0.016095445759841148 0.012238407624281005 0.0054518708094399987 0.011448624179450743
leaf_weight=12.000000000000002 12.999999999999998 22 17.000000000000004 11.999999999999998 11.999999999999998 11.999999999999998 11.999999999999998 19.000000000000004 12.999999999999998
leaf_count=12 13 22 17 12 12 12 12 19 13
internal_value=0.000202035 0.00263882 0.00521401 0.00116275 0.0114165 -0.00872839 0.00499627 0.00817573 0.0152464
internal_weight=144 131 107 65 42 24 43 31 30
internal_count=144 131 107 65 42 24 43 31 30
is_linear=0
shrinkage=0.028


Tree=11
num_leaves=9
num_cat=0
split_feature=12 5 12 0 6 12 2 9
split_gain=13.8436 3.48815 2.64178 3.35656 0.970958 0.825827 1.21595 0.378983
threshold=0.027979306876659397 2.8616000413894658 0.37212394177913671 5.5373342037200937 1.4628500342369082 0.19245784729719165 0.018738694489002231 0.09346827864646913
decision_type=2 2 2 2 2 2 2 2
left_child=1 -1 3 -2 -4 6 7 -5
right_child=2 -3 4 5 -6 -7 -8 -9
leaf_value=-0.027369742717963969 -0.0072781080805203492 -0.0085110647017249217 0.0074068785000488586 0.010688351497954581 0.017383230893110689 0.01125850252755246 -0.0037112071476630023 0.0035443964913191104
leaf_weight=11.999999999999998 21 23 20 12.000000000000002 13.999999999999998 15.999999999999998 11.999999999999998 13.999999999999998
leaf_count=12 21 23 20 12 14 16 12 14
internal_value=0.000195914 -0.0150884 0.00513173 0.00215508 0.0116117 0.0058703 0.00352387 0.00695017
internal_weight=144 35 109 75 34 54 38 26
internal_count=144 35 109 75 34 54 38 26
is_linear=0
shrinkage=0.028


Tree=12
num_leaves=8
num_cat=0
split_feature=13 2 0 15 2 10 1
split_gain=10.9459 4.9579 1.73423 1.97051 0.751007 0.68104 0.613898
threshold=3.4604001045227055 0.059501240029931075 5.4585182666778573 0.65765810012817394 0.072990834712982192 0.044324181973934181 0.076965156942605986
decision_type=2 2 2 2 2 2 2
left_child=-1 2 -2 5 -3 -4 -5
right_child=1 4 3 6 -6 -7 -8
leaf_value=-0.019975923612186343 -0.0068162686506259276 0.0074952209369943037 0.001992538274747152 -0.0076720314823732448 0.016822646522548348 0.010562143862684819 0.00037844267229969919
leaf_weight=18 22 13.000000000000002 12.999999999999998 12.000000000000002 18 19 18
leaf_count=18 22 13 13 12 18 19 18
internal_value=0.000259357 0.00345777 -5.07969e-05 0.00231946 0.0130126 0.00716422 -0.00277912
internal_weight=133 115 84 62 31 32 30
internal_count=133 115 84 62 31 32 30
is_linear=0
shrinkage=0.028


Tree=13
num_leaves=9
num_cat=0
split_feature=12 12 0 14 3 1 0 15
split_gain=10.6111 5.61172 2.71747 1.53208 0.949205 0.564126 0.47092 0.237031
threshold=0.021154091693460945 0.37212394177913671 5.5373342037200937 0.02392208389937878 249.50000000000003 0.14727486670017245 5.7535235881805429 0.49799290299415594
decision_type=2 2 2 2 2 2 2 2
left_child=-1 2 7 -4 6 -3 -5 -2
right_child=1 5 3 4 -6 -7 -8 -9
leaf_value=-0.017457878916699816 -0.010870017480919295 0.017406532409576188 -0.0039642382965826284 -0.0012121489624807376 0.011523170132245592 0.0089235705140213294 0.0063359972216439544 -0.004752400125987483
leaf_weight=22 12.000000000000002 18.000000000000004 15.999999999999998 12.000000000000002 15.999999999999998 11.999999999999998 12.999999999999998 11.999999999999998
leaf_count=22 12 18 16 12 16 12 13 12
internal_value=0.000252613 0.00379301 -1.45424e-05 0.00328556 0.00617149 0.0141206 0.00263126 -0.00793018
internal_weight=133 111 81 57 41 30 25 24
internal_count=133 111 81 57 41 30 25 24
is_linear=0
shrinkage=0.028


Tree=14
num_leaves=8
num_cat=0
split_feature=8 10 2 0 15 0 0
split_gain=9.33174 4.33188 2.90932 1.63682 1.0503 0.724692 0.637609
threshold=0.41665643453598028 0.044324181973934181 0.046968923881649978 5.9148530960083017 0.42280587553977972 5.5664324760437021 5.5373342037200937
decision_type=2 2 2 2 2 2 2
left_child=-1 3 4 6 -3 -4 -2
right_child=1 2 5 -5 -6 -7 -8
leaf_value=-0.015925217212059986 -0.011370634128025036 -0.0038184578990626398 0.0086203966410973009 0.0051763579848815092 0.0066672417290630894 0.017662229386458835 -0.0030602913410941839
leaf_weight=23 11.999999999999998 13.000000000000002 12.999999999999998 13.999999999999998 17 20 21
leaf_count=23 12 13 13 14 17 20 21
internal_value=0.000244697 0.00365514 0.00845884 -0.0027397 0.0020509 0.0141975 -0.00617014
internal_weight=133 110 63 47 30 33 33
internal_count=133 110 63 47 30 33 33
is_linear=0
shrinkage=0.028


Tree=15
num_leaves=10
num_cat=0
split_feature=12 13 3 19 14 3 23 8 12
split_gain=9.59886 5.06669 1.42553 1.85675 1.07908 0.917189 0.940605 0.570889 0.489672
threshold=0.18234698474407199 3.3212499618530278 221.50000000000003 0.92313212156295787 0.039692830294370658 9.5000000000000018 44.500000000000007 0.8479522466659547 0.38309021294116979
decision_type=2 2 2 2 2 2 2 2 2
left_child=1 -1 4 -4 -2 -3 7 -7 -5
right_child=2 5 3 8 -6 6 -8 -9 -10
leaf_value=-0.022447405114868618 -0.002603707590393277 -0.0086993785813569389 0.018751558193854528 0.0023510493581917202 0.0091356119889001181 0.0047151586402356064 -0.0063682729991254823 -0.0026640838697233695 0.010657498744544604
leaf_weight=11.999999999999998 12.000000000000002 14.999999999999998 18 12.000000000000002 11.999999999999998 21 15.999999999999998 12.999999999999998 11.999999999999998
leaf_count=12 12 15 18 12 12 21 16 13 12
internal_value=0.000926985 -0.00576912 0.00877053 0.0118976 0.00318378 -0.00263182 -0.000755841 0.00182833 0.00661891
internal_weight=143 77 66 42 24 65 50 34 24
internal_count=143 77 66 42 24 65 50 34 24
is_linear=0
shrinkage=0.028


Tree=16
num_leaves=9
num_cat=0
split_feature=13 11 19 0 18 15 14 10
split_gain=9.04606 2.64031 2.72077 2.37062 1.17143 1.62348 0.833126 0.752147
threshold=3.4604001045227055 1.4757328629493716 0.92313212156295787 5.5562388896942148 10.00979804992676 0.65765810012817394 0.042679525911808021 0.045510709285736091
decision_type=2 2 2 2 2 2 2 2
left_child=-1 3 6 -2 5 -5 -3 -4
right_child=1 2 7 4 -6 -7 -8 -9
leaf_value=-0.01650494624466535 -0.0084175603793352153 0.020138696429197207 -0.0015185999832445045 0.0062744092755908981 0.0091355973519995585 -0.0069452396727759727 0.0092954988124354793 0.0068348654806613925
leaf_weight=20 19 13.000000000000002 15.999999999999998 15.000000000000002 17 13.999999999999998 11.999999999999998 17
leaf_count=20 19 13 16 15 17 14 12 17
internal_value=0.000900636 0.0037579 0.00809684 -8.45411e-05 0.00331739 -3.20111e-05 0.0150695 0.00272311
internal_weight=143 123 58 65 46 29 25 33
internal_count=143 123 58 65 46 29 25 33
is_linear=0
shrinkage=0.028


Tree=17
num_leaves=11
num_cat=0
split_feature=12 13 0 3 19 14 15 3 13 12
split_gain=8.69521 4.58523 2.02506 1.29957 1.64516 0.998694 0.776106 0.642209 0.957061 0.459243
threshold=0.18234698474407199 3.3212499618530278 5.9013950824737558 221.50000000000003 0.92313212156295787 0.039692830294370658 0.7326129972934724 9.5000000000000018 4.4349501132965097 0.38309021294116979
decision_type=2 2 2 2 2 2 2 2 2 2
left_child=1 -1 7 5 -5 -2 -4 -3 -9 -6
right_child=3 2 6 4 9 -7 -8 8 -10 -11
leaf_value=-0.021363962180961836 -0.002560797704568761 -0.011833511204909015 0.0089142575380669886 0.017785245061975666 0.0022102624117982697 0.0087306592707701077 -0.00098691288066028748 0.0012078119438056916 -0.0088315355965882456 0.010260210497884562
leaf_weight=11.999999999999998 12.000000000000002 11.999999999999998 12.000000000000002 18 12.000000000000002 11.999999999999998 11.999999999999998 14.000000000000002 14.999999999999998 11.999999999999998
leaf_count=12 12 12 12 18 12 12 12 14 15 12
internal_value=0.000875704 -0.00549658 -0.00251014 0.00834159 0.011328 0.00300216 0.00388382 -0.00630775 -0.00391794 0.00634897
internal_weight=143 77 65 66 42 24 24 41 29 24
internal_count=143 77 65 66 42 24 24 41 29 24
is_linear=0
shrinkage=0.028


Tree=18
num_leaves=10
num_cat=0
split_feature=1 14 12 12 14 5 14 5 20
split_gain=11.8053 2.49361 2.47756 1.0508 0.947821 0.775668 0.742898 0.542644 0.34116
threshold=0.047840017825365073 0.024882625788450245 0.43305881321430212 0.042670318856835372 0.021500015631318096 3.8999999761581425 0.033221457153558738 4.0492501258850107 0.064679510891437544
decision_type=2 2 2 2 2 2 2 2 2
left_child=1 -1 3 -2 -5 -4 7 -6 -8
right_child=2 -3 5 4 6 -7 8 -9 -10
leaf_value=-0.026096104964515233 -0.0056364783109499224 -0.0097751703863164716 0.016404377872185988 -0.0040598017002828985 0.012169596208247124 0.0058848075490222857 -0.002130747750982505 0.0033909413354681027 0.0042115951231951384
leaf_weight=11.999999999999998 14.999999999999998 21 12.000000000000002 12.999999999999998 12.000000000000002 11.999999999999998 13.000000000000002 11.999999999999998 12.999999999999998
leaf_count=12 15 21 12 13 12 12 13 12 13
internal_value=-0.00127865 -0.0158265 0.00341479 0.000958613 0.00256954 0.0112746 0.00434163 0.00789914 0.000957726
internal_weight=135 33 102 78 63 24 50 24 26
internal_count=135 33 102 78 63 24 50 24 26
is_linear=0
shrinkage=0.028


Tree=19
num_leaves=9
num_cat=0
split_feature=1 17 12 11 9 25 5 15
split_gain=11.1727 3.10722 2.14609 0.812322 0.937937 0.736466 0.731376 0.58161
threshold=0.057760579511523254 0.046163374558091171 0.43305881321430212 1.2902759909629824 0.059547353535890586 819.60501098632824 3.8999999761581425 0.63692545890808117
decision_type=2 2 2 2 2 2 2 2
left_child=1 -1 3 5 -5 -2 -4 -6
right_child=2 -3 6 4 7 -7 -8 -9
leaf_value=-0.02479189475219358 -0.007002945099999618 -0.0078283573414555767 0.015948097161899336 0.0093036449345258575 0.0043340179795613061 0.0021367686007638955 0.0057211242204667717 -0.0031830735510951324
leaf_weight=13.999999999999998 14.000000000000002 23 12.000000000000002 14.999999999999998 17 12.999999999999998 11.999999999999998 14.999999999999998
leaf_count=14 14 23 12 15 17 13 12 15
internal_value=-0.00124247 -0.014347 0.00369 0.00129145 0.00353278 -0.00252631 0.0109636 0.000741405
internal_weight=135 37 98 74 47 27 24 32
internal_count=135 37 98 74 47 27 24 32
is_linear=0
shrinkage=0.028


Tree=20
num_leaves=9
num_cat=0
split_feature=1 17 12 0 8 14 14 0
split_gain=10.5841 2.68504 2.21066 1.53308 1.24875 0.793596 0.762781 0.725957
threshold=0.047840017825365073 0.046163374558091171 0.43305881321430212 5.5459570884704599 1.3051384091377261 0.021500015631318096 0.034040616825222976 5.61403512954712
decision_type=2 2 2 2 2 2 2 2
left_child=1 -1 3 4 -2 -5 -7 -4
right_child=2 -3 7 5 -6 6 -8 -9
leaf_value=-0.024947368579902415 -0.01125264820777225 -0.0083200071746431497 0.0054445924405625307 -0.0022448432892560959 0.0011073199449853251 0.0094793120240607119 0.0015866284575090704 0.015621908815343252
leaf_weight=12.999999999999998 12.000000000000002 20 12.000000000000002 12.999999999999998 12.999999999999998 20 20 11.999999999999998
leaf_count=13 12 20 12 13 13 20 20 12
internal_value=-0.00120685 -0.0149824 0.00323625 0.000914361 -0.00475312 0.00363304 0.0055999 0.0106613
internal_weight=135 33 102 78 25 53 40 24
internal_count=135 33 102 78 25 53 40 24
is_linear=0
shrinkage=0.028


Tree=21
num_leaves=9
num_cat=0
split_feature=1 13 12 0 5 12 2 1
split_gain=8.16928 2.32523 2.25108 1.74762 1.08165 0.836334 0.801997 0.548895
threshold=0.047840017825365073 4.0103499889373788 0.38309021294116979 5.5459570884704599 3.8999999761581425 0.19245784729719165 0.01613029791042209 0.09104334190487863
decision_type=2 2 2 2 2 2 2 2
left_child=1 -1 3 -2 -4 6 7 -5
right_child=2 -3 4 5 -6 -7 -8 -9
leaf_value=-0.019731639206653735 -0.005510954439901526 -0.0037422686127265093 0.015284541633306194 0 0.0048304804424730554 0.0088263513735327565 -0.0046039256046939373 0.0084375219779052081
leaf_weight=17.000000000000004 23 12.999999999999998 14.999999999999998 13.000000000000002 18 17 11.999999999999998 11.999999999999998
leaf_count=17 23 13 15 13 18 17 12 12
internal_value=9.80734e-06 -0.0129058 0.0035594 0.000901831 0.00967551 0.00367873 0.00123926 0.00413905
internal_weight=140 30 110 77 33 54 37 25
internal_count=140 30 110 77 33 54 37 25
is_linear=0
shrinkage=0.028


Tree=22
num_leaves=8
num_cat=0
split_feature=1 13 11 0 15 15 19
split_gain=7.72345 2.19539 1.96193 2.26844 1.6081 0.817592 0.777159
threshold=0.047840017825365073 4.0103499889373788 1.3310241103172304 5.5562388896942148 0.36277651786804205 0.56487494707107555 0.92471021413803112
decision_type=2 2 2 2 2 2 2
left_child=1 -1 5 4 -4 -2 -5
right_child=2 -3 3 6 -6 -7 -8
leaf_value=-0.019181741074949011 -0.0081711643074965992 -0.0036381259481721652 0.0074061259058725787 0.013971960134021398 -0.0043354845353184837 0.00106022343210548 0.006029077049713504
leaf_weight=17.000000000000004 12.000000000000002 12.999999999999998 15.999999999999998 22 21 19 20
leaf_count=17 12 13 16 22 21 19 20
internal_value=9.52178e-06 -0.0125482 0.00346134 0.00581061 0.000686583 -0.00245298 0.0102615
internal_weight=140 30 110 79 37 31 42
internal_count=140 30 110 79 37 31 42
is_linear=0
shrinkage=0.028


Tree=23
num_leaves=9
num_cat=0
split_feature=1 13 12 0 11 6 0 4
split_gain=7.30138 2.07275 2.0593 1.57076 1.331 1.16868 0.377007 0.336031
threshold=0.047840017825365073 4.0103499889373788 0.38309021294116979 5.5459570884704599 1.3396555781364443 1.2667499780654909 5.8780157566070566 -0.59409999847412098
decision_type=2 2 2 2 2 2 2 2
left_child=1 -1 3 -2 6 -4 -5 -6
right_child=2 -3 5 4 7 -7 -8 -9
leaf_value=-0.018647167999724872 -0.005255676904885322 -0.0035368813213348294 0.0024446085846045879 -0.0044469669969803682 0.010643487028046373 0.013477053389472672 0.0022219839456180729 0.0040733730151497442
leaf_weight=17.000000000000004 23 12.999999999999998 12.999999999999998 13.000000000000002 15.000000000000002 20 12.999999999999998 12.999999999999998
leaf_count=17 23 13 13 13 15 20 13 13
internal_value=8.69773e-06 -0.0122007 0.00336532 0.000822259 0.00345637 0.00921508 -0.00103001 0.00769314
internal_weight=140 30 110 77 54 33 26 28
internal_count=140 30 110 77 54 33 26 28
is_linear=0
shrinkage=0.028


Tree=24
num_leaves=8
num_cat=0
split_feature=12 12 0 15 14 0 2
split_gain=8.15217 2.55813 2.11595 1.93006 0.874823 0.761526 0.419405
threshold=0.052443196997046478 0.3387270867824555 5.5459570884704599 0.81588342785835277 0.02392208389937878 5.4585182666778573 0.022764278575778011
decision_type=2 2 2 2 2 2 2
left_child=3 2 -2 -1 -4 -3 -6
right_child=1 5 4 -5 6 -7 -8
leaf_value=-0.0032716551918963921 -0.006072515167448062 0.0048156531578706988 -0.00076643942845615039 -0.016165560673830407 0.011930636803342014 0.013903557945236539 0.0045133838668584185
leaf_weight=17 20 11.999999999999998 12.999999999999998 21 12.000000000000002 23 14.999999999999998
leaf_count=17 20 12 13 21 12 23 15
internal_value=0.000453863 0.00485412 0.00129798 -0.010475 0.00504388 0.0108696 0.00791817
internal_weight=133 95 60 38 40 35 27
internal_count=133 95 60 38 40 35 27
is_linear=0
shrinkage=0.028


Tree=25
num_leaves=7
num_cat=0
split_feature=12 12 1 0 1 0
split_gain=7.70637 2.41805 2.33797 1.99989 0.909018 0.718773
threshold=0.052443196997046478 0.3387270867824555 0.03253543563187123 5.5459570884704599 0.083957649767398848 5.5664324760437021
decision_type=2 2 2 2 2 2
left_child=2 3 -1 -2 -5 -3
right_child=1 5 -4 4 -6 -7
leaf_value=-0.017135883212214497 -0.0059031620427921596 0.0061617427430436271 -0.0030730910323076028 0.0093389238578782847 0.00076408416760177051 0.014560436222825893
leaf_weight=19 20 17 19 19 21 18
leaf_count=19 20 17 19 19 21 18
internal_value=0.000440833 0.00471953 -0.0101845 0.00126095 0.00490353 0.0105683
internal_weight=133 95 38 60 40 35
internal_count=133 95 38 60 40 35
is_linear=0
shrinkage=0.028


Tree=26
num_leaves=8
num_cat=0
split_feature=12 12 1 2 1 19 5
split_gain=7.28569 2.2853 2.20784 0.967301 0.955101 0.544355 0.535439
threshold=0.052443196997046478 0.3387270867824555 0.03253543563187123 0.01613029791042209 0.083957649767398848 0.92226886749267589 4.1291501522064218
decision_type=2 2 2 2 2 2 2
left_child=2 3 -1 -2 -5 -6 -3
right_child=1 6 -4 4 5 -7 -8
leaf_value=-0.016658090416302972 0.0062594678239132548 0.013189141581418169 -0.0029874052560616843 0.004559003570879047 -0.0081916601913187385 0 0.0056957877747243566
leaf_weight=19 20 21 19 13.999999999999998 14.000000000000002 11.999999999999998 13.999999999999998
leaf_count=19 20 21 19 14 14 12 14
internal_value=0.000428569 0.00458929 -0.00990221 0.0012258 -0.00124261 -0.00445685 0.0102755
internal_weight=133 95 38 60 40 26 35
internal_count=133 95 38 60 40 26 35
is_linear=0
shrinkage=0.028


Tree=27
num_leaves=8
num_cat=0
split_feature=1 11 8 0 15 9 3
split_gain=6.74205 2.86369 1.73509 1.75316 0.760939 0.306018 0.29004
threshold=0.047840017825365073 1.2661454081535342 1.6604974269866946 5.5373342037200937 0.30517323315143591 0.10071613267064096 264.50000000000006
decision_type=2 2 2 2 2 2 2
left_child=1 -1 3 -2 -5 6 -6
right_child=2 -3 -4 4 5 -7 -8
leaf_value=-0.019426001864731018 -0.0046719572322130006 -0.0031839421531595527 0.011707301721572267 0.0096377811284726542 -0.0028099412072499258 0.0048859810411675609 0.0033134193963167682
leaf_weight=15.999999999999998 23 19 17 15.999999999999998 12.000000000000002 21 11.999999999999998
leaf_count=16 23 19 17 16 12 21 12
internal_value=-0.000107979 -0.0107001 0.00354596 0.00185805 0.00435976 0.00241966 0.000159552
internal_weight=136 35 101 84 61 45 24
internal_count=136 35 101 84 61 45 24
is_linear=0
shrinkage=0.028


Tree=28
num_leaves=9
num_cat=0
split_feature=1 11 12 0 4 14 1 3
split_gain=6.37379 2.70472 1.82699 1.54503 1.12647 0.543428 0.416335 0.327376
threshold=0.047840017825365073 1.2661454081535342 0.25762286782264715 5.5373342037200937 -0.9388500154018401 0.02392208389937878 0.09104334190487863 293.00000000000006
decision_type=2 2 2 2 2 2 2 2
left_child=1 -1 3 -2 7 -5 -7 -4
right_child=2 -3 4 5 -6 6 -8 -9
leaf_value=-0.018884779810015836 -0.0083577955969202054 -0.0030951654873475967 0.0071288240563297097 -0.0022964997483997155 0.0017873964258393303 0.0010710015019861393 0.0077633140079436166 0.013896401486586578
leaf_weight=15.999999999999998 12.999999999999998 19 12.000000000000002 11.999999999999998 17 15.000000000000002 15.999999999999998 15.999999999999998
leaf_count=16 13 19 12 12 17 15 16 16
internal_value=-0.000104504 -0.0104037 0.00344779 3.00126e-05 0.00764372 0.00262867 0.00460826 0.0111044
internal_weight=136 35 101 56 45 43 31 28
internal_count=136 35 101 56 45 43 31 28
is_linear=0
shrinkage=0.028


Tree=29
num_leaves=8
num_cat=0
split_feature=1 11 12 20 4 9 3
split_gain=6.02625 2.55452 1.72797 1.10501 1.07074 0.519529 0.411226
threshold=0.047840017825365073 1.2661454081535342 0.25762286782264715 0.06658195331692697 -0.8429499864578246 0.069735676050186171 293.00000000000006
decision_type=2 2 2 2 2 2 2
left_child=1 -1 3 5 6 -2 -4
right_child=2 -3 4 -5 -6 -7 -8
leaf_value=-0.018358636792619433 0.00036605336418131501 -0.0030088643095450207 0.0066703200865147723 0.0060081179972554825 0.00046942607210863623 -0.0060158116065204739 0.013509238158848453
leaf_weight=15.999999999999998 21 19 15.999999999999998 17 12.999999999999998 18 15.999999999999998
leaf_count=16 21 19 16 17 13 18 16
internal_value=-0.000100672 -0.0101156 0.00335295 2.79812e-05 0.00743362 -0.00252839 0.0101848
internal_weight=136 35 101 56 45 39 32
internal_count=136 35 101 56 45 39 32
is_linear=0
shrinkage=0.028


Tree=30
num_leaves=9
num_cat=0
split_feature=8 17 10 0 8 8 5 15
split_gain=6.61904 2.27717 1.7637 1.24779 1.28594 0.65532 0.594413 0.11988
threshold=0.58698740601539623 0.065560750663280501 0.034423403441905982 5.5664324760437021 1.5412198901176455 1.2271586060523989 4.1291501522064218 0.56487494707107555
decision_type=2 2 2 2 2 2 2 2
left_child=1 -1 -2 4 6 7 -4 -5
right_child=2 -3 3 5 -6 -7 -8 -9
leaf_value=-0.017675081249524272 -0.004849419281863776 -0.0034018867703863483 0.001716355929849669 0.0069239349759967102 0.0082419427978404035 0.011860477531279095 -0.0064892268709906744 0.002518832023175347
leaf_weight=18 17 18 14.000000000000002 12.000000000000002 13.999999999999998 21 12.999999999999998 11.999999999999998
leaf_count=18 17 18 14 12 14 21 13 12
internal_value=-0.000287593 -0.0106239 0.00330882 0.00495053 0.00134698 0.00817585 -0.00215926 0.00483009
internal_weight=139 36 103 86 41 45 27 24
internal_count=139 36 103 86 41 45 27 24
is_linear=0
shrinkage=0.028


Tree=31
num_leaves=9
num_cat=0
split_feature=8 12 17 0 14 9 17 3
split_gain=6.25794 2.32628 2.15034 1.22475 1.09039 0.615938 0.270064 0.253019
threshold=0.58698740601539623 0.38309021294116979 0.065560750663280501 5.5459570884704599 0.024352638982236389 0.064653020352125182 0.083516735583543791 249.50000000000003
decision_type=2 2 2 2 2 2 2 2
left_child=2 3 -1 5 -5 -2 -3 -6
right_child=1 6 -4 4 7 -7 -8 -9
leaf_value=-0.017182368685944683 0.00025888113939012117 0.011595201768841877 -0.0033070555143387974 -0.0030688475369137118 0.0032565783171025521 -0.0080675179019115799 0.0057115446284462679 0.0087856788474473362
leaf_weight=18 12.000000000000002 20 18 13.999999999999998 14.000000000000002 14.999999999999998 11.999999999999998 15.999999999999998
leaf_count=18 12 20 18 14 14 15 12 16
internal_value=-0.000278657 0.00321782 -0.0103295 0.000357148 0.0032649 -0.00429435 0.0094784 0.00629542
internal_weight=139 103 36 71 44 27 32 30
internal_count=139 103 36 71 44 27 32 30
is_linear=0
shrinkage=0.028


Tree=32
num_leaves=9
num_cat=0
split_feature=8 12 1 0 14 9 19 23
split_gain=5.9166 2.19889 1.81525 1.1568 1.03148 0.582772 0.238471 0.214044
threshold=0.58698740601539623 0.38309021294116979 0.034698432311415679 5.5459570884704599 0.024352638982236389 0.064653020352125182 0.92570251226425182 36.425001144409187
decision_type=2 2 2 2 2 2 2 2
left_child=2 3 -1 5 -5 -2 -6 -3
right_child=1 7 -4 4 6 -7 -8 -9
leaf_value=-0.016711688426552251 0.00025168043325673659 0.006979715100216213 -0.0039143858580094467 -0.0029834081377961078 0.0087148299716333956 -0.0078428259105952722 0.0033484176810564033 0.012250898521701132
leaf_weight=17 12.000000000000002 19 19 13.999999999999998 15.000000000000002 14.999999999999998 14.999999999999998 12.999999999999998
leaf_count=17 12 19 19 14 15 15 15 13
internal_value=-0.000269985 0.00312934 -0.0100433 0.000347184 0.00317394 -0.00417243 0.00612213 0.00921617
internal_weight=139 103 36 71 44 27 30 32
internal_count=139 103 36 71 44 27 30 32
is_linear=0
shrinkage=0.028


Tree=33
num_leaves=10
num_cat=0
split_feature=3 1 19 0 11 2 6 5 10
split_gain=5.63832 3.62614 1.5268 1.18164 1.04601 0.446036 0.403699 0.319054 0.30942
threshold=221.50000000000003 0.03253543563187123 0.91877907514572155 5.5562388896942148 1.3756580948829653 0.059501240029931075 1.3942500352859499 4.2850999832153329 0.04893773794174195
decision_type=2 2 2 2 2 2 2 2 2
left_child=1 -1 -2 8 6 7 -5 -4 -3
right_child=2 3 5 4 -6 -7 -8 -9 -10
leaf_value=-0.014977431084055352 0.015274913732794082 -0.0093029539164229697 0.0048390429225951374 -0.0047645173518482678 0.008675492903550729 0.0089360149615993166 0.0022683209763324839 -0.00059738819745623248 -0.0025879020983266905
leaf_weight=20 12.999999999999998 12.000000000000002 19 13.000000000000002 11.999999999999998 11.999999999999998 11.999999999999998 13.999999999999998 11.999999999999998
leaf_count=20 13 12 19 13 12 12 12 14 12
internal_value=0.000107231 -0.00464661 0.00678204 -0.0012076 0.00188461 0.0042561 -0.00130297 0.0024691 -0.0060582
internal_weight=139 81 58 61 37 45 25 33 24
internal_count=139 81 58 61 37 45 25 33 24
is_linear=0
shrinkage=0.028


Tree=34
num_leaves=9
num_cat=0
split_feature=12 15 3 2 19 5 3 4
split_gain=5.82117 2.28052 1.79159 1.1058 0.80917 1.07333 1.18381 0.432086
threshold=0.042670318856835372 1.0102582573890688 293.00000000000006 0.024355023168027404 0.93806350231170665 3.801399946212769 60.000000000000007 -1.1064000129699705
decision_type=2 2 2 2 2 2 2 2
left_child=1 -1 4 -4 5 6 -2 -5
right_child=2 -3 3 7 -6 -7 -8 -9
leaf_value=-0.0032548541982030331 -0.0031214749214493408 -0.017168803105899948 0.0012306152357417621 0.015842543207651733 0.0066450348712757904 -0.0059426530469431586 0.0082927762821279668 0.0079799613414162918
leaf_weight=23 14.000000000000002 15.999999999999998 11.999999999999998 11.999999999999998 13.999999999999998 20 13.999999999999998 14.000000000000002
leaf_count=23 14 16 12 12 14 20 14 14
internal_value=0.000103903 -0.00904392 0.00369831 0.00848429 0.000721739 -0.000967482 0.00251325 0.0117322
internal_weight=139 39 100 38 62 48 28 26
internal_count=139 39 100 38 62 48 28 26
is_linear=0
shrinkage=0.028


Tree=35
num_leaves=10
num_cat=0
split_feature=3 1 19 0 11 2 6 16 10
split_gain=5.07396 3.29122 1.38875 1.08243 0.950451 0.401221 0.374777 0.341325 0.288039
threshold=221.50000000000003 0.03253543563187123 0.91877907514572155 5.5562388896942148 1.3756580948829653 0.059501240029931075 1.3942500352859499 0.90891075134277355 0.04893773794174195
decision_type=2 2 2 2 2 2 2 2 2
left_child=1 -1 -2 8 6 7 -5 -4 -3
right_child=2 3 5 4 -6 -7 -8 -9 -10
leaf_value=-0.014250128342692122 0.014536158718464937 -0.0089042147678748632 -0.00066682782497464507 -0.0045450006166091374 0.0083019946728222407 0.0084636954388871092 0.0022311238086480177 0.0049293878790221913 -0.0024187308972245017
leaf_weight=20 12.999999999999998 12.000000000000002 14.999999999999998 13.000000000000002 11.999999999999998 11.999999999999998 11.999999999999998 18 11.999999999999998
leaf_count=20 13 12 15 13 12 12 12 18 12
internal_value=0.000101162 -0.00440765 0.00643392 -0.0011295 0.00182825 0.00402194 -0.0012064 0.00232248 -0.0057733
internal_weight=139 81 58 61 37 45 25 33 24
internal_count=139 81 58 61 37 45 25 33 24
is_linear=0
shrinkage=0.028


Tree=36
num_leaves=8
num_cat=0
split_feature=8 0 10 8 0 18 3
split_gain=3.74513 1.41366 1.21861 0.923595 0.861067 0.382527 0.231347
threshold=0.41665643453598028 5.5562388896942148 0.045884197577834136 1.5412198901176455 5.9013950824737558 10.010861873626711 293.00000000000006
decision_type=2 2 2 2 2 2 2
left_child=-1 3 4 5 -3 -2 -4
right_child=1 2 6 -5 -6 -7 -8
leaf_value=-0.010229941063142126 -0.0082728485208473437 -0.0021281556614322953 0.0066570766419728295 0.0040843025622024779 0.0062864853574237873 -0.0015371882067840609 0.012299014832585229
leaf_weight=22 12.000000000000002 21 16.000000000000004 14.999999999999998 17 17 12.999999999999998
leaf_count=22 12 21 16 15 17 17 13
internal_value=0.000283375 0.00239313 0.00495928 -0.00146552 0.00158276 -0.00441648 0.00929013
internal_weight=133 111 67 44 38 29 29
internal_count=133 111 67 44 38 29 29
is_linear=0
shrinkage=0.028


Tree=37
num_leaves=9
num_cat=0
split_feature=8 14 0 8 15 16 16 13
split_gain=3.53919 1.47279 1.42291 1.76142 0.488026 0.496378 0.457791 0.215976
threshold=0.41665643453598028 0.024352638982236389 5.5562388896942148 1.5412198901176455 0.30517323315143591 0.98209053277969371 0.96922472119331371 4.8708999156951913
decision_type=2 2 2 2 2 2 2 2
left_child=-1 6 3 7 -4 -6 -2 -3
right_child=1 2 4 -5 5 -7 -8 -9
leaf_value=-0.0099445406594786106 -0.007229332789220483 -0.0016255013085161609 0.011479425766898088 0.0085537983112481258 0.0079103204060409511 0.00090459394124759861 0.00016818376682353335 -0.0072497843988486473
leaf_weight=22 13.000000000000002 12.000000000000002 14.999999999999998 11.999999999999998 21 13.999999999999998 11.999999999999998 11.999999999999998
leaf_count=22 13 12 15 12 21 14 12 12
internal_value=0.00027509 0.00232647 0.00407705 -0.000107638 0.00713011 0.00518034 -0.0036 -0.00454541
internal_weight=133 111 86 36 50 35 25 24
internal_count=133 111 86 36 50 35 25 24
is_linear=0
shrinkage=0.028


Tree=38
num_leaves=8
num_cat=0
split_feature=8 14 3 1 6 19 16
split_gain=3.34484 1.39161 1.19575 0.609491 0.569467 0.521645 0.433223
threshold=0.41665643453598028 0.024352638982236389 293.00000000000006 0.087220497429370894 1.5297999978065493 0.92313212156295787 0.96922472119331371
decision_type=2 2 2 2 2 2 2
left_child=-1 6 3 -3 -5 -4 -2
right_child=1 2 5 4 -6 -7 -8
leaf_value=-0.0096671024382222401 -0.00702814943363907 -0.003438322983860021 0.012875603460910304 0.00021999806404599678 0.007396260950240042 0.0052840874791145326 0.00016350579335792174
leaf_weight=22 13.000000000000002 14.999999999999998 11.999999999999998 22 14.999999999999998 22 11.999999999999998
leaf_count=22 13 15 12 22 15 22 12
internal_value=0.000267437 0.00226215 0.00396414 0.00123931 0.00319938 0.00805311 -0.00349733
internal_weight=133 111 86 52 37 34 25
internal_count=133 111 86 52 37 34 25
is_linear=0
shrinkage=0.028


Tree=39
num_leaves=9
num_cat=0
split_feature=11 4 0 10 0 10 7 24
split_gain=3.33363 1.88767 1.75115 1.00273 0.956717 0.909723 0.285129 0.238256
threshold=1.2661454081535342 -0.40230000019073481 5.5562388896942148 0.055519675835967071 5.7535235881805429 0.038232229650020606 1.1600499749183657 78.860000610351577
decision_type=2 2 2 2 2 2 2 2
left_child=1 4 3 7 -1 -4 -7 -2
right_child=2 -3 5 -5 -6 6 -8 -9
leaf_value=-0.0076094958235984594 -0.0020838485417107189 -0.014521087613549845 0.00038430782149902627 0.0040027732193983834 0.0034690405872977335 0.0063873145632391826 0.012096217479175157 -0.0077647050855630039
leaf_weight=12.000000000000002 13.000000000000002 15.999999999999998 15.999999999999998 14.999999999999998 11.999999999999998 22 12.999999999999998 12.999999999999998
leaf_count=12 13 16 16 15 12 22 13 13
internal_value=-0.000318466 -0.00707375 0.00259788 -0.00166644 -0.00198408 0.00606715 0.00859437 -0.00502527
internal_weight=132 40 92 41 24 51 35 26
internal_count=132 40 92 41 24 51 35 26
is_linear=0
shrinkage=0.028


Tree=40
num_leaves=7
num_cat=0
split_feature=13 0 1 12 15 3
split_gain=3.77405 2.28971 2.25205 1.15026 0.547886 0.490099
threshold=3.9375499486923222 5.5562388896942148 0.054128525778651244 0.23311960697174075 0.30517323315143591 293.00000000000006
decision_type=2 2 2 2 2 2
left_child=2 3 -1 -2 -3 -6
right_child=1 4 -4 -5 5 -7
leaf_value=-0.015980440565973374 -0.0078479243142744615 0.010586161172582736 -0.0014037797600566619 0.0015259191920945301 0.0011558155666266268 0.0074290655324332038
leaf_weight=15.999999999999998 18 15.999999999999998 18 23 21 20
leaf_count=16 18 16 18 23 21 20
internal_value=-0.000308695 0.00246302 -0.00835052 -0.00254217 0.00610101 0.00427897
internal_weight=132 98 34 41 57 41
internal_count=132 98 34 41 57 41
is_linear=0
shrinkage=0.028


Tree=41
num_leaves=9
num_cat=0
split_feature=11 4 0 10 0 10 18 2
split_gain=3.03921 1.71685 1.55413 0.922876 0.873253 0.829829 0.243942 0.154231
threshold=1.2661454081535342 -0.40230000019073481 5.5562388896942148 0.055519675835967071 5.7535235881805429 0.038232229650020606 10.010005474090578 0.024355023168027404
decision_type=2 2 2 2 2 2 2 2
left_child=1 4 3 7 -1 -4 -7 -2
right_child=2 -3 5 -5 -6 6 -8 -9
leaf_value=-0.007268123127791461 -0.0024830330561592491 -0.01385342651581049 0.00032003683732146059 0.0039064459113764827 0.0033131939681456577 0.010586113126371552 0.0054362141268907999 -0.0071853130471627438
leaf_weight=12.000000000000002 14.000000000000002 15.999999999999998 15.999999999999998 14.999999999999998 11.999999999999998 18 17 11.999999999999998
leaf_count=12 14 16 16 15 12 18 17 12
internal_value=-0.000299178 -0.00674997 0.00248461 -0.00152995 -0.00189101 0.0057532 0.00816669 -0.00475459
internal_weight=132 40 92 41 24 51 35 26
internal_count=132 40 92 41 24 51 35 26
is_linear=0
shrinkage=0.028


Tree=42
num_leaves=11
num_cat=0
split_feature=12 12 25 25 9 4 12 2 16 11
split_gain=3.38724 1.41819 1.30123 0.978882 0.786423 0.603055 0.58775 0.443844 0.294948 0.179005
threshold=0.0018294802284799518 0.26480448246002203 393.50000000000006 623.61999511718761 0.07528292760252954 -1.1323999762535093 0.40707440674304968 0.0090526039712131041 0.96922472119331371 1.5121251940727236
decision_type=2 2 2 2 2 2 2 2 2 2
left_child=-1 2 -2 -4 7 9 -7 -5 -6 -3
right_child=1 5 3 4 8 6 -8 -9 -10 -11
leaf_value=-0.013708984753943436 -0.0082866424182853234 0.0054470698449587962 0.0073584044454841624 -0.000970029247949356 -0.0012047921049577943 -0.0015366882272488012 0.0067922760129764375 0.006345447326745462 -0.0074189744129752287 0.010758026215840469
leaf_weight=11.999999999999998 13.999999999999998 12.000000000000002 14.999999999999998 12.000000000000002 14.000000000000002 14.000000000000002 11.999999999999998 12.999999999999998 11.999999999999998 13.999999999999998
leaf_count=12 14 12 15 12 14 14 12 13 12 14
internal_value=0.000462159 0.00177493 -0.000540152 0.00107719 -0.000735008 0.00537496 0.0022306 0.00275281 -0.00417273 0.00841693
internal_weight=144 132 80 66 51 52 26 25 26 26
internal_count=144 132 80 66 51 52 26 25 26 26
is_linear=0
shrinkage=0.028


Tree=43
num_leaves=9
num_cat=0
split_feature=12 3 19 0 10 22 23 22
split_gain=3.20128 1.48451 1.03756 0.94861 1.47261 1.03192 0.757131 0.0914599
threshold=0.0018294802284799518 293.00000000000006 0.92570251226425182 5.5459570884704599 0.044633740559220321 0.03573258966207505 24.534999847412113 0.058718917891383178
decision_type=2 2 2 2 2 2 2 2
left_child=-1 3 -3 4 -2 -5 -7 -8
right_child=1 2 -4 5 -6 6 7 -9
leaf_value=-0.013327675510913331 -0.010063808127459306 0.010537076907320765 0.0012209849459020241 0.007192421619294293 0.0011107773010316793 -0.0064475861114529978 0.00018528020150021995 0.0038545479648160615
leaf_weight=11.999999999999998 15.999999999999998 21 18 20 21 11.999999999999998 12.000000000000002 11.999999999999998
leaf_count=12 16 21 18 20 21 12 12 12
internal_value=0.000448403 0.00172505 0.00630596 -0.000175685 -0.00367235 0.00209661 -0.000681977 0.00211965
internal_weight=144 132 39 93 37 56 36 24
internal_count=144 132 39 93 37 56 36 24
is_linear=0
shrinkage=0.028


Tree=44
num_leaves=11
num_cat=0
split_feature=12 12 25 25 9 5 13 2 16 25
split_gain=3.02626 1.28643 1.17347 0.922094 0.729873 0.582157 0.83376 0.405988 0.274648 0.260331
threshold=0.0018294802284799518 0.26480448246002203 393.50000000000006 623.61999511718761 0.07528292760252954 4.0807499885559091 5.4923000335693368 0.0090526039712131041 0.96922472119331371 772.51498413085949
decision_type=2 2 2 2 2 2 2 2 2 2
left_child=-1 2 -2 -4 7 9 -7 -5 -6 -3
right_child=1 5 3 4 8 6 -8 -9 -10 -11
leaf_value=-0.012956971675947013 -0.0078825310562017636 0.011351084073450387 0.0071063033578230633 -0.00094531040612780867 -0.0011896250511688939 -0.0028438457269506345 0.0069040189154700119 0.0060463262245013449 -0.0071963284814773459 0.00509293183688906
leaf_weight=11.999999999999998 13.999999999999998 12.000000000000002 14.999999999999998 12.000000000000002 14.000000000000002 13.000000000000002 13.999999999999998 12.999999999999998 11.999999999999998 12.999999999999998
leaf_count=12 14 12 15 12 14 13 14 13 12 13
internal_value=0.000436629 0.0016783 -0.000525449 0.0010089 -0.000748923 0.00510729 0.00213335 0.00260872 -0.00406141 0.00821278
internal_weight=144 132 80 66 51 52 27 25 26 25
internal_count=144 132 80 66 51 52 27 25 26 25
is_linear=0
shrinkage=0.028


Tree=45
num_leaves=9
num_cat=0
split_feature=11 3 17 25 0 2 7 18
split_gain=3.30093 2.27738 1.18159 0.828253 0.774711 0.564884 0.244859 0.143652
threshold=1.2661454081535342 1.5000000000000002 0.064434826374053969 691.13500976562511 5.9013950824737558 0.024355023168027404 0.91464999318122875 10.015136718750002
decision_type=2 2 2 2 2 2 2 2
left_child=1 -1 4 -3 6 -4 -2 -7
right_child=2 3 5 -5 -6 7 -8 -9
leaf_value=-0.015112684043115053 0.00013708029505127433 -0.0070180772410717998 0.0013109125350318866 0.0029209071406671267 0.005164412040115314 0.0088864991358340931 -0.0045069645271423485 0.0045324125261052154
leaf_weight=15.999999999999998 12.999999999999998 12.000000000000002 19 13.999999999999998 12.999999999999998 23 23 11.999999999999998
leaf_count=16 13 12 19 14 13 23 23 12
internal_value=-0.000189668 -0.00681236 0.00249231 -0.00158788 -0.000615265 0.0053503 -0.00277128 0.00747126
internal_weight=145 42 103 26 49 54 36 35
internal_count=145 42 103 26 49 54 36 35
is_linear=0
shrinkage=0.028


Tree=46
num_leaves=10
num_cat=0
split_feature=11 3 17 25 0 0 8 24 3
split_gain=3.12088 2.15196 1.11688 0.783051 0.731913 0.554871 0.561813 0.305887 0.283814
threshold=1.2661454081535342 1.5000000000000002 0.064434826374053969 691.13500976562511 5.9013950824737558 5.5562388896942148 1.5018845796585085 78.860000610351577 293.00000000000006
decision_type=2 2 2 2 2 2 2 2 2
left_child=1 -1 4 -3 7 6 -4 -2 -7
right_child=2 3 5 -5 -6 8 -8 -9 -10
leaf_value=-0.014691634007873228 0.00022207762113715513 -0.0068228722638049638 -0.0012492874208788339 0.0028395866198803891 0.0050206930671536591 0.0047315806966582554 0.0067639164030058492 -0.0048730584986408929 0.010966123454420912
leaf_weight=15.999999999999998 14.999999999999998 12.000000000000002 15.000000000000002 13.999999999999998 12.999999999999998 13.000000000000002 11.999999999999998 21 13.999999999999998
leaf_count=16 15 12 15 14 13 13 12 21 14
internal_value=-0.000182685 -0.00662263 0.00242468 -0.00154137 -0.000595446 0.00520342 0.00223888 -0.00269222 0.00806987
internal_weight=145 42 103 26 49 54 27 36 27
internal_count=145 42 103 26 49 54 27 36 27
is_linear=0
shrinkage=0.028


Tree=47
num_leaves=9
num_cat=0
split_feature=12 12 0 22 13 2 13 4
split_gain=2.7179 1.25336 1.45824 0.636357 0.845353 0.554997 0.468923 0.50514
threshold=0.0018294802284799518 0.19245784729719165 5.5459570884704599 0.043348418548703201 4.6035001277923593 0.045523412525653846 5.6927499771118173 -1.1064000129699705
decision_type=2 2 2 2 2 2 2 2
left_child=-1 2 -2 4 -4 -3 7 -7
right_child=1 5 3 -5 -6 6 -8 -9
leaf_value=-0.011442076429289912 -0.0077753908301544097 0.00022350894691852992 0.0095219503969620183 -0.0024168537610035012 -3.7091833157617544e-05 0.0081520460911637897 0.010781106743394143 0.00029185470355679553
leaf_weight=14.999999999999998 20 20 12.000000000000002 22 17 11.999999999999998 11.999999999999998 15.000000000000002
leaf_count=15 20 20 12 22 17 12 12 15
internal_value=-0.000176228 0.0011127 -0.00136948 0.00110704 0.00385666 0.00413544 0.00607967 0.00388175
internal_weight=145 130 71 51 29 59 39 27
internal_count=145 130 71 51 29 59 39 27
is_linear=0
shrinkage=0.028


Tree=48
num_leaves=9
num_cat=0
split_feature=12 12 0 11 6 25 0 13
split_gain=2.691 1.56504 1.34501 0.527962 0.392007 0.353483 0.529443 0.286847
threshold=0.25762286782264715 0.0018294802284799518 5.4874842166900644 1.5121251940727236 1.2667499780654909 623.61999511718761 5.9013950824737558 5.412450075149537
decision_type=2 2 2 2 2 2 2 2
left_child=1 -1 -3 4 -2 -4 -7 -5
right_child=3 2 5 7 -6 6 -8 -9
leaf_value=-0.012030841465572333 -0.0018625979887087214 -0.0082065431314718353 0.0032229392586834407 0.0046330007067270813 0.0049270947766913613 -0.0042938230838552418 0.0023697176040989943 0.010575891291420758
leaf_weight=12.999999999999998 12.000000000000002 18 23 17.000000000000004 13.999999999999998 20 17 12.999999999999998
leaf_count=13 12 18 23 17 14 20 17 13
internal_value=-5.62948e-05 -0.00304235 -0.00150479 0.00475352 0.0017114 0.000476702 -0.00117328 0.007304
internal_weight=147 91 78 56 26 60 37 30
internal_count=147 91 78 56 26 60 37 30
is_linear=0
shrinkage=0.028


Tree=49
num_leaves=9
num_cat=0
split_feature=12 12 0 25 0 11 2 5
split_gain=2.55075 1.37166 1.20566 0.592282 0.646595 0.478666 0.47237 0.453784
threshold=0.19245784729719165 0.0018294802284799518 5.5459570884704599 623.61999511718761 5.9013950824737558 1.5995405316352846 0.045523412525653846 3.8999999761581425
decision_type=2 2 2 2 2 2 2 2
left_child=1 -1 -3 -4 -5 6 -2 -8
right_child=5 2 3 4 -6 -7 7 -9
leaf_value=-0.011696038259187606 -0.0016429368053478275 -0.0071419960175627389 0.0049511562209637447 -0.0056951465145820635 0.0024482636169162368 0.0081607240837403266 0.0082516535901125867 0.0015058142753740945
leaf_weight=12.999999999999998 13.999999999999998 22 17 15.000000000000002 14.999999999999998 17 13.999999999999998 20
leaf_count=13 14 22 17 15 15 17 14 20
internal_value=-5.38758e-05 -0.00335132 -0.00173498 0.000756218 -0.00155329 0.00407057 0.00256422 0.00436209
internal_weight=147 82 69 47 30 65 48 34
internal_count=147 82 69 47 30 65 48 34
is_linear=0
shrinkage=0.028


Tree=50
num_leaves=9
num_cat=0
split_feature=12 12 0 25 0 11 2 22
split_gain=2.41125 1.29614 1.1396 0.559494 0.611319 0.45172 0.447102 0.185339
threshold=0.19245784729719165 0.0018294802284799518 5.5459570884704599 623.61999511718761 5.9013950824737558 1.5995405316352846 0.045523412525653846 0.045577641576528556
decision_type=2 2 2 2 2 2 2 2
left_child=1 -1 -3 -4 -5 6 -2 -8
right_child=5 2 3 4 -6 -7 7 -9
leaf_value=-0.011370552129154906 -0.001597195987166329 -0.006942744709838156 0.0048131730943063245 -0.005536528329061101 0.0023800758595679656 0.0079332938541154408 0.0063684022818676772 0.0019654459977736238
leaf_weight=12.999999999999998 13.999999999999998 22 17 15.000000000000002 14.999999999999998 17 17 17
leaf_count=13 14 22 17 15 15 17 17 17
internal_value=-5.15275e-05 -0.00325795 -0.00168567 0.000735125 -0.00150796 0.00395812 0.0024928 0.00424243
internal_weight=147 82 69 47 30 65 48 34
internal_count=147 82 69 47 30 65 48 34
is_linear=0
shrinkage=0.028


Tree=51
num_leaves=9
num_cat=0
split_feature=11 25 0 3 16 25 19 6
split_gain=2.89005 1.37426 1.29455 0.762836 0.511898 0.362962 0.360253 0.154455
threshold=1.2661454081535342 691.13500976562511 5.5562388896942148 5.5000000000000009 0.92050427198410045 772.51498413085949 0.92872810363769542 1.3942500352859499
decision_type=2 2 2 2 2 2 2 2
left_child=1 -1 4 -3 -2 7 -7 -4
right_child=2 3 5 -5 -6 6 -8 -9
leaf_value=-0.014637339461323442 -0.0047379829552663061 -0.0080596853622932289 0.010286835423960588 0.0015946445269750457 0.0014766466628061607 0.0061543014608422377 0 0.005128508032027428
leaf_weight=11.999999999999998 19 12.000000000000002 12.000000000000002 12.999999999999998 22 15.000000000000002 15.999999999999998 11.999999999999998
leaf_count=12 19 12 12 13 22 15 16 12
internal_value=-0.000176229 -0.00683177 0.00236917 -0.00296105 -0.00135239 0.00518203 0.0030479 0.0078263
internal_weight=133 37 96 25 41 55 31 24
internal_count=133 37 96 25 41 55 31 24
is_linear=0
shrinkage=0.028


Tree=52
num_leaves=9
num_cat=0
split_feature=11 1 0 25 13 0 21 11
split_gain=2.73267 1.32248 1.22451 0.67399 0.501499 0.428037 0.402124 0.217593
threshold=1.2661454081535342 0.034698432311415679 5.5562388896942148 855.57501220703136 5.6445000171661386 5.4585182666778573 0.048701716586947448 1.4757328629493716
decision_type=2 2 2 2 2 2 2 2
left_child=1 -1 4 -3 5 -2 -4 -8
right_child=2 3 6 -5 -6 -7 7 -9
leaf_value=-0.014298678573936421 -0.0064039327575042089 -0.0076363133743207945 0.0019553737348026561 0.0014295366768389143 0.0033944475046846249 0.00027102070295505378 0.0045193470771439743 0.0095035133898554759
leaf_weight=11.999999999999998 16.000000000000004 12.000000000000002 22 12.999999999999998 11.999999999999998 12.999999999999998 17 15.999999999999998
leaf_count=12 16 12 22 13 12 13 17 16
internal_value=-0.000169523 -0.00664176 0.00230512 -0.00284323 -0.00131318 -0.00334217 0.00504106 0.00702077
internal_weight=133 37 96 25 41 29 55 33
internal_count=133 37 96 25 41 29 55 33
is_linear=0
shrinkage=0.028


Tree=53
num_leaves=8
num_cat=0
split_feature=11 1 0 0 13 21 17
split_gain=2.58388 1.24949 1.15728 0.615231 0.483888 0.379565 0.375858
threshold=1.2661454081535342 0.034698432311415679 5.5562388896942148 5.791004180908204 5.1546001434326181 0.048701716586947448 0.080260477960109725
decision_type=2 2 2 2 2 2 2
left_child=1 -1 4 -3 -2 -4 -7
right_child=2 3 5 -5 -6 6 -8
leaf_value=-0.013900967015878649 -0.0042662124687724481 -0.0073413484398497635 0.0019008216129352705 0.0013135026573781667 0.0017617616907385479 0.009447835554991629 0.0030776603032453831
leaf_weight=11.999999999999998 21 12.000000000000002 22 12.999999999999998 20 19 13.999999999999998
leaf_count=12 21 12 22 13 20 19 14
internal_value=-0.000163014 -0.00645703 0.00224285 -0.00276168 -0.0012735 0.00490284 0.00682703
internal_weight=133 37 96 25 41 55 33
internal_count=133 37 96 25 41 55 33
is_linear=0
shrinkage=0.028


Tree=54
num_leaves=9
num_cat=0
split_feature=10 6 11 0 25 10 17 19
split_gain=2.06611 1.15429 0.940324 0.49995 0.367956 0.347663 0.281293 0.207896
threshold=0.034423403441905982 1.2391999959945681 1.2391058802604678 5.5110058784484872 899.00997924804699 0.04893773794174195 0.068044170737266554 0.89637643098831188
decision_type=2 2 2 2 2 2 2 2
left_child=1 -1 -2 5 6 -4 -5 -8
right_child=2 -3 3 4 -6 -7 7 -9
leaf_value=-0.0021124664868978397 -0.0047542323767397537 -0.013237279238458438 -0.0040816271142750373 0.00872851665582834 0.00062536332928534377 0.0023629520793699405 0.0061791646015392412 0.00072507894066291929
leaf_weight=18.000000000000004 15.999999999999998 12.999999999999998 12.000000000000002 14.999999999999998 18 13.999999999999998 12.000000000000002 11.999999999999998
leaf_count=18 16 13 12 15 18 14 12 12
internal_value=-0.000561231 -0.00687185 0.00139617 0.00261218 0.00408297 -0.000528976 0.00561692 0.00355661
internal_weight=130 31 99 83 57 26 39 24
internal_count=130 31 99 83 57 26 39 24
is_linear=0
shrinkage=0.028


Tree=55
num_leaves=8
num_cat=0
split_feature=5 14 12 18 0 0 11
split_gain=2.00059 0.853692 0.594065 0.71742 0.469427 0.291162 0.138976
threshold=2.9557999372482304 0.024352638982236389 0.30926588177680975 10.00979804992676 5.9013950824737558 5.5776491165161142 1.5995405316352846
decision_type=2 2 2 2 2 2 2
left_child=-1 5 3 -3 -5 -2 -4
right_child=1 2 6 4 -6 -7 -8
leaf_value=-0.0086829115765000436 -0.0066772847462766198 -0.0032438725035450386 0.00363181202728266 0.0001193687853899168 0.0075806147204773707 -0.00054434339520098129 0.0078152102160927474
leaf_weight=20 12.000000000000002 23 21 16.000000000000004 11.999999999999998 13.999999999999998 11.999999999999998
leaf_count=20 12 23 21 16 12 14 12
internal_value=-0.000544648 0.000919923 0.00230817 0.000364618 0.0034093 -0.00347262 0.00523598
internal_weight=130 110 84 51 28 26 33
internal_count=130 110 84 51 28 26 33
is_linear=0
shrinkage=0.028


Tree=56
num_leaves=8
num_cat=0
split_feature=10 4 11 0 11 14 23
split_gain=1.88268 0.921065 0.860561 0.473749 0.320442 0.228519 0.356446
threshold=0.034423403441905982 -0.41284999251365656 1.2391058802604678 5.5110058784484872 1.5698022246360781 0.041817871853709228 29.414999961853031
decision_type=2 2 2 2 2 2 2
left_child=1 -1 -2 4 -4 6 -5
right_child=2 -3 3 5 -6 -7 -8
leaf_value=-0.0025489816839574389 -0.0045428325136131912 -0.012649723190049462 -0.0039655714901965962 0.0087092614306695272 0.0022177638175304641 0.0016291715350886565 0.0026830027453070295
leaf_weight=19.000000000000004 15.999999999999998 11.999999999999998 12.000000000000002 14.999999999999998 13.999999999999998 23 19
leaf_count=19 16 12 12 15 14 23 19
internal_value=-0.000528916 -0.00655351 0.00133874 0.00250278 -0.000553604 0.00393498 0.00542158
internal_weight=130 31 99 83 26 57 34
internal_count=130 31 99 83 26 57 34
is_linear=0
shrinkage=0.028


Tree=57
num_leaves=7
num_cat=0
split_feature=12 3 4 10 2 17
split_gain=2.29694 0.740093 0.56661 0.500199 0.672483 0.398245
threshold=0.021154091693460945 293.00000000000006 -1.0433999896049497 0.051335165277123458 0.022764278575778011 0.093243841081857695
decision_type=2 2 2 2 2 2
left_child=-1 3 -3 4 -2 -5
right_child=1 2 -4 5 -6 -7
leaf_value=-0.0074981367067115928 0.0028966645611111412 0.0097014936498843064 0.0023808875539449645 0.0068190324590327797 -0.0049482549607075144 0
leaf_weight=23 13.999999999999998 14.999999999999998 21 13.000000000000002 21 13.999999999999998
leaf_count=23 14 15 21 13 21 14
internal_value=0.000426781 0.00231415 0.00550797 0.000418879 -0.00174698 0.00330606
internal_weight=121 98 36 62 35 27
internal_count=121 98 36 62 35 27
is_linear=0
shrinkage=0.028


Tree=58
num_leaves=8
num_cat=0
split_feature=12 3 23 8 0 22 13
split_gain=2.17131 0.710502 0.620176 0.649006 0.252587 0.207602 0.159811
threshold=0.021154091693460945 436.00000000000006 61.414999008178718 1.3552924394607546 5.8780157566070566 0.051628792658448226 5.6445000171661386
decision_type=2 2 2 2 2 2 2
left_child=-1 2 3 4 5 -2 -5
right_child=1 -3 -4 6 -6 -7 -8
leaf_value=-0.0072889166664303097 -0.0035605852266264678 0.0081019862794571296 -0.0045700651484214712 0.0033596241842239888 0.0029661144152720482 0.0010072450226553242 0.0084215391965595295
leaf_weight=23 15.000000000000002 13.999999999999998 11.999999999999998 12.000000000000002 18 14.999999999999998 11.999999999999998
leaf_count=23 15 14 12 12 18 15 12
internal_value=0.0004156 0.00225111 0.00124254 0.00224639 0.000314538 -0.0012056 0.00600317
internal_weight=121 98 84 72 48 30 24
internal_count=121 98 84 72 48 30 24
is_linear=0
shrinkage=0.028


Tree=59
num_leaves=8
num_cat=0
split_feature=12 3 23 8 0 11 13
split_gain=2.05253 0.670984 0.586654 0.613647 0.238518 0.183243 0.150117
threshold=0.021154091693460945 436.00000000000006 61.414999008178718 1.3552924394607546 5.8780157566070566 1.3396555781364443 5.6445000171661386
decision_type=2 2 2 2 2 2 2
left_child=-1 2 3 4 5 -2 -5
right_child=1 -3 -4 6 -6 -7 -8
leaf_value=-0.0070855344081655848 -0.0038616055408554344 0.0078764195073903961 -0.0044429507040424851 0.0032661776729298138 0.0028834306672174256 0.00050974702000189409 0.0081872976880199861
leaf_weight=23 12.000000000000002 13.999999999999998 11.999999999999998 12.000000000000002 18 18 11.999999999999998
leaf_count=23 12 14 12 12 18 18 12
internal_value=0.000404637 0.00218972 0.0012087 0.00218561 0.00030575 -0.00116995 0.00583879
internal_weight=121 98 84 72 48 30 24
internal_count=121 98 84 72 48 30 24
is_linear=0
shrinkage=0.028


Tree=60
num_leaves=10
num_cat=0
split_feature=4 5 9 12 22 1 12 1 1
split_gain=1.25775 1.34828 0.707611 0.523937 0.817879 0.493192 0.415052 0.352779 0.135556
threshold=-0.7004999816417693 2.9557999372482304 0.11732842028141023 0.19245784729719165 0.03573258966207505 0.12758887559175494 0.039717718958854682 0.1406359672546387 0.096573762595653548
decision_type=2 2 2 2 2 2 2 2 2
left_child=3 -2 6 4 -1 8 -3 -8 -5
right_child=1 2 -4 5 -6 -7 7 -9 -10
leaf_value=0.0043373884937971535 -0.010416981846179573 -0.0058767488578467843 0.0052778110883742657 0.004804075224482598 -0.0050889329997771378 1.4006928250884374e-05 0.0034341763682071329 -0.0033319658175949623 0.0091355828000973388
leaf_weight=16.000000000000004 12.999999999999998 14.999999999999998 12.999999999999998 16.000000000000004 12.999999999999998 11.999999999999998 12.000000000000002 11.999999999999998 13.999999999999998
leaf_count=16 13 15 13 16 13 12 12 12 14
internal_value=0.000417862 -0.00237565 -0.000309387 0.00300661 3.23921e-05 0.00500304 -0.0022361 0 0.00691883
internal_weight=136 65 52 71 29 42 39 24 30
internal_count=136 65 52 71 29 42 39 24 30
is_linear=0
shrinkage=0.028


Tree=61
num_leaves=10
num_cat=0
split_feature=4 11 20 23 14 14 23 3 9
split_gain=1.18953 1.01446 0.71032 0.525715 0.615813 0.439027 0.438443 0.337371 0.199042
threshold=-0.7004999816417693 1.1731998920440676 0.049529096111655242 36.425001144409187 0.025844139978289608 0.041817871853709228 50.445001602172859 221.50000000000003 0.11698199808597566
decision_type=2 2 2 2 2 2 2 2 2
left_child=3 -2 7 4 -1 -6 -5 -3 -4
right_child=1 2 8 6 5 -7 -8 -9 -10
leaf_value=-0.0042729188702161731 -0.008971222880211743 -0.0069466229910002458 0.00031384170779281029 0.0098038229722677717 0.0057131410955907824 -0.00061245761053975336 0.0020833798630397449 -0.00023894065465556076 0.0054090798909757409
leaf_weight=11.999999999999998 13.999999999999998 13.000000000000002 14.000000000000002 13.000000000000002 20 13.999999999999998 11.999999999999998 11.999999999999998 11.999999999999998
leaf_count=12 14 13 14 13 20 14 12 12 12
internal_value=0.000406661 -0.0023095 -0.000425757 0.0029246 0.00108506 0.00304743 0.00620579 -0.00382728 0.00276076
internal_weight=136 65 51 71 46 34 25 25 26
internal_count=136 65 51 71 46 34 25 25 26
is_linear=0
shrinkage=0.028


Tree=62
num_leaves=8
num_cat=0
split_feature=19 4 20 3 25 16 0
split_gain=1.15726 0.783831 0.497566 0.394729 0.355114 0.485454 0.348813
threshold=0.86414688825607311 -0.7004999816417693 0.056223187595605857 194.50000000000003 433.12001037597662 1.0251284241676333 5.5664324760437021
decision_type=2 2 2 2 2 2 2
left_child=-1 4 3 -3 -2 6 -6
right_child=1 2 -4 -5 5 -7 -8
leaf_value=-0.0052970753662920506 -0.00021235822577198797 -0.0058872425909261266 0.0028485690383842932 0.00022821154629557648 0.0028848725159221623 0 0.0086055552618227154
leaf_weight=23 13.999999999999998 18 15.999999999999998 13.999999999999998 15.999999999999998 12.999999999999998 22
leaf_count=23 14 18 16 14 16 13 22
internal_value=0.000394851 0.00157612 -0.00110115 -0.00314801 0.00358652 0.00467191 0.00626679
internal_weight=136 113 48 32 65 51 38
internal_count=136 113 48 32 65 51 38
is_linear=0
shrinkage=0.028


Tree=63
num_leaves=9
num_cat=0
split_feature=3 5 5 22 2 5 3 3
split_gain=1.10229 0.701038 0.662953 0.65919 0.350051 0.29138 0.289006 0.146852
threshold=1.5000000000000002 3.8999999761581425 4.3467001914978036 0.040527991950511939 0.00077855316339991998 3.5623500347137456 221.50000000000003 375.50000000000006
decision_type=2 2 2 2 2 2 2 2
left_child=-1 4 6 -4 -2 -6 -3 -8
right_child=1 2 3 -5 5 -7 7 -9
leaf_value=-0.005225483572785611 0 -0.0060373642583141261 -0.0011837936612647888 0.0079395838521470301 0.0081001133466493853 0.0030382073940844211 0.0013318728899385851 -0.0029688191518606926
leaf_weight=21 12.999999999999998 12.999999999999998 12.000000000000002 11.999999999999998 18 22 12.000000000000002 11.999999999999998
leaf_count=21 13 13 12 12 18 22 12 12
internal_value=0.000631042 0.00173242 -0.000280502 0.00329609 0.00408831 0.00538357 -0.00266297 -0.000728169
internal_weight=135 114 61 24 53 40 37 24
internal_count=135 114 61 24 53 40 37 24
is_linear=0
shrinkage=0.028


Tree=64
num_leaves=9
num_cat=0
split_feature=13 0 20 19 3 13 5 21
split_gain=1.04533 0.692579 0.503196 0.366762 0.3156 0.372649 0.244428 0.114926
threshold=3.4604001045227055 5.4585182666778573 0.05308282561600209 0.94282996654510509 293.00000000000006 4.6035001277923593 3.9939999580383305 0.070998456329107298
decision_type=2 2 2 2 2 2 2 2
left_child=-1 2 -2 4 5 7 -5 -3
right_child=1 3 -4 6 -6 -7 -8 -9
leaf_value=-0.0058341492464857514 -0.0056834644071204424 0.006806955443534826 0.0013575368673350682 0.0025158742928299404 0.0070071353741376057 -0.00064688208595437197 -0.002823085173372401 0.0024831270637323721
leaf_weight=17 15.000000000000002 12.000000000000002 15.999999999999998 15.000000000000002 20 15.999999999999998 11.999999999999998 11.999999999999998
leaf_count=17 15 12 16 15 20 16 12 12
internal_value=0.000613247 0.0015644 -0.00198319 0.00285487 0.00407399 0.00254048 5.89555e-05 0.0047535
internal_weight=135 118 31 87 60 40 27 24
internal_count=135 118 31 87 60 40 27 24
is_linear=0
shrinkage=0.028


Tree=65
num_leaves=8
num_cat=0
split_feature=3 0 19 25 1 18 4
split_gain=1.00838 0.661484 0.565507 0.471662 0.459141 0.489977 0.187325
threshold=1.5000000000000002 5.5562388896942148 0.92988377809524547 899.00997924804699 0.10936737433075906 10.00979804992676 -0.8429499864578246
decision_type=2 2 2 2 2 2 2
left_child=-1 3 4 6 5 -3 -2
right_child=1 2 -4 -5 -6 -7 -8
leaf_value=-0.0050042924491628523 -0.00073864421324635091 0.0038355956708948152 -0.00039860801554755072 0.0027517276400357339 0.0018466572699987372 0.011765399378656552 -0.0055345142711461931
leaf_weight=21 13.999999999999998 15.000000000000002 21 15.999999999999998 22 11.999999999999998 14.000000000000002
leaf_count=21 14 15 21 16 22 12 14
internal_value=0.000596162 0.00165025 0.00334729 -0.000999961 0.00499635 0.00746702 -0.00322529
internal_weight=135 114 70 44 49 27 28
internal_count=135 114 70 44 49 27 28
is_linear=0
shrinkage=0.028


Tree=66
num_leaves=8
num_cat=0
split_feature=11 3 17 7 0 16 0
split_gain=1.34301 0.642681 0.554128 0.395928 0.370432 0.28457 0.220309
threshold=1.2661454081535342 1.5000000000000002 0.049513949081301696 0.96004998683929454 5.5282366275787362 0.90891075134277355 5.2621634006500253
decision_type=2 2 2 2 2 2 2
left_child=1 -1 -2 -4 6 -6 -5
right_child=2 -3 3 4 5 -7 -8
leaf_value=-0.0092454431767850578 -0.0027321419791128507 -0.00073261364946383928 0.006740263199219939 0.001669367649595307 0.006151798768990995 0.0010657529560556202 -0.0035224119221532579
leaf_weight=14.000000000000002 15.999999999999998 14.999999999999998 17 13.000000000000002 18 19 11.999999999999998
leaf_count=14 16 15 17 13 18 19 12
internal_value=0.000310855 -0.00493341 0.0019381 0.0029141 0.00182158 0.00360839 -0.000736659
internal_weight=124 29 95 79 62 37 25
internal_count=124 29 95 79 62 37 25
is_linear=0
shrinkage=0.028


Tree=67
num_leaves=8
num_cat=0
split_feature=1 20 22 23 10 2 3
split_gain=1.19491 0.408966 0.44602 0.571176 0.353148 0.240407 0.186998
threshold=0.016358163207769397 0.038066282868385322 0.042473455891013152 20.575000762939457 0.035167397931218154 0.018738694489002231 293.00000000000006
decision_type=2 2 2 2 2 2 2
left_child=-1 4 5 -4 -2 -3 -5
right_child=1 2 3 6 -6 -7 -8
leaf_value=-0.0073553211572117026 -0.0045164563499331782 0.0081760942308565215 -0.0046009671913077501 0.00056651316287225468 0.0015747677837921815 0.0028156754723916017 0.0046807176522836464
leaf_weight=13.999999999999998 15.000000000000002 12.000000000000002 11.999999999999998 22 13.999999999999998 19 15.999999999999998
leaf_count=14 15 12 12 22 14 19 16
internal_value=0.000301635 0.00130114 0.00233307 0.000642869 -0.00150259 0.00497845 0.00236383
internal_weight=124 110 81 50 29 31 38
internal_count=124 110 81 50 29 31 38
is_linear=0
shrinkage=0.028


Tree=68
num_leaves=8
num_cat=0
split_feature=11 3 17 7 19 15 3
split_gain=1.23802 0.589877 0.499186 0.366059 0.37158 0.420718 0.403445
threshold=1.2661454081535342 1.5000000000000002 0.049513949081301696 0.96004998683929454 0.92313212156295787 0.67504197359085094 249.50000000000003
decision_type=2 2 2 2 2 2 2
left_child=1 -1 -2 -4 6 -6 -5
right_child=2 -3 3 4 5 -7 -8
leaf_value=-0.0088725329382207466 -0.0025718483505260889 -0.00070894935456368902 0.006464050548487023 0.0012117107159749015 -0.003023816122581686 0.0036355887109672785 0.0079393385121759186
leaf_weight=14.000000000000002 15.999999999999998 14.999999999999998 17 19.000000000000004 19.000000000000004 11.999999999999998 11.999999999999998
leaf_count=14 16 15 17 19 19 12 12
internal_value=0.000293719 -0.00474059 0.00185676 0.00278371 0.00173148 -0.000371187 0.00390176
internal_weight=124 29 95 79 62 31 31
internal_count=124 29 95 79 62 31 31
is_linear=0
shrinkage=0.028


Tree=69
num_leaves=9
num_cat=0
split_feature=14 16 12 14 23 10 24 15
split_gain=1.6541 1.28973 0.734966 0.535772 0.655241 0.482609 0.391615 0.165176
threshold=0.024352638982236389 0.95156508684158336 0.37212394177913671 0.034880965948104865 21.490000724792484 0.051335165277123458 82.885002136230483 0.30517323315143591
decision_type=2 2 2 2 2 2 2 2
left_child=1 -1 3 6 -5 -6 -2 -4
right_child=2 -3 7 4 5 -7 -8 -9
leaf_value=-0.010255151444792247 0.0065371327648701292 0.0013023955866398402 0.0071020057248858213 -0.0069769110002466661 -0.0036279789520194754 0.0030532627388237636 -3.6034959638975442e-05 0.0024690049196414601
leaf_weight=19.000000000000004 14.000000000000002 11.999999999999998 18.000000000000004 12.999999999999998 13.999999999999998 21 12.999999999999998 11.999999999999998
leaf_count=19 14 12 18 13 14 21 13 12
internal_value=-2.66841e-05 -0.00571735 0.00163517 0.000121395 -0.00162182 0.000314733 0.0032988 0.00533477
internal_weight=136 31 105 75 48 35 27 30
internal_count=136 31 105 75 48 35 27 30
is_linear=0
shrinkage=0.028


Tree=70
num_leaves=8
num_cat=0
split_feature=14 16 12 25 14 25 15
split_gain=1.56225 1.21972 0.695382 0.593615 0.587153 0.61751 0.155256
threshold=0.024352638982236389 0.95156508684158336 0.37212394177913671 1166.6199951171877 0.034880965948104865 652.58001708984386 0.30517323315143591
decision_type=2 2 2 2 2 2 2
left_child=1 -1 3 4 -2 -6 -4
right_child=2 -3 6 -5 5 -7 -8
leaf_value=-0.0099692111782284445 0.0050971121480529406 0.0012661698831134287 0.0069040295434209089 -0.0052717344414633955 -0.0043471693685219722 0.0025100765548295521 0.0024003306325303007
leaf_weight=19.000000000000004 21 11.999999999999998 18.000000000000004 12.999999999999998 19 22 11.999999999999998
leaf_count=19 21 12 18 13 19 22 12
internal_value=-2.50223e-05 -0.0055559 0.00158957 0.000116294 0.00128746 -0.000615421 0.00518819
internal_weight=136 31 105 75 62 41 30
internal_count=136 31 105 75 62 41 30
is_linear=0
shrinkage=0.028


Tree=71
num_leaves=9
num_cat=0
split_feature=14 16 22 5 12 18 24 15
split_gain=1.47571 1.16039 0.776041 0.937267 0.69142 0.389654 0.463988 0.34492
threshold=0.024352638982236389 0.92673572897911083 0.032370394095778472 4.3467001914978036 0.32062961161136633 10.008860111236574 97.364997863769545 0.59361672401428234
decision_type=2 2 2 2 2 2 2 2
left_child=1 -1 -2 4 5 6 -4 -7
right_child=2 -3 3 -5 -6 7 -8 -9
leaf_value=-0.010972848831658652 0.0074361645781017586 -5.5019340190610156e-06 -0.0085514574942856317 0.006248676140322886 0.0032132180614423927 -0.0034788518374822774 -0.00082302783503635033 0.003207307946208297
leaf_weight=15.000000000000002 14.999999999999998 15.999999999999998 14.000000000000002 18 22 12.000000000000002 11.999999999999998 11.999999999999998
leaf_count=15 15 16 14 18 22 12 12 12
internal_value=-2.29622e-05 -0.00539894 0.00154582 0.000533492 -0.000869577 -0.002713 -0.00508385 -4.31998e-05
internal_weight=136 31 105 90 72 50 26 24
internal_count=136 31 105 90 72 50 26 24
is_linear=0
shrinkage=0.028


Tree=72
num_leaves=9
num_cat=0
split_feature=11 23 17 0 10 23 2 5
split_gain=1.06551 1.24636 1.40483 0.556414 0.388951 0.276875 0.244558 0.179608
threshold=1.2661454081535342 36.425001144409187 0.065560750663280501 5.9344971179962167 0.046578641980886466 32.459999084472663 0.024355023168027404 3.8999999761581425
decision_type=2 2 2 2 2 2 2 2
left_child=1 2 -1 4 5 -2 -6 -8
right_child=3 -3 -4 -5 6 -7 7 -9
leaf_value=-0.013550882042539431 0.0006797784876556135 0.0039309500130880254 -0.0011758606088210326 0.006945548930078406 -0.00057608676869545556 -0.0041394066061992548 0.0067485154719147461 0.0021487289903410881
leaf_weight=13.000000000000002 23 11.999999999999998 17 13.999999999999998 11.999999999999998 14.999999999999998 11.999999999999998 20
leaf_count=13 23 12 17 14 12 15 12 20
internal_value=0.000137069 -0.00356092 -0.00663462 0.00177987 0.000864723 -0.00116841 0.00267036 0.003956
internal_weight=138 42 30 96 82 38 44 32
internal_count=138 42 30 96 82 38 44 32
is_linear=0
shrinkage=0.028


Tree=73
num_leaves=10
num_cat=0
split_feature=19 0 0 20 0 22 18 20 4
split_gain=1.0202 0.544375 0.667513 0.598759 0.536135 0.429356 0.380971 0.269044 0.147465
threshold=0.83121389150619518 5.5562388896942148 5.6600029468536386 0.064679510891437544 5.9344971179962167 0.041197188198566444 10.007906913757326 0.054557973518967635 -0.8429499864578246
decision_type=2 2 2 2 2 2 2 2 2
left_child=-1 3 -3 6 7 -6 -2 -4 -8
right_child=1 2 4 -5 5 -7 8 -9 -10
leaf_value=-0.0076207372262975239 -0.0071920540290360425 0.0081987041497449259 -0.0031114751364933273 0.0040643109806030005 0.0072874428735408593 0 0.0011038425170526599 0.0018295388554172612 -0.0029592695570790474
leaf_weight=11.999999999999998 11.999999999999998 12.999999999999998 21 11.999999999999998 15.000000000000002 11.999999999999998 11.999999999999998 13.999999999999998 15.000000000000002
leaf_count=12 12 13 21 12 15 12 12 14 15
internal_value=0.000133247 0.000893855 0.00242104 -0.00130843 0.00116451 0.00414042 -0.00302383 -0.00107155 -0.0010728
internal_weight=138 126 75 51 62 27 39 35 27
internal_count=138 126 75 51 62 27 39 35 27
is_linear=0
shrinkage=0.028


Tree=74
num_leaves=9
num_cat=0
split_feature=11 19 11 0 6 17 19 18
split_gain=0.983507 0.931264 1.02 0.505964 0.56436 0.34347 0.271479 0.175592
threshold=1.2661454081535342 0.87726008892059337 1.2089850306510928 5.9344971179962167 1.3680499792099001 0.069405883550643935 0.94108384847641002 10.010861873626711
decision_type=2 2 2 2 2 2 2 2
left_child=1 -1 -3 4 5 6 -2 -6
right_child=3 2 -4 -5 7 -7 -8 -9
leaf_value=-0.0087204600739867934 -0.0056994194584390643 0.0058229081525609169 -0.0052642224998298015 0.0066362419405274764 0.0018402745153062638 0.0018481005051013721 -0.00028947543700943231 0.0063704760940432184
leaf_weight=15.999999999999998 14.000000000000002 12.000000000000002 13.999999999999998 13.999999999999998 18.000000000000004 20 17 12.999999999999998
leaf_count=16 14 12 14 14 18 20 17 13
internal_value=0.000129994 -0.00342216 -5.90308e-05 0.00170893 0.000834744 -0.000941312 -0.00281313 0.00382362
internal_weight=138 42 26 96 82 51 31 31
internal_count=138 42 26 96 82 51 31 31
is_linear=0
shrinkage=0.028


Tree=75
num_leaves=8
num_cat=0
split_feature=1 24 22 22 11 1 5
split_gain=1.10059 0.646938 0.457542 0.607456 0.466818 0.241933 0.316845
threshold=0.03253543563187123 89.315002441406264 0.026929931715130809 0.033981248736381538 1.2661454081535342 0.15445366501808169 4.2850999832153329
decision_type=2 2 2 2 2 2 2
left_child=1 -1 -2 -4 -5 6 -6
right_child=2 -3 3 4 5 -7 -8
leaf_value=-0.010009871032077599 -0.0043605729905358019 -0.00078029180184894836 0.0060483076931482221 -0.0037446031485546811 0.0010169422506652256 -0.001968595237041103 0.0060532302583029508
leaf_weight=13.000000000000002 11.999999999999998 11.999999999999998 18 17 46 12.999999999999998 12.999999999999998
leaf_count=13 12 12 18 17 46 13 13
internal_value=-0.000344166 -0.00568561 0.00076224 0.00136051 0.000382689 0.00139134 0.00217124
internal_weight=144 25 119 107 89 72 59
internal_count=144 25 119 107 89 72 59
is_linear=0
shrinkage=0.028


Tree=76
num_leaves=8
num_cat=0
split_feature=1 23 23 11 7 4 2
split_gain=1.04087 1.34248 0.541085 0.375792 0.443197 0.387138 0.323456
threshold=0.03253543563187123 36.425001144409187 58.979999542236335 1.2661454081535342 1.2093499898910525 -0.38475000858306879 0.045523412525653846
decision_type=2 2 2 2 2 2 2
left_child=1 -1 3 -2 5 6 -5
right_child=2 -3 -4 4 -6 -7 -8
leaf_value=-0.011750311772028602 -0.0017130667084944656 0.0010566899671854563 -0.0036850910812154811 -0.0025867053125478816 0.0057366737796565072 0.0052988376492799603 0.0021988818304802199
leaf_weight=13.000000000000002 21 11.999999999999998 18 22 23 12.999999999999998 22
leaf_count=13 21 12 18 22 23 13 22
internal_value=-0.000335085 -0.00552987 0.000740428 0.00155359 0.00243991 0.00106422 -0.000143447
internal_weight=144 25 119 101 80 57 44
internal_count=144 25 119 101 80 57 44
is_linear=0
shrinkage=0.028


Tree=77
num_leaves=10
num_cat=0
split_feature=11 19 8 23 7 16 18 9 12
split_gain=0.934927 0.981133 0.679064 0.566773 0.528043 0.382556 0.243846 0.3227 0.0631827
threshold=1.2661454081535342 0.85521897673606884 0.43407791852951055 58.979999542236335 1.2093499898910525 1.056279242038727 10.009567260742189 0.064653020352125182 0.26480448246002203
decision_type=2 2 2 2 2 2 2 2 2
left_child=1 -1 -3 4 5 6 -2 -8 -6
right_child=3 2 -4 -5 8 -7 7 -9 -10
leaf_value=-0.010687133530019136 -0.0028356059890618361 0.0031976294414224941 -0.0056260505772511892 -0.00359032016992569 0.0035079967807465726 0.0045858486956514583 -0.0018637892168003845 0.0042923227882622214 0.0069009359659860615
leaf_weight=11.999999999999998 22 14.000000000000002 12.999999999999998 17 13.000000000000002 13.999999999999998 13.000000000000002 12.999999999999998 12.999999999999998
leaf_count=12 22 14 13 17 13 14 13 13 13
internal_value=-0.000325352 -0.00403446 -0.000972161 0.00103302 0.00195405 0.000507149 -0.000641534 0.0011321 0.00530632
internal_weight=144 39 27 105 88 62 48 26 26
internal_count=144 39 27 105 88 62 48 26 26
is_linear=0
shrinkage=0.028


Tree=78
num_leaves=10
num_cat=0
split_feature=14 4 14 25 25 11 17 0 14
split_gain=1.02402 1.3344 0.698018 0.542697 0.502015 0.4799 0.29979 0.217452 0.0735073
threshold=0.024352638982236389 -0.7004999816417693 0.034880965948104865 982.98001098632824 955.08999633789074 1.2449066638946535 0.06065665930509568 5.4874842166900644 0.054688738659024246
decision_type=2 2 2 2 2 2 2 2 2
left_child=1 -1 4 5 6 -4 -2 -7 -9
right_child=2 -3 3 -5 -6 7 -8 8 -10
leaf_value=0.0010340318649885109 0.0096124443751543932 -0.0096427605033576873 -0.0070506159372084971 0.0042052923640996699 -0.0002637213359641008 -0.0033613696298985317 0.0029675750421323125 -0.00040773289690151893 0.0025572901192485102
leaf_weight=17 12.000000000000002 19 11.999999999999998 12.999999999999998 12.999999999999998 13.999999999999998 11.999999999999998 12.000000000000002 11.999999999999998
leaf_count=17 12 19 12 13 13 14 12 12 12
internal_value=-0.000493042 -0.00454774 0.000946738 -0.000816862 0.00400532 -0.00217198 0.00640393 -0.000560962 0.000985326
internal_weight=136 36 100 63 37 50 24 38 24
internal_count=136 36 100 63 37 50 24 38 24
is_linear=0
shrinkage=0.028


Tree=79
num_leaves=10
num_cat=0
split_feature=14 4 14 25 25 11 11 12 10
split_gain=0.966957 1.26173 0.659873 0.513249 0.475466 0.453244 0.182692 0.285637 0.0995144
threshold=0.024352638982236389 -0.7004999816417693 0.034880965948104865 982.98001098632824 955.08999633789074 1.2449066638946535 1.4041304588317873 0.33306610584259039 0.042096253484487541
decision_type=2 2 2 2 2 2 2 2 2
left_child=1 -1 4 5 8 -4 -7 -8 -2
right_child=2 -3 3 -5 -6 6 7 -9 -10
leaf_value=0.0010052145750063367 0.0082363329477953585 -0.0093738953550844082 -0.006854506156006396 0.0040882643800832629 -0.0002563822503438054 0.0020558790746814251 -0.0048826019284101789 0.00097081994112358969 0.00399377865314681
leaf_weight=17 12.000000000000002 19 11.999999999999998 12.999999999999998 12.999999999999998 12.999999999999998 13.000000000000002 11.999999999999998 11.999999999999998
leaf_count=17 12 19 12 13 13 13 13 12 12
internal_value=-0.000478781 -0.0044192 0.000919787 -0.000794134 0.00389391 -0.00211279 -0.000545326 -0.00198951 0.00622839
internal_weight=136 36 100 63 37 50 38 25 24
internal_count=136 36 100 63 37 50 38 25 24
is_linear=0
shrinkage=0.028


Tree=80
num_leaves=9
num_cat=0
split_feature=19 4 14 5 19 8 0 4
split_gain=0.915316 0.547504 0.677292 0.555816 0.395789 0.340251 0.297097 0.0983043
threshold=0.85521897673606884 -0.7004999816417693 0.024352638982236389 3.7377499341964726 0.94709143042564403 1.6604974269866946 5.7535235881805429 -0.40230000019073481
decision_type=2 2 2 2 2 2 2 2
left_child=-1 3 -3 -2 7 6 -5 -4
right_child=1 2 4 5 -6 -7 -8 -9
leaf_value=-0.0055542776465312658 0.0068346563215965217 -0.006801375005521219 -0.0033959575763946731 -0.0033594939889477907 0.0045763839630052344 0.0045608119226149104 0.0019045024532361409 0
leaf_weight=23 15.999999999999998 13.999999999999998 11.999999999999998 17 11.999999999999998 12.999999999999998 15.999999999999998 13.000000000000002
leaf_count=23 16 14 12 17 12 13 16 13
internal_value=-0.000464009 0.00055545 -0.00156599 0.00233636 0.000364961 0.000713968 -0.000741105 -0.00157536
internal_weight=136 113 51 62 37 46 33 25
internal_count=136 113 51 62 37 46 33 25
is_linear=0
shrinkage=0.028


Tree=81
num_leaves=9
num_cat=0
split_feature=15 0 11 14 7 11 1 9
split_gain=0.721752 0.880543 0.697548 0.377187 0.368015 0.547903 0.599797 0.116661
threshold=0.63692545890808117 5.9344971179962167 1.2089850306510928 0.024352638982236389 0.84779998660087597 1.348094165325165 0.076965156942605986 0.1289215758442879
decision_type=2 2 2 2 2 2 2 2
left_child=1 4 -2 -4 -1 -6 -7 -8
right_child=2 -3 3 -5 5 6 7 -9
leaf_value=0.0055289619479966358 0.0036085788347250359 0.0096276425918601204 -0.0073117477253941939 -0.0013288491864848488 -0.0049566632798373304 -0.0024853142073639825 0.0022106978636950449 0.0064540289144632643
leaf_weight=12.999999999999998 13.999999999999998 11.999999999999998 13.999999999999998 23 11.999999999999998 14.999999999999998 12.000000000000002 12.999999999999998
leaf_count=13 14 12 14 23 12 15 12 13
internal_value=0.000933629 0.00265477 -0.00162119 -0.00366395 0.0013228 0.000221369 0.00183746 0.00452009
internal_weight=128 77 51 37 65 52 40 25
internal_count=128 77 51 37 65 52 40 25
is_linear=0
shrinkage=0.028


Tree=82
num_leaves=9
num_cat=0
split_feature=15 11 23 23 20 17 21 10
split_gain=0.682541 0.659805 0.442432 0.318842 0.296003 0.333017 0.286889 0.248624
threshold=0.63692545890808117 1.2089850306510928 35.510000228881843 35.510000228881843 0.04914273880422116 0.09221308678388597 0.049366740509867675 0.044324181973934181
decision_type=2 2 2 2 2 2 2 2
left_child=3 -2 6 4 -1 -6 -3 -5
right_child=1 2 -4 7 5 -7 -8 -9
leaf_value=-0.0012994468898741721 0.0035081128088588062 -0.0042930020921623062 -0.007740286656384804 0.0015729693950505442 0.0058548474295425463 -0.00022478972868808844 0.0017355256588444954 0.0071320054748507805
leaf_weight=21 13.999999999999998 12.000000000000002 12.999999999999998 12.000000000000002 15.000000000000002 11.999999999999998 11.999999999999998 17
leaf_count=21 14 12 13 12 15 12 12 17
internal_value=0.000907686 -0.00157602 -0.00356357 0.00258173 0.00111696 0.00307739 -0.00118996 0.0049194
internal_weight=128 51 37 77 48 27 24 29
internal_count=128 51 37 77 48 27 24 29
is_linear=0
shrinkage=0.028


Tree=83
num_leaves=8
num_cat=0
split_feature=0 10 25 10 4 9 10
split_gain=0.655527 0.708189 0.452739 0.411706 0.554841 0.222596 0.0755634
threshold=5.4874842166900644 0.044324181973934181 548.48501586914074 0.051335165277123458 -0.9388500154018401 0.070555742830038085 0.061706127598881728
decision_type=2 2 2 2 2 2 2
left_child=1 -1 -2 4 -4 -6 -5
right_child=2 -3 3 6 5 -7 -8
leaf_value=-0.0069189048944243705 0.0055822765023586388 0.00088379755979943768 0.0034184651464230814 0.0054291643357696137 -0.00049089315436272438 -0.0057713557953408007 0.001918693233626765
leaf_weight=14.999999999999998 23 22 15.999999999999998 13.000000000000002 14.000000000000002 12.999999999999998 11.999999999999998
leaf_count=15 23 22 16 13 14 13 12
internal_value=0.00088238 -0.00222715 0.00217213 0.000980598 -0.000636773 -0.00312559 0.00384495
internal_weight=128 37 91 68 43 27 25
internal_count=128 37 91 68 43 27 25
is_linear=0
shrinkage=0.028


Tree=84
num_leaves=7
num_cat=0
split_feature=1 23 24 9 16 14
split_gain=0.722467 0.300063 0.310347 0.256394 0.340826 0.183535
threshold=0.03253543563187123 58.979999542236335 97.364997863769545 0.15203286707401278 0.86041635274887096 0.034880965948104865
decision_type=2 2 2 2 2 2
left_child=-1 2 3 4 -2 -6
right_child=1 -3 -4 -5 5 -7
leaf_value=-0.005400597160401862 -0.0045388337923398872 -0.002750627762286878 0.004959092136185902 0.003473540702620439 0.0022774331700077424 -0.0010835631598090588
leaf_weight=18 11.999999999999998 17 14.999999999999998 18 27 23
leaf_count=18 12 17 15 18 27 23
internal_value=-0.000193755 0.000626331 0.00125599 0.00052943 -0.000292604 0.000687385
internal_weight=130 112 95 80 62 50
internal_count=130 112 95 80 62 50
is_linear=0
shrinkage=0.028


Tree=85
num_leaves=9
num_cat=0
split_feature=0 13 0 8 24 22 16 25
split_gain=0.733822 0.533152 0.538522 0.643741 0.456805 0.3371 0.327339 0.250054
threshold=5.994802951812745 3.4604001045227055 5.5459570884704599 1.5412198901176455 89.315002441406264 0.06062454171478749 0.99100571870803844 899.00997924804699
decision_type=2 2 2 2 2 2 2 2
left_child=1 -1 3 7 5 6 -4 -3
right_child=-2 2 4 -5 -6 -7 -8 -9
leaf_value=-0.0065400189320920718 0.005597912351830569 -0.007093343380500718 -0.0039505492879362853 0.0023818753256892576 0.0054386517615775719 0.0039073360203611138 0.0017210842376683101 -0.0015806812002194049
leaf_weight=11.999999999999998 14.999999999999998 18.000000000000004 19 12.999999999999998 15.999999999999998 11.999999999999998 12.999999999999998 11.999999999999998
leaf_count=12 15 18 19 13 16 12 13 12
internal_value=-0.000188383 -0.000965948 -0.00029024 -0.00269701 0.00139863 -2.68621e-05 -0.00157808 -0.00497282
internal_weight=130 115 103 43 60 44 32 30
internal_count=130 115 103 43 60 44 32 30
is_linear=0
shrinkage=0.028


Tree=86
num_leaves=9
num_cat=0
split_feature=0 13 0 8 0 8 19 22
split_gain=0.693416 0.503979 0.509246 0.609147 0.443321 0.25654 0.241762 0.137031
threshold=5.994802951812745 3.4604001045227055 5.5459570884704599 1.5412198901176455 5.6425998210906991 0.86467218399047863 0.91077449917793285 0.038450468331575401
decision_type=2 2 2 2 2 2 2 2
left_child=1 -1 3 6 -4 -6 -3 -7
right_child=-2 2 4 -5 5 7 -8 -9
leaf_value=-0.0063581110911308143 0.0054420026050243202 -0.0014991785524696702 0.0057084361830916763 0.0023155906999694463 -0.0028247495766970058 0.0038628598437884494 -0.0069206886029662155 0
leaf_weight=11.999999999999998 14.999999999999998 12.000000000000002 13.999999999999998 12.999999999999998 15.999999999999998 12.000000000000002 18 18
leaf_count=12 15 12 14 13 16 12 18 18
internal_value=-0.000182146 -0.000938468 -0.000280878 -0.00262182 0.00136077 0 -0.00483631 0.00155593
internal_weight=130 115 103 43 60 46 30 30
internal_count=130 115 103 43 60 46 30 30
is_linear=0
shrinkage=0.028


Tree=87
num_leaves=9
num_cat=0
split_feature=1 13 14 22 23 13 1 6
split_gain=0.864152 0.961672 0.302518 0.465538 0.518982 0.29367 0.452732 0.0681321
threshold=0.057760579511523254 3.9929000139236455 0.025844139978289608 0.033071814104914672 21.490000724792484 4.5723998546600351 0.10936737433075906 1.4256999492645266
decision_type=2 2 2 2 2 2 2 2
left_child=1 -1 -2 -4 -5 7 -7 -6
right_child=2 -3 3 4 5 6 -8 -9
leaf_value=-0.0075494605778864974 -0.0015335877614105493 0.00094713273838131198 0.0071638280811244688 -0.0036051580096510324 0.0028251503706965219 0.0044402752876372869 -0.0024604582564874754 0.006372181933841958
leaf_weight=22 23 19 11.999999999999998 13.999999999999998 12.000000000000002 13.000000000000002 17 11.999999999999998
leaf_count=22 23 19 12 14 12 13 17 12
internal_value=-0.000115211 -0.00356331 0.0012373 0.00206264 0.00112217 0.00239271 0.000459248 0.00470697
internal_weight=144 41 103 80 68 54 30 24
internal_count=144 41 103 80 68 54 30 24
is_linear=0
shrinkage=0.028


Tree=88
num_leaves=11
num_cat=0
split_feature=15 13 21 10 19 17 8 6 2 23
split_gain=1.28074 1.03972 0.331008 0.364525 0.364116 0.342471 0.25739 0.254471 0.251239 0.172684
threshold=0.75893920660018932 3.8131500482559209 0.061349755153059966 0.045052982866764076 0.85521897673606884 0.058856153860688216 1.365380644798279 1.078999996185303 0.029411000199615959 30.480000495910648
decision_type=2 2 2 2 2 2 2 2 2 2
left_child=2 -2 3 5 -4 9 -5 -3 -6 -1
right_child=1 7 4 6 8 -7 -8 -9 -10 -11
leaf_value=0.0052301582296113685 -0.0095935703378598226 -0.00339716514131048 0.0033129458153953418 0.0083690132842652032 -0.0054719741704645523 -0.0029185599639937774 0.0025490877405204256 0.0023183976014989689 7.1771621309368809e-05 0.00060243155004743919
leaf_weight=12.000000000000002 17 12.000000000000002 11.999999999999998 12.000000000000002 12.000000000000002 11.999999999999998 14.999999999999998 11.999999999999998 11.999999999999998 15.999999999999998
leaf_count=12 17 12 12 12 12 12 15 12 12 16
internal_value=-0.000111012 -0.00430598 0.00153915 0.00270765 -0.000574669 0.000938403 0.00523552 -0.000448152 -0.00261605 0.00267477
internal_weight=144 41 103 67 36 40 27 24 24 28
internal_count=144 41 103 67 36 40 27 24 24 28
is_linear=0
shrinkage=0.028


Tree=89
num_leaves=11
num_cat=0
split_feature=15 13 21 10 19 7 16 8 8 2
split_gain=1.21117 0.982497 0.312791 0.344494 0.343915 0.303288 0.421435 0.256094 0.242471 0.237861
threshold=0.75893920660018932 3.8131500482559209 0.061349755153059966 0.045052982866764076 0.85521897673606884 0.93110001087188732 0.97656238079071056 0.97182160615921032 1.365380644798279 0.029411000199615959
decision_type=2 2 2 2 2 2 2 2 2 2
left_child=2 -2 3 5 -4 -1 -7 -3 -5 -6
right_child=1 7 4 8 9 6 -8 -9 -10 -11
leaf_value=0.0044367935094264668 -0.0093262086785856468 0.0023430768809225774 0.0032207976618275932 0.0081362328407484155 -0.0053197736902939547 0.0023155434562451638 -0.0046678007961380363 -0.0033918388767448554 0.0024780919831097915 6.9775346789928468e-05
leaf_weight=12.999999999999998 17 12.000000000000002 11.999999999999998 12.000000000000002 12.000000000000002 15.000000000000002 11.999999999999998 11.999999999999998 14.999999999999998 11.999999999999998
leaf_count=13 17 12 12 12 12 15 12 12 15 12
internal_value=-0.000106146 -0.004186 0.00149813 0.00263417 -0.000555231 0.000912291 -0.000710068 -0.0004331 0.00509215 -0.0025407
internal_weight=144 41 103 67 36 40 27 24 27 24
internal_count=144 41 103 67 36 40 27 24 27 24
is_linear=0
shrinkage=0.028


Tree=90
num_leaves=8
num_cat=0
split_feature=20 15 25 15 14 25 15
split_gain=0.562851 0.792985 0.709202 0.463091 0.43116 0.366092 0.354168
threshold=0.064679510891437544 0.67168414592742931 495.14999389648443 0.86616572737693798 0.034040616825222976 671.47500610351574 0.44088536500930792
decision_type=2 2 2 2 2 2 2
left_child=1 4 -3 -4 5 -1 -2
right_child=6 2 3 -5 -6 -7 -8
leaf_value=0.0064234699832982035 -6.0868676425765614e-05 -0.0095539677057242551 -0.0049033739798126693 0.0019759066984828175 -0.0020156012092127033 0.00067796743269267295 0.0053219982943525038
leaf_weight=14.999999999999998 14.999999999999998 11.999999999999998 15.000000000000002 14.999999999999998 20 23 23
leaf_count=15 15 12 15 15 20 23 23
internal_value=0.000232878 -0.000852098 -0.00379178 -0.00139316 0.00124036 0.00301348 0.00314269
internal_weight=138 100 42 30 58 38 38
internal_count=138 100 42 30 58 38 38
is_linear=0
shrinkage=0.028


Tree=91
num_leaves=9
num_cat=0
split_feature=0 1 16 15 18 2 21 11
split_gain=0.54874 0.441762 0.30778 0.306187 0.466331 0.377389 0.37449 0.332807
threshold=5.4874842166900644 0.076965156942605986 0.94274124503135692 0.63692545890808117 10.010861873626711 0.021285313181579116 0.04684839770197869 1.469269931316376
decision_type=2 2 2 2 2 2 2 2
left_child=1 -1 -3 5 6 -2 -5 -7
right_child=3 2 -4 4 -6 7 -8 -9
leaf_value=-0.006323764343891757 0.0054891947697722184 -0.0033566695906649545 0.0029548890538859053 -0.0061182701508607079 0.0040279625093490338 -0.0026571202335554526 7.5329298094945887e-05 0.0031055568661892191
leaf_weight=14.999999999999998 23 12.000000000000002 11.999999999999998 12.000000000000002 12.999999999999998 12.999999999999998 19 19
leaf_count=15 23 12 12 12 13 13 19 19
internal_value=0.000225869 -0.00256438 -0.000108534 0.00134885 -0.000347225 0.00274491 -0.0022597 0.000693856
internal_weight=138 39 24 99 44 55 31 32
internal_count=138 39 24 99 44 55 31 32
is_linear=0
shrinkage=0.028


Tree=92
num_leaves=9
num_cat=0
split_feature=0 1 16 15 16 16 0 0
split_gain=0.518779 0.41748 0.290913 0.289028 0.44253 0.464618 0.344814 0.380453
threshold=5.4874842166900644 0.076965156942605986 0.94274124503135692 0.63692545890808117 0.86041635274887096 0.94642716646194469 5.8596434593200692 5.7021131515502939
decision_type=2 2 2 2 2 2 2 2
left_child=1 -1 -3 6 -5 -6 7 -2
right_child=3 2 -4 4 5 -7 -8 -9
leaf_value=-0.0061476382811205457 0.0037945405441072899 -0.003263305281369101 0.0028727001462945873 0.0041722749707023832 -0.004916475441189682 0.001847789409539067 0.0060044039438982488 -0.0017577483310112813
leaf_weight=14.999999999999998 20 12.000000000000002 11.999999999999998 11.999999999999998 19 12.999999999999998 17 18
leaf_count=15 20 12 12 12 19 13 17 18
internal_value=0.000219499 -0.00249296 -0.000102928 0.0013118 -0.000334759 -0.00210091 0.00266829 0.00110752
internal_weight=138 39 24 99 44 32 55 38
internal_count=138 39 24 99 44 32 55 38
is_linear=0
shrinkage=0.028


Tree=93
num_leaves=10
num_cat=0
split_feature=0 13 16 11 18 15 2 2 22
split_gain=0.53751 0.513479 0.349993 0.317484 0.398445 0.351919 0.643654 0.293435 0.0766838
threshold=5.4874842166900644 4.9918498992919931 0.83869972825050365 1.4757328629493716 10.020466804504396 0.75893920660018932 0.01613029791042209 0.0068158868234604606 0.045577641576528556
decision_type=2 2 2 2 2 2 2 2 2
left_child=1 7 -2 4 5 6 -4 -1 -5
right_child=2 -3 3 8 -6 -7 -8 -9 -10
leaf_value=-0.0019209290174829047 0.0056632295912563404 0.00078058020980243802 0.0040157410321207563 0.0012504808666579275 0.0040911498246899505 -0.0048389326850960005 -0.0033784344305480981 -0.0084269948397941944 0.0046446042994079603
leaf_weight=12.000000000000002 11.999999999999998 19 17 12.000000000000002 11.999999999999998 17 20 11.999999999999998 13.999999999999998
leaf_count=12 12 19 17 12 12 17 20 12 14
internal_value=5.82419e-05 -0.00255593 0.00116176 0.000545872 -0.000457597 -0.00151441 0 -0.00528417 0.00317262
internal_weight=147 43 104 92 66 54 37 24 26
internal_count=147 43 104 92 66 54 37 24 26
is_linear=0
shrinkage=0.028


Tree=94
num_leaves=9
num_cat=0
split_feature=0 4 4 20 2 18 2 3
split_gain=0.508392 0.632107 0.326023 0.62657 0.470555 0.308493 0.292644 0.117301
threshold=5.4874842166900644 -0.8429499864578246 -0.59409999847412098 0.060953084379434593 0.031784337013959892 10.012589454650881 0.052406305447220809 293.00000000000006
decision_type=2 2 2 2 2 2 2 2
left_child=1 -1 4 5 -2 -4 -6 -8
right_child=2 -3 3 -5 6 -7 7 -9
leaf_value=0.00089806200949867499 0.0064585702113318646 -0.0058070183420432329 -0.0063059638165868801 0.0030698953178893047 -0.0021848270258414174 -3.7576681163334646e-06 0.00042491697890079556 0.0044298857078908689
leaf_weight=21 17 22 14.000000000000002 20 14.999999999999998 11.999999999999998 12.000000000000002 13.999999999999998
leaf_count=21 17 22 14 20 15 12 12 14
internal_value=5.70662e-05 -0.00248486 0.00113068 -0.000590058 0.0025329 -0.00349208 0.000841251 0.0026743
internal_weight=147 43 104 46 58 26 41 26
internal_count=147 43 104 46 58 26 41 26
is_linear=0
shrinkage=0.028


Tree=95
num_leaves=9
num_cat=0
split_feature=4 14 9 12 3 23 9 16
split_gain=0.400482 0.686636 0.516729 0.472052 0.571513 0.373222 0.235126 0.114037
threshold=-0.7004999816417693 0.024352638982236389 0.054509162902832038 0.19245784729719165 221.50000000000003 17.524999618530277 0.11732842028141023 0.90891075134277355
decision_type=2 2 2 2 2 2 2 2
left_child=2 -2 -1 -4 -5 -3 7 -7
right_child=1 5 3 4 -6 6 -8 -9
leaf_value=0.0057649048050315904 -0.006163844438096657 -0.0041349498418017921 -0.0035413511024408903 -0.0016419247641253521 0.0048477221989416666 0.0020074353123342753 0.0045543212576196826 -0.0016433564364435819
leaf_weight=17 18 11.999999999999998 18 19 23 12.000000000000002 12.999999999999998 14.999999999999998
leaf_count=17 18 12 18 19 23 12 13 15
internal_value=5.54832e-05 -0.00146053 0.00146282 0.000200564 0.00186116 0.000131496 0.00147302 0
internal_weight=147 70 77 60 42 52 40 27
internal_count=147 70 77 60 42 52 40 27
is_linear=0
shrinkage=0.028


Tree=96
num_leaves=9
num_cat=0
split_feature=22 20 25 1 20 6 20 14
split_gain=0.680436 0.850925 0.578696 0.385423 0.316498 0.263812 0.24385 0.173991
threshold=0.036479303613305099 0.044859664514660842 772.51498413085949 0.082929164171218886 0.038066282868385322 1.2141500115394595 0.060953084379434593 0.057947997003793723
decision_type=2 2 2 2 2 2 2 2
left_child=2 -2 -1 5 -4 -3 -5 -8
right_child=1 3 4 6 -6 -7 7 -9
leaf_value=0.0069523994374315985 -0.0066131384378276857 -0.0057992893124850361 -0.0024656030024730394 -0.00096051553734501874 0.0036061678974710354 0 0.0054003564605320034 0.00057076357352386984
leaf_weight=15.999999999999998 20 12.000000000000002 15.000000000000002 17 11.999999999999998 11.999999999999998 14.000000000000002 11.999999999999998
leaf_count=16 20 12 15 17 12 12 14 12
internal_value=-0.000116471 -0.0015568 0.00274317 -7.96791e-06 0.000152925 -0.00287794 0.00154425 0.00326579
internal_weight=130 87 43 67 27 24 43 26
internal_count=130 87 43 67 27 24 43 26
is_linear=0
shrinkage=0.028


Tree=97
num_leaves=9
num_cat=0
split_feature=0 20 13 14 4 13 10 17
split_gain=0.497986 0.491092 0.430893 0.332943 0.311002 0.276955 0.243837 0.132636
threshold=5.4874842166900644 0.039911795407533653 4.0103499889373788 0.039052665233612067 -0.32905000448226923 4.5723998546600351 0.034423403441905982 0.068044170737266554
decision_type=2 2 2 2 2 2 2 2
left_child=1 -1 4 -3 -2 -4 -7 -8
right_child=2 3 5 -5 -6 6 7 -9
