tree
version=v4
num_class=1
num_tree_per_iteration=1
label_index=0
max_feature_idx=25
objective=regression
feature_names=Column_0 Column_1 Column_2 Column_3 Column_4 Column_5 Column_6 Column_7 Column_8 Column_9 Column_10 Column_11 Column_12 Column_13 Column_14 Column_15 Column_16 Column_17 Column_18 Column_19 Column_20 Column_21 Column_22 Column_23 Column_24 Column_25
feature_infos=[4.5261268615722656:6.6735506057739258] [0:0.21810430288314819] [0:0.14244270324707031] [0:817] [-4.0005998611450195:0.63209998607635498] [1.7524000406265259:5.8580999374389648] [0.49950000643730164:2.5725998878479004] [0.50260001420974731:3.4303998947143555] [0.042048756033182144:2.4555251598358154] [0.010025981813669205:0.36873874068260193] [0.0090028932318091393:0.16563557088375092] [1.0451443195343018:2.0904526710510254] [0:0.99819934368133545] [1.2137999534606934:7.690000057220459] [0.0082251410931348801:0.17745064198970795] [-2.655210018157959:2.6963198184967041] [0.67799282073974609:1.4561139345169067] [0.020594630390405655:0.26032966375350952] [9.9916038513183594:10.065645217895508] [0.6385388970375061:0.97055602073669434] [0.014678142964839935:0.19246174395084381] [0.017439300194382668:0.16877686977386475] [0.014259993098676205:0.16595840454101562] [3.9600000381469727:149.96000671386719] [24.139999389648438:206] [155.13999938964844:2010.1600341796875]
tree_sizes=962 1014 1014 885 873 871 1032 904 1031 1022 907 1046 1024 1010 1027 987 989 1005 1142 972 1144 893 929 986 988 1121 1124 1017 881 996 893 1009 1010 924 928 1025 1011 877 1150 1010 1131 989 982 1163 1145 919 891 909 1004 981 1023 1003 875 1010 917 916 917 905 891 910 925 807 909 1122 1121 1145 1111 1135 1005 1027 1021 1025 1140 1120 1034 1139 1122 842 1141 878 899 897 898 1047 817 901 902 1125 1015 1004 907 1017 1059 935 899 1043 1013 1000 1139 1139 999 975 876 1145 896 824 920 1038 985 1099 1105 911 1044 1057 1004 1030 1249 1035 906 1052 921 1038 998 904 900 806 1025 1031 1017 1040 1038 1040 1131 1158 1155 932 831 1009 862 853 848 955 940 1036 1015 923 1005 1038 1149 1037

Tree=0
num_leaves=9
num_cat=0
split_feature=12 13 12 0 3 2 20 10
split_gain=28.1029 6.45868 4.58619 5.04154 1.78073 1.38285 0.885106 0.678053
threshold=0.042670318856835372 3.3212499618530278 0.38309021294116979 5.5459570884704599 279.00000000000006 0.019788141362369064 0.04914273880422116 0.036123618483543403
decision_type=2 2 2 2 2 2 2 2
left_child=1 -1 3 -2 5 -5 -4 -3
right_child=2 7 6 4 -6 -7 -8 -9
leaf_value=3.7389686127857988 3.7677981534224934 3.7583312284427932 3.7874548501108696 3.7856467600195765 3.7939338789421959 3.7737683156324704 3.7982626176599137 3.7679557999848199
leaf_weight=12.999999999999998 20 12.000000000000002 13.000000000000002 20 11.999999999999998 11.999999999999998 13.999999999999998 13.999999999999998
leaf_count=13 20 12 13 20 12 12 14 14
internal_value=3.77501 3.75513 3.78351 3.77938 3.7847 3.78113 3.79319 3.76339
internal_weight=130 39 91 64 44 32 27 26
internal_count=130 39 91 64 44 32 27 26
is_linear=0
shrinkage=1


Tree=1
num_leaves=9
num_cat=0
split_feature=12 13 12 0 14 6 5 10
split_gain=26.5682 6.09963 4.3354 4.76492 1.52074 1.46483 1.05324 0.6389
threshold=0.042670318856835372 3.3212499618530278 0.38309021294116979 5.5459570884704599 0.024352638982236389 1.4256999492645266 3.9561001062393193 0.036123618483543403
decision_type=2 2 2 2 2 2 2 2
left_child=1 -1 3 -2 -5 -4 -6 -3
right_child=2 7 5 4 6 -7 -8 -9
leaf_value=-0.036277107270850324 -0.0082493504692180697 -0.017453584046158564 0.0097856530714780059 -0.00014143794952638889 0.0071898181873681659 0.023326107978820801 0.018032032940462725 -0.0080964961900291121
leaf_weight=12.999999999999998 20 12.000000000000002 14.000000000000002 11.999999999999998 20 12.999999999999998 11.999999999999998 13.999999999999998
leaf_count=13 20 12 14 12 20 13 12 14
internal_value=-0.00124241 -0.0205686 0.00702647 0.00300566 0.00817808 0.0164375 0.0113603 -0.0125413
internal_weight=130 39 91 64 44 27 32 26
internal_count=130 39 91 64 44 27 32 26
is_linear=0
shrinkage=0.028


Tree=2
num_leaves=9
num_cat=0
split_feature=12 12 12 0 3 6 2 10
split_gain=25.1176 4.16043 4.09837 4.50352 1.615 1.38192 1.2823 0.217456
threshold=0.042670318856835372 0.0018294802284799518 0.38309021294116979 5.5459570884704599 279.00000000000006 1.4256999492645266 0.019788141362369064 0.03910192288458348
decision_type=2 2 2 2 2 2 2 2
left_child=1 -1 3 -2 6 -4 -5 -3
right_child=2 7 5 4 -6 -7 -8 -9
leaf_value=-0.031646521977072371 -0.0080192890314244297 -0.015556056538016982 0.0095132115600122628 0.0089014043534412033 0.01674962717353903 0.022676970680554711 -0.0025350416790175909 -0.0092676095388681684
leaf_weight=14.999999999999998 20 12.000000000000002 14.000000000000002 20 11.999999999999998 12.999999999999998 11.999999999999998 11.999999999999998
leaf_count=15 20 12 14 20 12 13 12 12
internal_value=-0.00120782 -0.0199995 0.00683164 0.00292112 0.00795037 0.0159823 0.00454728 -0.0125461
internal_weight=130 39 91 64 44 27 32 24
internal_count=130 39 91 64 44 27 32 24
is_linear=0
shrinkage=0.028


Tree=3
num_leaves=8
num_cat=0
split_feature=12 12 0 2 0 0 15
split_gain=18.6969 8.01213 5.49899 1.9745 1.79397 1.99128 0.561749
threshold=0.0096026053652167338 0.25762286782264715 5.8780157566070566 0.033923814073205001 5.5459570884704599 5.7021131515502939 0.31777074933052069
decision_type=2 2 2 2 2 2 2
left_child=-1 2 4 -3 -2 -6 -5
right_child=1 3 -4 6 5 -7 -8
leaf_value=-0.028853574734242243 -0.014333020107901617 0.0052318345819455216 0.0086902895992802039 0.021952784881291793 0.0033265392690185521 -0.011531421554929916 0.012481651779140858
leaf_weight=17 22 20 21 12.000000000000002 15.000000000000002 12.999999999999998 11.999999999999998
leaf_count=17 22 20 21 12 15 13 12
internal_value=-0.00150685 0.0025335 -0.00325983 0.0119216 -0.00832947 -0.00350523 0.0173674
internal_weight=132 115 71 44 50 28 24
internal_count=132 115 71 44 50 28 24
is_linear=0
shrinkage=0.028


Tree=4
num_leaves=8
num_cat=0
split_feature=12 12 0 4 17 0 3
split_gain=17.671 7.57466 5.19708 2.03714 1.72319 1.40248 0.929391
threshold=0.0096026053652167338 0.25762286782264715 5.8780157566070566 -0.8429499864578246 0.049513949081301696 5.5459570884704599 221.50000000000003
decision_type=2 2 2 2 2 2 2
left_child=-1 2 4 6 -2 -6 -3
right_child=1 3 -4 -5 5 -7 -8
leaf_value=-0.028049458926818413 -0.017393920107590444 0.0096465361075481482 0.0084478849362320425 0.0025606208424168555 -0.011032664070608187 -0.00011736149405901529 0.020157681940031834
leaf_weight=17 11.999999999999998 13.000000000000002 21 13.999999999999998 17 21 17
leaf_count=17 12 13 21 14 17 21 17
internal_value=-0.00146328 0.00246415 -0.00316811 0.0115926 -0.00809725 -0.00507227 0.0157151
internal_weight=132 115 71 44 50 38 30
internal_count=132 115 71 44 50 38 30
is_linear=0
shrinkage=0.028


Tree=5
num_leaves=8
num_cat=0
split_feature=12 12 0 4 17 0 3
split_gain=16.6999 7.16278 4.91347 1.92405 1.62702 1.32461 0.875801
threshold=0.0096026053652167338 0.25762286782264715 5.8780157566070566 -0.8429499864578246 0.049513949081301696 5.5459570884704599 221.50000000000003
decision_type=2 2 2 2 2 2 2
left_child=-1 2 4 6 -2 -6 -3
right_child=1 3 -4 -5 5 -7 -8
leaf_value=-0.02726775285357335 -0.01691011503812493 0.0093780851357756004 0.0082122418496764823 0.0024893308520232411 -0.010725195928919511 -0.00011408792101058835 0.019595910654693356
leaf_weight=17 11.999999999999998 13.000000000000002 21 13.999999999999998 17 21 17
leaf_count=17 12 13 21 14 17 21 17
internal_value=-0.0014221 0.00239539 -0.00308092 0.0112725 -0.00787431 -0.00493255 0.0152794
internal_weight=132 115 71 44 50 38 30
internal_count=132 115 71 44 50 38 30
is_linear=0
shrinkage=0.028


Tree=6
num_leaves=9
num_cat=0
split_feature=12 13 0 2 0 0 20 3
split_gain=18.8696 8.25139 3.23955 2.69778 1.39661 1.28699 0.644946 0.620169
threshold=0.19245784729719165 3.2563999891281132 5.5373342037200937 0.033923814073205001 5.61403512954712 5.8780157566070566 0.049529096111655242 182.00000000000003
decision_type=2 2 2 2 2 2 2 2
left_child=1 -1 -3 4 -2 6 -4 -5
right_child=3 2 5 7 -6 -7 -8 -9
leaf_value=-0.030867554781057974 -0.0014813216735099068 -0.016281463581940221 -0.0096974782308205838 0.011386464406224275 0.010719779315789171 0.0050856870489185725 -0.00032661782767598989 0.020117701126796245
leaf_weight=11.999999999999998 13.000000000000002 14.999999999999998 12.000000000000002 11.999999999999998 15.999999999999998 15.999999999999998 11.999999999999998 21
leaf_count=12 13 15 12 12 16 16 12 21
internal_value=0.000406184 -0.00987176 -0.00521201 0.0115475 0.00518426 -0.000980869 -0.00512172 0.0170456
internal_weight=129 67 55 62 29 40 24 33
internal_count=129 67 55 62 29 40 24 33
is_linear=0
shrinkage=0.028


Tree=7
num_leaves=8
num_cat=0
split_feature=1 2 3 15 22 17 3
split_gain=16.6216 4.79982 3.59218 2.82681 1.61707 1.44484 0.978112
threshold=0.019577548839151863 0.035660708323121078 1.5000000000000002 0.7326129972934724 0.03747179917991162 0.067013345658779158 249.50000000000003
decision_type=2 2 2 2 2 2 2
left_child=2 3 -1 4 -2 -3 -6
right_child=1 5 -4 -5 6 -7 -8
leaf_value=-0.030275767726613976 0.011529914967811163 0.006357976168394089 -0.0096761023325854876 -0.0089517282429915756 -0.0032250187843100831 0.018501914690505123 0.0064798235714816571
leaf_weight=12.000000000000002 17 12.999999999999998 15.999999999999998 15.999999999999998 19 22 13.999999999999998
leaf_count=12 17 13 16 16 19 22 14
internal_value=0.000393642 0.00570453 -0.0186454 0.00121746 0.00452543 0.0140799 0.000830186
internal_weight=129 101 28 66 50 35 33
internal_count=129 101 28 66 50 35 33
is_linear=0
shrinkage=0.028


Tree=8
num_leaves=9
num_cat=0
split_feature=12 13 0 2 0 0 20 3
split_gain=17.0099 7.41237 3.04679 2.42745 1.30194 1.22212 0.60704 0.572029
threshold=0.19245784729719165 3.2563999891281132 5.5373342037200937 0.033923814073205001 5.61403512954712 5.8780157566070566 0.049529096111655242 182.00000000000003
decision_type=2 2 2 2 2 2 2 2
left_child=1 -1 -3 4 -2 6 -4 -5
right_child=3 2 5 7 -6 -7 -8 -9
leaf_value=-0.029277327006226341 -0.0015122039529981959 -0.015690707801349599 -0.0093270715704027347 0.010733038069396619 0.010265392021623566 0.0050592998104234841 -0.00023365234479998912 0.019130368881111356
leaf_weight=11.999999999999998 13.000000000000002 14.999999999999998 12.000000000000002 11.999999999999998 15.999999999999998 15.999999999999998 11.999999999999998 21
leaf_count=12 13 15 12 12 16 16 12 21
internal_value=0.000381974 -0.00937546 -0.00495635 0.0109609 0.00491912 -0.000851797 -0.00488927 0.0161778
internal_weight=129 67 55 62 29 40 24 33
internal_count=129 67 55 62 29 40 24 33
is_linear=0
shrinkage=0.028


Tree=9
num_leaves=9
num_cat=0
split_feature=12 14 12 8 23 6 17 11
split_gain=16.1318 3.58683 2.66678 2.00869 1.05489 1.11938 0.603421 0.522249
threshold=0.027979306876659397 0.024352638982236389 0.38309021294116979 0.43407791852951055 48.459999084472663 1.5576000213623049 0.083516735583543791 1.3240235447883608
decision_type=2 2 2 2 2 2 2 2
left_child=3 -2 4 -1 5 7 -4 -3
right_child=1 2 6 -5 -6 -7 -8 -9
leaf_value=-0.024604424269472965 -0.004673497060620496 0.0043908225312483612 0.019807295565758273 -0.0098446347990327251 -0.0029221929716353383 -0.00068979854250191062 0.010358948222478691 0.012338846978492442
leaf_weight=17.000000000000004 23 12.000000000000002 13.000000000000002 13.999999999999998 11.999999999999998 11.999999999999998 11.999999999999998 18
leaf_count=17 23 12 13 14 12 12 12 18
internal_value=-0.00037579 0.00498478 0.00782689 -0.0180533 0.00425767 0.00636394 0.0154089 0.00925424
internal_weight=133 102 79 31 54 42 25 30
internal_count=133 102 79 31 54 42 25 30
is_linear=0
shrinkage=0.028


Tree=10
num_leaves=8
num_cat=0
split_feature=12 0 12 2 8 0 20
split_gain=15.2484 4.14259 3.22705 2.2866 1.89542 0.705618 1.1327
threshold=0.027979306876659397 5.5110058784484872 0.30926588177680975 0.035660708323121078 0.43407791852951055 5.9013950824737558 0.046424735337495811
decision_type=2 2 2 2 2 2 2
left_child=4 3 5 -2 -1 6 -3
right_child=1 2 -4 -5 -6 -7 -8
leaf_value=-0.023918727208356385 -0.011798206842408095 -0.0041795439495789727 0.017271904912331833 0.0044652241225298858 -0.0095705511901866304 0.0082797820711157464 0.0065040059480510779
leaf_weight=17.000000000000004 15.000000000000002 14.000000000000002 22 11.999999999999998 13.999999999999998 22 17
leaf_count=17 15 14 22 12 14 22 17
internal_value=-0.000365198 0.00484605 0.00824003 -0.00449546 -0.0175523 0.00442837 0.00160877
internal_weight=133 102 75 27 31 53 31
internal_count=133 102 75 27 31 53 31
is_linear=0
shrinkage=0.028


Tree=11
num_leaves=9
num_cat=0
split_feature=12 14 12 12 23 6 17 16
split_gain=14.4138 3.29121 2.41239 1.72176 0.951482 1.04217 0.561829 0.503158
threshold=0.027979306876659397 0.024352638982236389 0.38309021294116979 0.0096026053652167338 48.459999084472663 1.5576000213623049 0.083516735583543791 0.90891075134277355
decision_type=2 2 2 2 2 2 2 2
left_child=3 -2 4 -1 5 7 -4 -3
right_child=1 2 6 -5 -6 -7 -8 -9
leaf_value=-0.023553785430258184 -0.0045381003668857828 0.012549870212846469 0.018892487346579171 -0.0099073870079270723 -0.0027755175928603736 -0.00076307599567222283 0.0097685140543894849 0.004911031048952426
leaf_weight=16.000000000000004 23 15.000000000000002 13.000000000000002 14.999999999999998 11.999999999999998 11.999999999999998 11.999999999999998 14.999999999999998
leaf_count=16 23 15 13 15 12 12 12 15
internal_value=-0.000354719 0.00471142 0.00743452 -0.0170653 0.00403706 0.00603832 0.0146474 0.00882814
internal_weight=133 102 79 31 54 42 25 30
internal_count=133 102 79 31 54 42 25 30
is_linear=0
shrinkage=0.028


Tree=12
num_leaves=9
num_cat=0
split_feature=13 12 0 12 16 1 10 0
split_gain=14.2696 6.94265 3.01162 1.73966 1.03373 1.07392 0.869 0.795081
threshold=3.3212499618530278 0.25762286782264715 5.5459570884704599 0.43305881321430212 1.0048460364341738 0.019577548839151863 0.045884197577834136 5.8780157566070566
decision_type=2 2 2 2 2 2 2 2
left_child=-1 2 -2 6 5 -4 -3 -7
right_child=1 3 4 -5 -6 7 -8 -9
leaf_value=-0.026963800908913663 -0.012151568515347723 -5.1225889462761181e-05 -0.0091811122565672101 0.015659918198759056 0.0066369018376042895 -0.0033884218543100706 0.0098203636680899015 0.0058836831214413368
leaf_weight=14.999999999999998 22 13.000000000000002 11.999999999999998 23 13.999999999999998 16.000000000000004 13.999999999999998 12.999999999999998
leaf_count=15 22 13 12 23 14 16 14 13
internal_value=-0.00120268 0.00183741 -0.00341586 0.00996469 5.03358e-05 -0.00215275 0.00499855 0.000695762
internal_weight=142 127 77 50 55 41 27 29
internal_count=142 127 77 50 55 41 27 29
is_linear=0
shrinkage=0.028


Tree=13
num_leaves=9
num_cat=0
split_feature=13 12 12 11 8 22 18 10
split_gain=13.4855 6.5611 1.64305 1.44046 1.12698 1.04056 1.08555 0.822059
threshold=3.3212499618530278 0.25762286782264715 0.43305881321430212 1.3396555781364443 0.97182160615921032 0.033981248736381538 10.008860111236574 0.045884197577834136
decision_type=2 2 2 2 2 2 2 2
left_child=-1 3 7 5 -5 -2 -7 -3
right_child=1 2 -4 4 -6 6 -8 -9
leaf_value=-0.02621281973646079 -5.6793140435437547e-05 -4.9800385911849281e-05 0.015222960340346581 0.005741619414855949 -0.0042670364966158007 -0.015415131851692089 -0.0042844043151729931 0.009546955780337818
leaf_weight=14.999999999999998 12.999999999999998 13.000000000000002 23 18 17 14.000000000000002 14.999999999999998 13.999999999999998
leaf_count=15 13 13 23 18 17 14 15 14
internal_value=-0.00116922 0.0017857 0.00968681 -0.00332057 0.000817774 -0.00681741 -0.00976251 0.00485708
internal_weight=142 127 50 77 35 42 29 27
internal_count=142 127 50 77 35 42 29 27
is_linear=0
shrinkage=0.028


Tree=14
num_leaves=9
num_cat=0
split_feature=13 12 0 12 16 1 10 0
split_gain=12.7434 6.20229 2.82938 1.55178 0.938996 1.02324 0.777674 0.743846
threshold=3.3212499618530278 0.25762286782264715 5.5459570884704599 0.43305881321430212 1.0048460364341738 0.019577548839151863 0.045884197577834136 5.8780157566070566
decision_type=2 2 2 2 2 2 2 2
left_child=-1 2 -2 6 5 -4 -3 -7
right_child=1 3 4 -5 -6 7 -8 -9
leaf_value=-0.025482754017653771 -0.011697732248316533 -4.8414458443812258e-05 -0.0088319716748614975 0.01479819503555678 0.0064065488633615053 -0.0031348340626972822 0.0092811596967618572 0.0058280601899740525
leaf_weight=14.999999999999998 22 13.000000000000002 11.999999999999998 23 13.999999999999998 16.000000000000004 13.999999999999998 12.999999999999998
leaf_count=15 22 13 12 23 14 16 14 13
internal_value=-0.00113768 0.00173433 -0.00322975 0.00941669 0.000128847 -0.00196853 0.00471955 0.000810966
internal_weight=142 127 77 50 55 41 27 29
internal_count=142 127 77 50 55 41 27 29
is_linear=0
shrinkage=0.028


Tree=15
num_leaves=9
num_cat=0
split_feature=13 3 19 11 7 0 10 11
split_gain=11.5634 3.35343 2.82655 1.6627 2.01982 1.34551 0.859882 0.728583
threshold=3.3212499618530278 221.50000000000003 0.91710099577903759 1.2587419152259829 1.1030499935150149 5.5562388896942148 0.047444989904761321 1.4345541596412661
decision_type=2 2 2 2 2 2 2 2
left_child=-1 3 -3 4 -2 -5 7 -4
right_child=1 2 6 5 -6 -7 -8 -9
leaf_value=-0.024011206297485519 1.5822114188544791e-05 0.017711210082200439 0.0055701376002355897 -0.0043011315172163415 -0.01570670900067787 0.0055904934507289474 0.0081022285812130564 -0.00340512889434324
leaf_weight=14.999999999999998 12.000000000000002 13.999999999999998 12.000000000000002 20 12.999999999999998 23 18 17
leaf_count=15 12 14 12 20 13 23 18 17
internal_value=-0.000799625 0.00189525 0.00666715 -0.00235533 -0.0080946 0.000938298 0.00330535 0.000236852
internal_weight=144 129 61 68 25 43 47 29
internal_count=144 129 61 68 25 43 47 29
is_linear=0
shrinkage=0.028


Tree=16
num_leaves=9
num_cat=0
split_feature=13 3 2 11 7 5 17 0
split_gain=10.9288 3.16973 2.25227 1.57038 1.91022 1.36116 1.30922 1.27163
threshold=3.3212499618530278 221.50000000000003 0.03835802152752877 1.2587419152259829 1.1030499935150149 4.0492501258850107 0.061368677765131004 5.5562388896942148
decision_type=2 2 2 2 2 2 2 2
left_child=-1 3 5 4 -2 -3 -7 -5
right_child=1 2 -4 7 -6 6 -8 -9
leaf_value=-0.023342459910349125 1.5382025415534206e-05 0.0096105240271350412 0.015915569689371859 -0.0041811796620532691 -0.015269611371037429 -0.0074079329809605653 0.0046279879562923171 0.0054345022429497444
leaf_weight=14.999999999999998 12.000000000000002 17 14.999999999999998 20 12.999999999999998 12.000000000000002 17 23
leaf_count=15 12 17 15 20 13 12 17 23
internal_value=-0.000776527 0.00184291 0.00648253 -0.00228893 -0.00786685 0.00333563 -0.000282043 0.000910637
internal_weight=144 129 61 68 25 46 29 43
internal_count=144 129 61 68 25 46 29 43
is_linear=0
shrinkage=0.028


Tree=17
num_leaves=9
num_cat=0
split_feature=1 3 3 19 11 5 4 19
split_gain=10.0417 3.61478 2.43804 1.92254 1.54419 2.35139 0.815503 0.529856
threshold=0.019577548839151863 1.5000000000000002 293.00000000000006 0.92313212156295787 1.3686832189559939 3.9939999580383305 -0.47139999270439142 0.9482569992542268
decision_type=2 2 2 2 2 2 2 2
left_child=1 -1 4 -4 6 -6 -2 -5
right_child=2 -3 3 7 5 -7 -8 -9
leaf_value=-0.024696996165270154 -0.0078740860154555489 -0.0063022444346190797 0.017965325918948616 0.0087490370850393292 0.010152690179834979 -0.0036185678187452379 0.0012930702219365647 0.00040725327201119254
leaf_weight=13.999999999999998 19.000000000000004 22 12.999999999999998 12.000000000000002 22 17 11.999999999999998 12.999999999999998
leaf_count=14 19 22 13 12 22 17 12 13
internal_value=-0.000754141 -0.0135567 0.00349954 0.00920383 0.000363998 0.0040974 -0.00425924 0.00451576
internal_weight=144 36 108 38 70 39 31 25
internal_count=144 36 108 38 70 39 31 25
is_linear=0
shrinkage=0.028


Tree=18
num_leaves=10
num_cat=0
split_feature=1 14 3 18 19 11 5 22 13
split_gain=9.47862 2.95316 2.49053 1.87609 1.28799 1.11589 1.38471 0.648821 0.563048
threshold=0.019577548839151863 0.024352638982236389 293.00000000000006 10.010472774505617 0.92677980661392223 1.2449066638946535 3.9939999580383305 0.048018258064985282 5.0059998035430917
decision_type=2 2 2 2 2 2 2 2 2
left_child=3 8 5 -1 -4 -3 7 -7 -2
right_child=1 2 4 -5 -6 6 -8 -9 -10
leaf_value=-0.0064722723449344077 -0.0095958899002127479 -0.0042682962661475653 0.017666470211833273 -0.020136019022738351 0.0061051959409494311 0.011956042092682709 -0.0020138225758086835 0.0032226118289207647 -0.00080119335473767973
leaf_weight=15.999999999999998 12.000000000000002 14.999999999999998 15.999999999999998 17 15.999999999999998 16.000000000000004 15.999999999999998 12.999999999999998 11.999999999999998
leaf_count=16 12 15 16 17 16 16 16 13 12
internal_value=-0.000375161 0.00337757 0.00567056 -0.0136106 0.0119853 0.00225394 0.00448143 0.00813772 -0.00530884
internal_weight=149 116 92 33 32 60 45 29 24
internal_count=149 116 92 33 32 60 45 29 24
is_linear=0
shrinkage=0.028


Tree=19
num_leaves=9
num_cat=0
split_feature=12 10 0 14 12 9 8 9
split_gain=8.79846 2.75837 2.556 2.05315 1.37759 1.03667 0.9361 0.715935
threshold=0.042670318856835372 0.036123618483543403 5.5664324760437021 0.02392208389937878 0.37212394177913671 0.060496408492326743 1.2271586060523989 0.07528292760252954
decision_type=2 2 2 2 2 2 2 2
left_child=1 -1 4 -4 5 -2 7 -5
right_child=2 -3 3 6 -6 -7 -8 -9
leaf_value=-0.01816536538831998 0.0013011769948416197 -0.0034252373510561649 -0.0025318242006793319 0.011132414347512092 0.0048272533460483116 -0.0092842813582449668 0.014593853453012263 0.0016072547728429329
leaf_weight=22 12.000000000000002 19 11.999999999999998 13.000000000000002 19 17 22 12.999999999999998
leaf_count=22 12 19 12 13 19 17 22 13
internal_value=-0.000365142 -0.0114091 0.00381208 0.00766516 -0.000962423 -0.00483553 0.010261 0.00647526
internal_weight=149 41 108 60 48 29 48 26
internal_count=149 41 108 60 48 29 48 26
is_linear=0
shrinkage=0.028


Tree=20
num_leaves=10
num_cat=0
split_feature=12 14 12 15 15 9 5 20 20
split_gain=8.36642 2.88876 1.85484 1.35652 0.954064 1.0171 0.847981 0.72573 1.00393
threshold=0.021154091693460945 0.024352638982236389 0.37212394177913671 0.75893920660018932 0.42280587553977972 0.084800112992525115 3.8999999761581425 0.064679510891437544 0.04794625751674176
decision_type=2 2 2 2 2 2 2 2 2
left_child=-1 3 4 -2 5 -3 -4 8 -6
right_child=1 2 6 -5 7 -7 -8 -9 -10
leaf_value=-0.01627587732780671 6.8547729013571064e-06 0.0037105318292636755 0.015759144444695922 -0.012011467155786829 0.0080385726426730891 -0.0067073669466301208 0.0056305552950679238 0.010478329315189192 -0.0024933518334353632
leaf_weight=22 16.000000000000004 14.000000000000002 14.000000000000002 12.999999999999998 13.000000000000002 14.999999999999998 13.999999999999998 12.999999999999998 14.999999999999998
leaf_count=22 16 14 14 13 13 15 14 13 15
internal_value=-0.000354076 0.00239491 0.00470377 -0.00532186 0.00222173 -0.00160464 0.0108051 0.00498056 0.00232567
internal_weight=149 127 98 29 70 29 28 41 28
internal_count=149 127 98 29 70 29 28 41 28
is_linear=0
shrinkage=0.028


Tree=21
num_leaves=8
num_cat=0
split_feature=12 12 25 25 3 20 5
split_gain=9.12363 2.94912 0.921701 0.690025 1.20926 0.969892 0.670249
threshold=0.0018294802284799518 0.37212394177913671 393.50000000000006 1194.5100097656252 1.5000000000000002 0.064679510891437544 3.9561001062393193
decision_type=2 2 2 2 2 2 2
left_child=-1 2 -2 4 -4 -6 -3
right_child=1 6 3 -5 5 -7 -8
leaf_value=-0.021260673733479389 -0.0062639674808522431 0.013984268453639761 -0.0048923140541459152 -0.0037930686139416967 0.0021183219584917806 0.010379702662102513 0.0059851113423639172
leaf_weight=12.999999999999998 12.999999999999998 18 11.999999999999998 13.999999999999998 35 17 18
leaf_count=13 13 18 12 14 35 17 18
internal_value=0.000984256 0.00329087 0.000578368 0.0017527 0.00300401 0.00487396 0.0100689
internal_weight=140 127 91 78 64 52 36
internal_count=140 127 91 78 64 52 36
is_linear=0
shrinkage=0.028


Tree=22
num_leaves=8
num_cat=0
split_feature=12 12 25 25 3 10 3
split_gain=8.62286 2.78846 0.870979 0.668185 1.12066 1.43031 0.634455
threshold=0.0018294802284799518 0.37212394177913671 393.50000000000006 548.48501586914074 1.5000000000000002 0.051335165277123458 264.50000000000006
decision_type=2 2 2 2 2 2 2
left_child=-1 2 -2 -4 -5 -6 -3
right_child=1 6 3 4 5 -7 -8
leaf_value=-0.020669015891872779 -0.0060896491163527017 0.0045319326422903518 0.0077723915221675349 -0.0067398045133879054 -0.00057500837167409505 0.0093776098381987416 0.012638827574899361
leaf_weight=12.999999999999998 12.999999999999998 12.999999999999998 11.999999999999998 12.999999999999998 37 15.999999999999998 23
leaf_count=13 13 13 12 13 37 16 23
internal_value=0.000956189 0.00319904 0.000560737 0.00170293 0.000557415 0.00239696 0.00978996
internal_weight=140 127 91 78 66 53 36
internal_count=140 127 91 78 66 53 36
is_linear=0
shrinkage=0.028


Tree=23
num_leaves=9
num_cat=0
split_feature=1 0 8 1 10 8 21 2
split_gain=8.19332 2.82346 1.69491 1.64812 0.634915 0.586729 1.0207 0.526279
threshold=0.0075455924961715945 5.5562388896942148 1.5412198901176455 0.06278602778911592 0.045510709285736091 0.81590136885643016 0.061349755153059966 0.035660708323121078
decision_type=2 2 2 2 2 2 2 2
left_child=-1 2 4 5 -2 6 -3 -5
right_child=1 3 -4 7 -6 -7 -8 -9
leaf_value=-0.016103967632700066 -0.0089626697359041357 0.011644690644958157 0.0066275859808718612 0.0080131277412664702 -0.0012345270384039606 -0.001040362708151973 0 0.01559576614823804
leaf_weight=19 15.999999999999998 12.000000000000002 13.999999999999998 17 19 14.999999999999998 11.999999999999998 15.999999999999998
leaf_count=19 16 12 14 17 19 15 12 16
internal_value=0.000928972 0.00363094 -0.00151504 0.00716193 -0.00484363 0.00317574 0.00589854 0.0117861
internal_weight=140 121 49 72 35 39 24 33
internal_count=140 121 49 72 35 39 24 33
is_linear=0
shrinkage=0.028


Tree=24
num_leaves=9
num_cat=0
split_feature=15 3 0 3 14 8 16 8
split_gain=7.76972 4.69827 2.15128 1.51917 1.40863 1.00987 0.518781 0.577599
threshold=0.75893920660018932 60.000000000000007 5.5459570884704599 221.50000000000003 0.024352638982236389 1.2771480083465578 0.88874769210815441 0.77926307916641246
decision_type=2 2 2 2 2 2 2 2
left_child=2 -2 3 -1 -3 6 -4 -8
right_child=1 4 5 -5 -6 -7 7 -9
leaf_value=-0.0063003101841293888 -0.02163815705698045 -0.0099103125251878942 -3.8297586758202365e-05 0.0044408470491592985 0.002852377471521457 0.011915991258005285 0.011187467010346367 0.0025432970717612822
leaf_weight=21 17 12.000000000000002 12.999999999999998 20 14.999999999999998 23 12.000000000000002 13.999999999999998
leaf_count=21 17 12 13 20 15 23 12 14
internal_value=-0.000271732 -0.0101244 0.00392002 -0.00100775 -0.00274973 0.00721189 0.00436165 0.00664088
internal_weight=147 44 103 41 27 62 39 26
internal_count=147 44 103 41 27 62 39 26
is_linear=0
shrinkage=0.028


Tree=25
num_leaves=10
num_cat=0
split_feature=11 2 12 0 0 11 14 3 9
split_gain=7.58497 3.05206 2.99069 2.41989 2.19108 0.884636 0.870837 0.44555 0.295603
threshold=1.2661454081535342 0.042215833440423019 0.025701569393277172 5.5459570884704599 5.7535235881805429 1.5448960661888125 0.024352638982236389 264.50000000000006 0.069735676050186171
decision_type=2 2 2 2 2 2 2 2 2
left_child=2 3 -1 5 -4 -2 -5 -3 -8
right_child=1 7 4 6 -6 -7 8 -9 -10
leaf_value=-0.020562981397783092 -0.0088392584382691111 0.0070231726240638061 -0.013219361674114565 -0.0012545904029185411 0.003227610854785149 0.00010384252550826464 0.011072795236939628 0.014745369702429323 0.0051540436707914186
leaf_weight=14.999999999999998 19 12.000000000000002 12.000000000000002 11.999999999999998 12.999999999999998 14.999999999999998 11.999999999999998 15.999999999999998 21
leaf_count=15 19 12 12 12 13 15 12 16 21
internal_value=-0.000263346 0.00361029 -0.0106677 0.0007608 -0.00459461 -0.00483706 0.00504106 0.0115451 0.0073956
internal_weight=147 107 40 79 25 34 45 28 33
internal_count=147 107 40 79 25 34 45 28 33
is_linear=0
shrinkage=0.028


Tree=26
num_leaves=10
num_cat=0
split_feature=10 2 13 3 20 12 8 3 19
split_gain=6.6524 2.99435 2.48418 1.03534 1.10875 1.06093 0.879557 0.625115 0.614887
threshold=0.032832898199558265 0.042215833440423019 3.9929000139236455 221.50000000000003 0.081959232687950148 0.3387270867824555 1.1063544154167178 264.50000000000006 0.88930302858352672
decision_type=2 2 2 2 2 2 2 2 2
left_child=2 3 -1 4 8 6 -5 -3 -2
right_child=1 7 -4 5 -6 -7 -8 -9 -10
leaf_value=-0.021242221163044642 -0.00987336037229662 0.0056351951783585605 -0.0047587403357028969 0.0058924571416064482 0.0041806827454688167 0.010400355553168136 -0.0038704005231181933 0.014334553540049503 -0.0020381702458485032
leaf_weight=13.000000000000002 13.999999999999998 13.000000000000002 17 13.000000000000002 12.999999999999998 11.999999999999998 15.999999999999998 15.999999999999998 20
leaf_count=13 14 13 17 13 13 12 16 16 20
internal_value=-0.000254732 0.00274737 -0.0120135 0.000147293 -0.00266058 0.00341951 0.000433195 0.0105381 -0.00534576
internal_weight=147 117 30 88 47 41 29 29 34
internal_count=147 117 30 88 47 41 29 29 34
is_linear=0
shrinkage=0.028


Tree=27
num_leaves=9
num_cat=0
split_feature=12 12 0 0 13 19 20 19
split_gain=6.09099 3.22954 2.08954 0.786041 0.75998 1.04233 0.785319 0.583503
threshold=0.0018294802284799518 0.19245784729719165 5.5459570884704599 5.5110058784484872 5.0581498146057138 0.92872810363769542 0.06658195331692697 0.92677980661392223
decision_type=2 2 2 2 2 2 2 2
left_child=-1 2 -2 -3 5 6 -4 -5
right_child=1 3 4 7 -6 -7 -8 -9
leaf_value=-0.01817463206069185 -0.010885597639719481 0.0025839048199489179 -0.0058993910952187464 0.013082013012603146 -0.0052009977772148374 0.0090512020264379121 0.0036626357947246468 0.0051569670797431506
leaf_weight=12.999999999999998 15.999999999999998 20 12.000000000000002 19 12.999999999999998 12.999999999999998 14.999999999999998 13.999999999999998
leaf_count=13 16 20 12 19 13 13 15 14
internal_value=0 0.00193011 -0.00203694 0.00713225 0.000604532 0.00255383 -0.000509309 0.00980819
internal_weight=135 122 69 53 53 40 27 33
internal_count=135 122 69 53 53 40 27 33
is_linear=0
shrinkage=0.028


Tree=28
num_leaves=8
num_cat=0
split_feature=12 12 0 18 15 0 11
split_gain=5.75693 3.05394 1.97463 0.976034 0.960629 0.742151 0.543154
threshold=0.0018294802284799518 0.19245784729719165 5.5459570884704599 10.00979804992676 0.61483770608901989 5.5110058784484872 1.4757328629493716
decision_type=2 2 2 2 2 2 2
left_child=-1 2 -2 4 -4 -3 -7
right_child=1 5 3 -5 -6 6 -8
leaf_value=-0.017668854514302099 -0.010582317329669808 0.0025118437650505886 0.0027982109348717037 0.0054888397982210462 -0.006708071656450959 0.0063896768643962321 0.014138305092258921
leaf_weight=12.999999999999998 15.999999999999998 20 14.999999999999998 20 18 20 12.999999999999998
leaf_count=13 16 20 15 20 18 20 13
internal_value=0 0.00187679 -0.00198021 0.000586492 -0.002323 0.00693579 0.00953669
internal_weight=135 122 69 53 33 53 33
internal_count=135 122 69 53 33 53 33
is_linear=0
shrinkage=0.028


Tree=29
num_leaves=9
num_cat=0
split_feature=11 3 17 1 9 18 2 16
split_gain=5.47711 3.22784 2.21794 0.851375 0.694046 0.544606 0.374141 0.342045
threshold=1.2661454081535342 1.5000000000000002 0.064434826374053969 0.025214934721589092 0.057777607813477523 10.00979804992676 0.03835802152752877 0.8925364911556245
decision_type=2 2 2 2 2 2 2 2
left_child=1 -1 3 -2 -5 -3 7 -4
right_child=2 5 6 4 -6 -7 -8 -9
leaf_value=-0.01834942931692992 -0.005397581758069211 -0.0061368941971832805 0.002140173765183087 0.0064909386283055473 -0.0015397715490372457 0.0020174449411658759 0.011387414244196889 0.0090131880494933973
leaf_weight=15.999999999999998 17 13.000000000000002 12.000000000000002 15.999999999999998 17 11.999999999999998 19 12.999999999999998
leaf_count=16 17 13 12 16 17 12 19 13
internal_value=0 -0.0085433 0.00371112 -0.000281863 0.00229247 -0.00213955 0.00829169 0.00582081
internal_weight=135 41 94 50 33 25 44 25
internal_count=135 41 94 50 33 25 44 25
is_linear=0
shrinkage=0.028


Tree=30
num_leaves=8
num_cat=0
split_feature=13 0 12 2 13 2 19
split_gain=5.85054 2.75113 2.3717 0.975168 0.527211 0.602167 0.375614
threshold=3.4604001045227055 5.5110058784484872 0.30926588177680975 0.033923814073205001 5.0581498146057138 0.0031569509301334624 0.91985815763473522
decision_type=2 2 2 2 2 2 2
left_child=-1 3 4 -2 5 -3 -4
right_child=1 2 6 -5 -6 -7 -8
leaf_value=-0.013940877050783423 -0.008542804747359807 0.00045336025519428881 0.015448990346459435 0.001157449779797072 -0.0024611651455891917 0.0077691071334663065 0.0080448206806219315
leaf_weight=21 20 23 13.000000000000002 12.999999999999998 17 14.999999999999998 12.999999999999998
leaf_count=21 20 23 13 13 17 15 13
internal_value=-0.000375109 0.00211224 0.00490089 -0.00466022 0.00155383 0.00341023 0.0118688
internal_weight=135 114 81 33 55 38 26
internal_count=135 114 81 33 55 38 26
is_linear=0
shrinkage=0.028


Tree=31
num_leaves=9
num_cat=0
split_feature=13 0 12 2 13 6 19 22
split_gain=5.52968 2.60009 2.24187 0.92227 0.498771 0.651041 0.353164 0.27507
threshold=3.4604001045227055 5.5110058784484872 0.30926588177680975 0.033923814073205001 5.0581498146057138 1.1317499876022341 0.91985815763473522 0.056843658909201629
decision_type=2 2 2 2 2 2 2 2
left_child=-1 3 4 -2 5 -3 -4 -7
right_child=1 2 6 -5 -6 7 -8 -9
leaf_value=-0.013552014002820348 -0.0083045591382361755 0.0083921949782320478 0.015019064458867455 0.0011252394569240261 -0.0023925752502362259 -0.0023699194940904897 0.0078209434100668818 0.0034530135978252515
leaf_weight=21 20 12.999999999999998 13.000000000000002 12.999999999999998 17 12.000000000000002 12.999999999999998 12.999999999999998
leaf_count=21 20 13 13 13 17 12 13 13
internal_value=-0.000363082 0.00205462 0.00476602 -0.00452834 0.00151056 0.00331688 0.0115409 0.000570047
internal_weight=135 114 81 33 55 38 26 25
internal_count=135 114 81 33 55 38 26 25
is_linear=0
shrinkage=0.028


Tree=32
num_leaves=9
num_cat=0
split_feature=13 0 12 2 13 6 4 22
split_gain=5.22608 2.45696 2.11963 0.872259 0.471612 0.615225 0.403232 0.260141
threshold=3.4604001045227055 5.5110058784484872 0.30926588177680975 0.033923814073205001 5.0581498146057138 1.1317499876022341 -1.1064000129699705 0.062865007668733611
decision_type=2 2 2 2 2 2 2 2
left_child=-1 3 4 -2 5 -3 -4 -7
right_child=1 2 6 -5 -6 7 -8 -9
leaf_value=-0.013173997693880687 -0.0080729578081926573 0.0081586504983245777 0.014893926284364235 0.0010939253418840219 -0.0023258970242421161 -0.0020794136998121158 0.0073104725760615667 0.0035823607048056775
leaf_weight=21 20 12.999999999999998 13.000000000000002 12.999999999999998 17 13.000000000000002 12.999999999999998 11.999999999999998
leaf_count=21 20 13 13 13 17 13 13 12
internal_value=-0.000351834 0.00199809 0.00463417 -0.00440013 0.00146741 0.00322456 0.0112221 0.000551682
internal_weight=135 114 81 33 55 38 26 25
internal_count=135 114 81 33 55 38 26 25
is_linear=0
shrinkage=0.028


Tree=33
num_leaves=8
num_cat=0
split_feature=12 0 20 11 19 2 0
split_gain=5.55673 1.40201 1.27092 0.918483 1.34747 0.764285 0.264199
threshold=0.042670318856835372 5.5110058784484872 0.042575469240546233 1.3686832189559939 0.92677980661392223 0.033923814073205001 5.791004180908204
decision_type=2 2 2 2 2 2 2
left_child=2 5 -1 6 -5 -2 -3
right_child=1 3 -4 4 -6 -7 -8
leaf_value=-0.01583470373381354 -0.0054776332691601915 -0.0014558532344831137 -0.0049252752451914451 0.01277723638333729 0.0020054954967243755 0.0032859462224878373 0.0043140267036016408
leaf_weight=14.999999999999998 17.000000000000004 12.000000000000002 21 23 15.999999999999998 13.999999999999998 11.999999999999998
leaf_count=15 17 12 21 23 16 14 12
internal_value=-0.000199802 0.00336545 -0.00955799 0.00576908 0.00842853 -0.00144954 0.00134081
internal_weight=130 94 36 63 39 31 24
internal_count=130 94 36 63 39 31 24
is_linear=0
shrinkage=0.028


Tree=34
num_leaves=8
num_cat=0
split_feature=12 0 20 14 2 20 11
split_gain=5.25333 1.32504 1.19968 1.02994 0.722519 0.670449 0.998525
threshold=0.042670318856835372 5.5110058784484872 0.042575469240546233 0.02392208389937878 0.033923814073205001 0.042049083858728416 1.4757328629493716
decision_type=2 2 2 2 2 2 2
left_child=2 4 -1 -3 -2 -5 -7
right_child=1 3 -4 5 -6 6 -8
leaf_value=-0.015393683959223548 -0.0053249780486841671 -0.0012599459808171707 -0.0047878908858593888 0.013331966201595912 0.0031944625081113454 0.0017015724035441566 0.011123608994072881
leaf_weight=14.999999999999998 17.000000000000004 12.999999999999998 21 11.999999999999998 13.999999999999998 23 14.999999999999998
leaf_count=15 17 13 21 12 14 23 15
internal_value=-0.000193817 0.00327226 -0.00929339 0.00560917 -0.0014071 0.00743903 0.00549518
internal_weight=130 94 36 63 31 50 38
internal_count=130 94 36 63 31 50 38
is_linear=0
shrinkage=0.028


Tree=35
num_leaves=9
num_cat=0
split_feature=2 17 0 10 5 3 3 17
split_gain=4.38573 2.45544 1.62656 0.869318 0.820507 1.06949 0.806533 0.310843
threshold=0.0015543646877631547 0.049513949081301696 5.5110058784484872 0.053862189874053008 3.6173499822616582 293.00000000000006 30.000000000000004 0.068044170737266554
decision_type=2 2 2 2 2 2 2 2
left_child=1 -1 3 -2 -4 -6 -3 -8
right_child=2 6 4 -5 5 -7 7 -9
leaf_value=-0.015559312419641525 -0.0072033997700851849 -0.0083014800659078642 0.01306419167000037 0.0031550774056156843 0.00055601953072608378 0.0100134878130477 -0.0027029032734352224 0.0034993243174633116
leaf_weight=15.999999999999998 12.000000000000002 11.999999999999998 12.999999999999998 12.999999999999998 22 17 12.000000000000002 12.999999999999998
leaf_count=16 12 12 13 13 22 17 12 13
internal_value=-0.000187863 -0.00639781 0.00405966 -0.00173479 0.00688685 0.00474788 -0.00235064 0.000433815
internal_weight=130 53 77 25 52 39 37 25
internal_count=130 53 77 25 52 39 37 25
is_linear=0
shrinkage=0.028


Tree=36
num_leaves=9
num_cat=0
split_feature=12 10 12 23 22 0 22 11
split_gain=4.56504 2.10049 1.353 0.696824 0.647409 0.541943 0.40519 0.251889
threshold=0.042670318856835372 0.042593633756041534 0.26480448246002203 23.470000267028812 0.038450468331575401 5.5664324760437021 0.039711868390440948 1.469269931316376
decision_type=2 2 2 2 2 2 2 2
left_child=1 4 3 -2 -1 -4 -5 -7
right_child=2 -3 5 6 -6 7 -8 -9
leaf_value=-0.0084786796795669923 -0.0058591914453090879 0.00065495342954947683 0.0028964011071256593 -0.0011238688420817521 -0.017912659523502881 0.0059029099963126917 0.0048185645100034657 0.01201570968954206
leaf_weight=14.000000000000002 12.999999999999998 12.999999999999998 22 18 11.999999999999998 13.000000000000002 17 12.999999999999998
leaf_count=14 13 13 22 18 12 13 17 13
internal_value=-0.000289062 -0.00837252 0.00297576 -0.00030484 -0.0129603 0.00629801 0.00170301 0.00907268
internal_weight=135 39 96 48 26 48 35 26
internal_count=135 39 96 48 26 48 35 26
is_linear=0
shrinkage=0.028


Tree=37
num_leaves=8
num_cat=0
split_feature=12 15 12 23 0 22 11
split_gain=4.31502 2.03779 1.28021 0.658306 0.511692 0.383183 0.236662
threshold=0.042670318856835372 1.0102582573890688 0.26480448246002203 23.470000267028812 5.5664324760437021 0.039711868390440948 1.469269931316376
decision_type=2 2 2 2 2 2 2
left_child=1 -1 3 -2 -4 -5 -6
right_child=2 -3 4 5 6 -7 -8
leaf_value=-0.001759079467994996 -0.00569613752931083 -0.014702921183947748 0.0028155956468038749 -0.0010925397962101005 0.0057386395209767941 0.0046842766285675481 0.011681327407923313
leaf_weight=20 12.999999999999998 19 22 18 13.000000000000002 17 12.999999999999998
leaf_count=20 13 19 22 18 13 17 13
internal_value=-0.000280158 -0.00813956 0.00289353 -0.000296405 0.00612524 0.00165377 0.00882259
internal_weight=135 39 96 48 48 35 26
internal_count=135 39 96 48 48 35 26
is_linear=0
shrinkage=0.028


Tree=38
num_leaves=10
num_cat=0
split_feature=12 10 12 9 23 11 2 16 9
split_gain=4.07956 1.93344 1.21138 0.84529 0.62191 0.500941 0.590565 0.354484 0.0792153
threshold=0.042670318856835372 0.042593633756041534 0.26480448246002203 0.044815607368946082 23.470000267028812 1.5121251940727236 0.042215833440423019 0.92390003800392162 0.07528292760252954
decision_type=2 2 2 2 2 2 2 2 2
left_child=1 3 4 -1 -2 6 -4 -6 -7
right_child=2 -3 5 -5 7 8 -8 -9 -10
leaf_value=-0.0064918205075903427 -0.0055376212401856703 0.00074109695127250945 -0.0012941524306410883 -0.017085182458437473 0.0050617014252559538 0.0066277566564990967 0.0073407896876285803 -0.00060215855850723253 0.010850957277348104
leaf_weight=12.000000000000002 12.999999999999998 12.999999999999998 12.000000000000002 13.999999999999998 13.999999999999998 12.000000000000002 11.999999999999998 21 11.999999999999998
leaf_count=12 13 13 12 14 14 12 12 21 12
internal_value=-0.000271821 -0.0079142 0.00281359 -0.0123167 -0.000288204 0.00595728 0.00294034 0.00160591 0.00886141
internal_weight=135 39 96 26 48 48 24 35 24
internal_count=135 39 96 26 48 48 24 35 24
is_linear=0
shrinkage=0.028


Tree=39
num_leaves=9
num_cat=0
split_feature=8 0 10 22 11 0 11 18
split_gain=3.26595 1.78695 1.06729 0.868534 0.809487 0.638505 0.319068 0.218643
threshold=0.52867847681045543 5.5562388896942148 0.046578641980886466 0.040527991950511939 1.5448960661888125 5.9013950824737558 1.4757328629493716 10.010861873626711
decision_type=2 2 2 2 2 2 2 2
left_child=3 4 5 -1 7 -3 -4 -2
right_child=1 2 6 -5 -6 -7 -8 -9
leaf_value=-0.0036725435036800264 -0.0084605768158143701 -0.0013667760498794741 0.0054595584617557003 -0.013842697499268647 0.0016679863227072403 0.005914754687998426 0.011421990153486612 -0.002716984586625218
leaf_weight=15.000000000000002 12.000000000000002 22 15.999999999999998 12.999999999999998 22 15.999999999999998 17 11.999999999999998
leaf_count=15 12 22 16 13 22 16 17 12
internal_value=5.98834e-05 0.00213198 0.00492471 -0.00850016 -0.00213099 0.00164629 0.00861902 -0.00570037
internal_weight=145 117 71 28 46 38 33 24
internal_count=145 117 71 28 46 38 33 24
is_linear=0
shrinkage=0.028


Tree=40
num_leaves=10
num_cat=0
split_feature=8 0 4 1 3 13 9 2 16
split_gain=3.09702 1.53748 1.28273 0.918895 0.873813 0.527248 0.229738 0.214267 0.206992
threshold=0.58698740601539623 5.5562388896942148 -0.40230000019073481 0.057321963831782348 326.00000000000006 5.2823998928070077 0.090979527682065978 0.033923814073205001 0.93802598118782055
decision_type=2 2 2 2 2 2 2 2 2
left_child=2 4 -1 8 7 6 -5 -2 -3
right_child=1 3 -4 5 -6 -7 -8 -9 -10
leaf_value=-0.0010601804492656481 -0.0065407327949107601 0.003817508572350187 -0.012545169933311709 0.0022678827115723325 0.0041886635513617354 0.012377410325799879 0.0077718457340855496 -0.0015925208161034709 -0.00090527897560205631
leaf_weight=13.999999999999998 17.000000000000004 12.000000000000002 18 13.000000000000002 12.999999999999998 12.999999999999998 13.999999999999998 13.999999999999998 17
leaf_count=14 17 12 18 13 13 13 14 14 17
internal_value=5.72557e-05 0.00225089 -0.00760549 0.00486568 -0.00180015 0.00762146 0.00521904 -0.00438798 0.000977075
internal_weight=145 113 32 69 44 40 27 31 29
internal_count=145 113 32 69 44 40 27 31 29
is_linear=0
shrinkage=0.028


Tree=41
num_leaves=9
num_cat=0
split_feature=8 0 4 3 10 0 11 25
split_gain=2.9284 1.4542 1.21103 0.826504 0.780095 0.504319 0.369836 0.223101
threshold=0.58698740601539623 5.5562388896942148 -0.40230000019073481 326.00000000000006 0.046578641980886466 5.9013950824737558 1.4757328629493716 772.51498413085949
decision_type=2 2 2 2 2 2 2 2
left_child=2 3 -1 7 5 -3 -6 -2
right_child=1 4 -4 -5 6 -7 -8 -9
leaf_value=-0.0010306639159098267 -0.0012416864302613134 -0.00088589208129178417 -0.0121954594752298 0.004072098308815322 0.0044501491425959121 0.0056288082964755411 0.010872790159504923 -0.006314131332701485
leaf_weight=13.999999999999998 13.000000000000002 21 18 12.999999999999998 14.999999999999998 15.999999999999998 17 18
leaf_count=14 13 21 18 13 15 16 17 18
internal_value=5.53403e-05 0.00218884 -0.00739544 -0.00174995 0.00473208 0.00187693 0.00795061 -0.00426772
internal_weight=145 113 32 44 69 37 32 31
internal_count=145 113 32 44 69 37 32 31
is_linear=0
shrinkage=0.028


Tree=42
num_leaves=9
num_cat=0
split_feature=1 2 22 20 25 21 16 2
split_gain=2.75587 0.968864 1.11823 1.35934 0.927438 0.721299 0.476651 0.328276
threshold=0.0087117594666779059 0.042215833440423019 0.03573258966207505 0.044859664514660842 772.51498413085949 0.047645116224884994 1.0298649072647097 1.0000000180025095e-35
decision_type=2 2 2 2 2 2 2 2
left_child=-1 2 4 -4 -2 -3 7 -5
right_child=1 5 3 6 -6 -7 -8 -9
leaf_value=-0.010310327102323023 0.010252944970466442 0 -0.0096384593893474937 0.0057810425450161868 0 0.0084149366486885088 -0.0038792941078385559 -0.00020757484591718933
leaf_weight=18 12.000000000000002 11.999999999999998 14.999999999999998 12.000000000000002 17 22 14.999999999999998 15.999999999999998
leaf_count=18 12 12 15 12 17 22 15 16
internal_value=-9.85288e-05 0.00140789 -0.000134552 -0.00240342 0.00432028 0.0054115 8.16489e-05 0.00228836
internal_weight=139 121 87 58 29 34 43 28
internal_count=139 121 87 58 29 34 43 28
is_linear=0
shrinkage=0.028


Tree=43
num_leaves=10
num_cat=0
split_feature=11 3 2 23 7 23 8 16 15
split_gain=2.81394 1.74235 1.21002 0.839488 0.659631 0.465542 0.458428 0.211385 0.185095
threshold=1.2661454081535342 1.5000000000000002 0.042215833440423019 20.575000762939457 1.1030499935150149 58.979999542236335 0.90129873156547557 0.94642716646194469 0.31777074933052069
decision_type=2 2 2 2 2 2 2 2 2
left_child=1 -1 3 -2 -3 6 -5 -8 -4
right_child=2 4 8 5 -6 -7 7 -9 -10
leaf_value=-0.013276883000313348 0.0071671659239623334 0.0017735456331465084 0.0097165723443821805 -0.0039390070464289341 -0.0067141566291599479 -0.0053763832004148178 0.00021848527911250086 0.0053654832601430051 0.0047121589105279943
leaf_weight=15.999999999999998 11.999999999999998 17.000000000000004 15.000000000000002 11.999999999999998 11.999999999999998 13.999999999999998 15.000000000000002 11.999999999999998 13.999999999999998
leaf_count=16 12 17 15 12 12 14 15 12 14
internal_value=-9.56827e-05 -0.00586307 0.00264413 0.000482583 -0.00167039 -0.000997228 0.000525245 0.00259785 0.00739729
internal_weight=139 45 94 65 29 53 39 27 29
internal_count=139 45 94 65 29 53 39 27 29
is_linear=0
shrinkage=0.028


Tree=44
num_leaves=10
num_cat=0
split_feature=11 3 25 2 25 0 15 21 13
split_gain=2.66029 1.64631 1.16395 1.14624 0.971598 0.478335 0.476244 0.211043 0.152476
threshold=1.2661454081535342 1.5000000000000002 772.51498413085949 0.042215833440423019 571.50000000000011 5.5664324760437021 0.67168414592742931 0.052289836108684547 4.8059499263763437
decision_type=2 2 2 2 2 2 2 2 2
left_child=1 -1 5 6 -3 -2 7 -4 -7
right_child=2 4 3 -5 -6 8 -8 -9 -10
leaf_value=-0.012906979794155306 0.0020249842542283867 -0.0077427890653049688 0.0018218935951331147 0.0073261443644465993 0.002583711195981405 0.010785398258209591 -0.0069021937561417933 -0.0031223432475651629 0.0058004313432113109
leaf_weight=15.999999999999998 15.999999999999998 12.000000000000002 15.000000000000002 11.999999999999998 17 13.000000000000002 12.999999999999998 11.999999999999998 12.999999999999998
leaf_count=16 16 12 15 12 17 13 13 12 13
internal_value=-9.16563e-05 -0.00569981 0.00257185 -0.000187877 -0.00162184 0.00603575 -0.00250809 -0.000295559 0.00840424
internal_weight=139 45 94 52 29 42 40 27 26
internal_count=139 45 94 52 29 42 40 27 26
is_linear=0
shrinkage=0.028


Tree=45
num_leaves=8
num_cat=0
split_feature=12 12 25 10 9 5 4
split_gain=2.63099 1.33429 0.855612 0.466179 0.583919 0.345554 0.328256
threshold=0.0096026053652167338 0.32062961161136633 393.50000000000006 0.050352891907095916 0.12798770517110827 3.8999999761581425 -0.89159998297691334
decision_type=2 2 2 2 2 2 2
left_child=-1 2 -2 4 6 -3 -4
right_child=1 5 3 -5 -6 -7 -8
leaf_value=-0.010145914824630044 -0.0065541204101052771 0.0095821014707484706 0.004579595105158628 0.0041668702656862096 -0.0060760548612170708 0.0034102610573172572 -0.00096660870055843514
leaf_weight=18 14.999999999999998 13.999999999999998 12.999999999999995 22 11.999999999999998 18 22.000000000000004
leaf_count=18 15 14 13 22 12 18 22
internal_value=-0.000196126 0.00133444 -0.000495623 0.00079508 -0.000740025 0.00619743 0.0010353
internal_weight=134 116 84 69 47 32 35
internal_count=134 116 84 69 47 32 35
is_linear=0
shrinkage=0.028


Tree=46
num_leaves=8
num_cat=0
split_feature=8 0 12 10 8 1 0
split_gain=3.10276 1.48717 1.20157 1.1215 0.514508 0.492111 0.34922
threshold=0.35997499525547033 5.5664324760437021 0.32062961161136633 0.034654160961508758 1.2098638415336611 0.035527821630239494 5.3356125354766855
decision_type=2 2 2 2 2 2 2
left_child=-1 2 6 -3 5 -5 -2
right_child=1 3 -4 4 -6 -7 -8
leaf_value=-0.013159881514693619 -0.0095168390590574178 -0.0021916070743999653 0.0036599781059692455 0.0075893695573194314 0.0091450068587707236 0.0003940038587156082 -0.0032535064339998272
leaf_weight=12.999999999999998 11.999999999999998 18 15.999999999999998 12.999999999999998 22 19 21
leaf_count=13 12 18 16 13 22 19 21
internal_value=-0.000190201 0.00119251 -0.00254065 0.00376421 0.0057912 0.00339858 -0.0056163
internal_weight=134 121 49 72 54 32 33
internal_count=134 121 49 72 54 32 33
is_linear=0
shrinkage=0.028


Tree=47
num_leaves=8
num_cat=0
split_feature=1 0 12 12 1 13 19
split_gain=2.95341 1.03824 0.890045 0.833257 0.65484 0.404096 0.31298
threshold=0.019577548839151863 5.5664324760437021 0.32062961161136633 0.19245784729719165 0.05406607314944268 3.3212499618530278 0.92677980661392223
decision_type=2 2 2 2 2 2 2
left_child=5 2 -2 4 -3 -1 -5
right_child=1 3 -4 6 -6 -7 -8
leaf_value=-0.011078752545174212 -0.0050640382915431558 0.0043575568472015791 0.0035580086860184873 0.010659412094127773 -0.0037712621380951231 -0.0045419735601283165 0.0043660026409802809
leaf_weight=13.999999999999998 22 21 15.999999999999998 16.000000000000004 11.999999999999998 20 12.999999999999998
leaf_count=14 22 21 16 16 12 20 13
internal_value=-0.00018453 0.00222272 -0.00137503 0.00446281 0.00133194 -0.007319 0.00793503
internal_weight=134 100 38 62 33 34 29
internal_count=134 100 38 62 33 34 29
is_linear=0
shrinkage=0.028


Tree=48
num_leaves=9
num_cat=0
split_feature=13 0 11 0 14 2 9 0
split_gain=3.0208 1.7795 1.07389 0.721478 0.669136 0.421142 0.328347 0.426994
threshold=3.2563999891281132 5.5562388896942148 1.5121251940727236 5.7021131515502939 0.024352638982236389 0.033923814073205001 0.047412009909749038 5.8596434593200692
decision_type=2 2 2 2 2 2 2 2
left_child=-1 2 -2 -3 -5 -4 -6 -8
right_child=1 3 5 4 6 -7 7 -9
leaf_value=-0.012767868724189058 -0.0067177362871683969 0.0091065954783508384 -0.0017583252102897047 -0.0019359943096836411 0.00053336598884486987 0.0054136545806136348 0.0018150282840410994 0.0088435892497093684
leaf_weight=11.999999999999998 23 20 13.000000000000002 15.999999999999998 11.999999999999998 11.999999999999998 12.000000000000002 19
leaf_count=12 23 20 13 16 12 12 12 19
internal_value=0.000589235 0.00187619 -0.00234291 0.0044678 0.00284722 0.0016012 0.0046793 0.0062066
internal_weight=139 127 48 79 59 25 43 31
internal_count=139 127 48 79 59 25 43 31
is_linear=0
shrinkage=0.028


Tree=49
num_leaves=9
num_cat=0
split_feature=12 0 11 14 2 22 10 21
split_gain=2.86526 1.5911 0.890233 0.617538 0.398284 0.340368 0.510356 0.11666
threshold=0.0018294802284799518 5.5562388896942148 1.5121251940727236 0.024352638982236389 0.033923814073205001 0.036479303613305099 0.050352891907095916 0.065238751471042647
decision_type=2 2 2 2 2 2 2 2
left_child=-1 2 -2 -3 -4 -5 -7 -8
right_child=1 3 4 5 -6 6 7 -9
leaf_value=-0.011379585521634331 -0.0060175757817342961 0 -0.0017093934073883308 0.010228816065369852 0.0052630761436476617 0.00066481332047308079 0.0043635468644934962 0.0085850002672828614
leaf_weight=13.999999999999998 23 19 13.000000000000002 11.999999999999998 11.999999999999998 17 12.000000000000002 17
leaf_count=14 23 19 13 12 12 17 12 17
internal_value=0.000572777 0.00193577 -0.00203133 0.00443738 0.00155419 0.00587091 0.00466967 0.00693203
internal_weight=139 125 48 77 25 58 46 29
internal_count=139 125 48 77 25 58 46 29
is_linear=0
shrinkage=0.028


Tree=50
num_leaves=9
num_cat=0
split_feature=13 0 11 0 14 7 0 12
split_gain=2.72222 1.59638 0.958873 0.672343 0.606931 0.500758 0.45292 0.285771
threshold=3.2563999891281132 5.5562388896942148 1.5121251940727236 5.7021131515502939 0.024352638982236389 1.1557499766349795 5.9344971179962167 0.44563503563404089
decision_type=2 2 2 2 2 2 2 2
left_child=-1 2 -2 -3 -5 6 -6 -4
right_child=1 3 7 4 5 -7 -8 -9
leaf_value=-0.012121074415595326 -0.0063493735046485896 0.0087134222725315392 -0.0014652612966220108 -0.0018820560835116538 -0.0013961415900742972 0.0083734909699330895 0.0057514458218481199 0.0044169171459984254
leaf_weight=11.999999999999998 23 20 12.000000000000002 15.999999999999998 14.000000000000002 15.999999999999998 12.999999999999998 12.999999999999998
leaf_count=12 23 20 12 16 14 16 13 13
internal_value=0.000557563 0.00178005 -0.00221445 0.00423519 0.00266949 0.00441544 0.0019694 0.00150849
internal_weight=139 127 48 79 59 43 27 25
internal_count=139 127 48 79 59 43 27 25
is_linear=0
shrinkage=0.028


Tree=51
num_leaves=9
num_cat=0
split_feature=3 0 13 8 5 12 13 13
split_gain=2.02213 1.6127 0.828064 0.772981 0.587893 0.698381 0.36772 0.355488
threshold=1.5000000000000002 5.5562388896942148 5.0059998035430917 0.37518800795078283 3.4953500032424931 0.19245784729719165 5.0581498146057138 5.2179000377655038
decision_type=2 2 2 2 2 2 2 2
left_child=3 2 -2 -1 -3 6 -6 -7
right_child=1 4 -4 -5 5 7 -8 -9
leaf_value=-0.011887866049708906 -0.0059273934302596538 0.0097148347790353001 0.0015185872964138098 -0.0019734563251893799 0.0026774888502211227 0.0034954708125303261 -0.0034297670874719982 0.010207718399384164
leaf_weight=12.000000000000002 23 13.999999999999998 23 13.999999999999998 21 16.000000000000004 11.999999999999998 11.999999999999998
leaf_count=12 23 14 23 14 21 16 12 12
internal_value=0.00039546 0.0019329 -0.00215962 -0.00665766 0.00447244 0.00322145 0.00038603 0.00647281
internal_weight=147 121 46 26 75 61 33 28
internal_count=147 121 46 26 75 61 33 28
is_linear=0
shrinkage=0.028


Tree=52
num_leaves=8
num_cat=0
split_feature=3 0 6 13 8 18 15
split_gain=1.91281 1.52452 0.815202 0.782833 0.729558 0.628353 0.444011
threshold=1.5000000000000002 5.5562388896942148 0.93310001492500316 5.0059998035430917 0.37518800795078283 10.010861873626711 0.53192517161369335
decision_type=2 2 2 2 2 2 2
left_child=4 3 -3 -2 -1 6 -4
right_child=1 2 5 -5 -6 -7 -8
leaf_value=-0.011557210379434338 -0.0057620018472962818 -0.0013631372113640493 0.0071304568686201926 0.001476214241417225 -0.0019185135539367118 0.0099286605468223571 0.0010279729370886472
leaf_weight=12.000000000000002 23 14.999999999999998 17 23 13.999999999999998 20 23
leaf_count=12 23 15 17 23 14 20 23
internal_value=0.000384454 0.00188016 0.00434956 -0.002098 -0.00647484 0.00581494 0.00368647
internal_weight=147 121 75 46 26 60 40
internal_count=147 121 75 46 26 60 40
is_linear=0
shrinkage=0.028


Tree=53
num_leaves=9
num_cat=0
split_feature=3 0 6 13 8 24 19 21
split_gain=1.80917 1.44073 0.771513 0.740081 0.688545 0.446715 0.85044 0.237841
threshold=1.5000000000000002 5.5562388896942148 0.93310001492500316 5.0059998035430917 0.37518800795078283 89.315002441406264 0.89637643098831188 0.049799649044871337
decision_type=2 2 2 2 2 2 2 2
left_child=4 3 -3 -2 -1 6 -4 -8
right_child=1 2 5 -5 -6 -7 7 -9
leaf_value=-0.011235751508482241 -0.0056012247623795034 -0.0013251717416199039 0.0093930972831493074 0.0014350234304185137 -0.0018651001839475197 0.0091515004587660286 -0.0020342125041003254 0.0032714140721998939
leaf_weight=12.000000000000002 23 14.999999999999998 13.999999999999998 23 13.999999999999998 20 12.000000000000002 13.999999999999998
leaf_count=12 23 15 14 23 14 20 12 14
internal_value=0.000373247 0.00182826 0.00422911 -0.00203811 -0.0062971 0.00565488 0.0038359 0.000738045
internal_weight=147 121 75 46 26 60 40 26
internal_count=147 121 75 46 26 60 40 26
is_linear=0
shrinkage=0.028


Tree=54
num_leaves=8
num_cat=0
split_feature=12 15 0 12 17 4 7
split_gain=2.91904 0.795695 0.616291 0.70151 0.579208 0.376447 0.288208
threshold=0.027979306876659397 1.0102582573890688 5.9344971179962167 0.19245784729719165 0.064434826374053969 -0.42855000495910639 1.1600499749183657
decision_type=2 2 2 2 2 2 2
left_child=1 -1 3 5 -5 -2 -6
right_child=2 -3 -4 4 6 -7 -8
leaf_value=-0.0025872333250279082 -0.0047468793136331271 -0.012184638331370866 0.0064982497134353544 -0.0018459342370430629 0.0025065651406604517 0.0013182953457356594 0.0077957251332885598
leaf_weight=13.000000000000002 19 15.999999999999998 20 12.999999999999998 20 12.999999999999998 15.999999999999998
leaf_count=13 19 16 20 13 20 13 16
internal_value=-0.000144757 -0.00797834 0.00208686 0.000964666 0.00308766 -0.00221593 0.00493146
internal_weight=130 29 101 81 49 32 36
internal_count=130 29 101 81 49 32 36
is_linear=0
shrinkage=0.028


Tree=55
num_leaves=8
num_cat=0
split_feature=1 15 3 19 11 11 15
split_gain=2.74202 0.790371 0.598663 0.691008 0.370316 0.614153 0.288362
threshold=0.021973320282995704 1.0102582573890688 293.00000000000006 0.92677980661392223 1.3881925344467165 1.5051823258399966 0.49799290299415594
decision_type=2 2 2 2 2 2 2
left_child=1 -1 4 -4 6 -6 -2
right_child=2 -3 3 -5 5 -7 -8
leaf_value=-0.002483711118259551 -0.0051257344599788552 -0.011845165747000064 0.0090569798118266907 0.0012298823134951383 0.0064042086769914739 -0.0013701806488577821 0.00025726320302907926
leaf_weight=14.000000000000002 11.999999999999998 15.999999999999998 17 20 16.000000000000004 14.999999999999998 20
leaf_count=14 12 16 17 20 16 15 20
internal_value=-0.000140278 -0.00756918 0.00207028 0.00489831 0.000369758 0.00257649 -0.00169928
internal_weight=130 30 100 37 63 31 32
internal_count=130 30 100 37 63 31 32
is_linear=0
shrinkage=0.028


Tree=56
num_leaves=8
num_cat=0
split_feature=12 15 0 12 17 4 7
split_gain=2.61412 0.706118 0.569704 0.636085 0.535881 0.348461 0.268083
threshold=0.027979306876659397 1.0102582573890688 5.9344971179962167 0.19245784729719165 0.064434826374053969 -0.42855000495910639 1.1600499749183657
decision_type=2 2 2 2 2 2 2
left_child=1 -1 3 5 -5 -2 -6
right_child=2 -3 -4 4 6 -7 -8
leaf_value=-0.002457850423746881 -0.0045680490520702719 -0.011515151276220732 0.0062164146815949827 -0.0018241818574362574 0.0023495827314640541 0.0012632073841829549 0.0074552631623190447
leaf_weight=13.000000000000002 19 15.999999999999998 20 12.999999999999998 20 12.999999999999998 15.999999999999998
leaf_count=13 19 16 20 13 20 13 16
internal_value=-0.000135935 -0.00754994 0.00197497 0.000894972 0.00291768 -0.00213203 0.00469236
internal_weight=130 29 101 81 49 32 36
internal_count=130 29 101 81 49 32 36
is_linear=0
shrinkage=0.028


Tree=57
num_leaves=8
num_cat=0
split_feature=15 20 0 0 15 9 8
split_gain=2.9507 1.67458 0.944582 0.37567 0.395829 0.302814 0.270943
threshold=0.7326129972934724 0.039911795407533653 5.4585182666778573 5.9344971179962167 0.30517323315143591 0.1228233575820923 0.70767197012901317
decision_type=2 2 2 2 2 2 2
left_child=2 -2 -1 4 -4 -6 -3
right_child=1 6 3 -5 5 -7 -8
leaf_value=-0.0016761101449205393 -0.011901765524514657 -0.0037782868710930367 0.0066291440378245421 0.008956223755561073 -0.0011814652763168754 0.0045622954665019604 0.0018665202047607494
leaf_weight=22 19 13.000000000000002 21 14.999999999999998 15.000000000000002 12.999999999999998 12.999999999999998
leaf_count=22 19 13 21 15 15 13 13
internal_value=0.000193168 -0.00559209 0.00324875 0.0049766 0.0037001 0.00141091 -0.000872926
internal_weight=131 45 86 64 49 28 26
internal_count=131 45 86 64 49 28 26
is_linear=0
shrinkage=0.028


Tree=58
num_leaves=8
num_cat=0
split_feature=15 17 0 6 16 18 16
split_gain=2.78854 1.4386 0.893428 0.356043 0.294315 0.292803 0.271951
threshold=0.7326129972934724 0.056347610428929336 5.4585182666778573 1.2667499780654909 0.88307443261146557 10.007497787475588 0.92863172292709362
decision_type=2 2 2 2 2 2 2
left_child=2 -2 -1 5 -3 -4 -5
right_child=1 4 3 6 -6 -7 -8
leaf_value=-0.0016293491889061273 -0.011288095586915625 0.0018040194032480227 0.0057510999861751476 0.0040018531082763311 -0.0040736757300178939 0.00011191058429205314 0.0094706676748932388
leaf_weight=22 19 13.000000000000002 13.000000000000002 15.999999999999998 12.999999999999998 18 17
leaf_count=22 19 13 13 16 13 18 17
internal_value=0.00018734 -0.0054362 0.00315823 0.0048389 -0.00105242 0.00255752 0.00690293
internal_weight=131 45 86 64 26 31 33
internal_count=131 45 86 64 26 31 33
is_linear=0
shrinkage=0.028


Tree=59
num_leaves=8
num_cat=0
split_feature=15 20 0 0 15 8 0
split_gain=2.63624 1.54253 0.845597 0.356343 0.36648 0.335779 0.227667
threshold=0.7326129972934724 0.044859664514660842 5.4585182666778573 5.9344971179962167 0.30517323315143591 0.63958585262298595 5.6425998210906991
decision_type=2 2 2 2 2 2 2
left_child=2 -2 -1 4 -4 -3 -6
right_child=1 5 3 -5 6 -7 -8
leaf_value=-0.0015838927269737791 -0.010815106900737566 -0.0037146116250891545 0.0062806999541578758 0.0085810749185239454 0.0039946750064326344 0.0028660937288146936 -0.00097243079796077725
leaf_weight=22 21 12.000000000000002 21 14.999999999999998 13.000000000000002 11.999999999999998 14.999999999999998
leaf_count=22 21 12 21 15 13 12 15
internal_value=0.000182644 -0.00528466 0.00307172 0.00470702 0.00346339 -0.000332645 0.00125876
internal_weight=131 45 86 64 49 24 28
internal_count=131 45 86 64 49 24 28
is_linear=0
shrinkage=0.028


Tree=60
num_leaves=8
num_cat=0
split_feature=3 5 3 4 13 0 15
split_gain=1.34594 0.793663 0.880592 0.673976 0.388842 0.21905 0.127534
threshold=1.5000000000000002 3.3711498975753789 293.00000000000006 -0.62835001945495594 4.8059499263763437 5.7330143451690683 0.86616572737693798
decision_type=2 2 2 2 2 2 2
left_child=-1 -2 4 5 -3 -4 -6
right_child=1 2 3 -5 6 -7 -8
leaf_value=-0.0053168663592941326 0.0083584445852955633 0.0013785362610714915 0.0041674479718465307 -0.00067030725110926032 -0.0053429926655573917 0.0099072242792671086 -0.0011696930372014347
leaf_weight=23 13.999999999999998 22 13.000000000000002 12.999999999999998 15.000000000000002 11.999999999999998 11.999999999999998
leaf_count=23 14 22 13 13 15 12 12
internal_value=0.0007567 0.00216506 0.00113594 0.00434406 -0.00130938 0.00703467 -0.00357985
internal_weight=124 101 87 38 49 25 27
internal_count=124 101 87 38 49 25 27
is_linear=0
shrinkage=0.028


Tree=61
num_leaves=7
num_cat=0
split_feature=3 5 3 19 7 7
split_gain=1.27205 0.749904 0.832454 0.642415 0.421537 0.68048
threshold=1.5000000000000002 3.3711498975753789 293.00000000000006 0.92313212156295787 0.96004998683929454 1.4100500345230105
decision_type=2 2 2 2 2 2
left_child=-1 -2 4 -4 -3 -6
right_child=1 2 3 -5 5 -7
leaf_value=-0.0051685101319640311 0.0081257377884943385 0.0029527373881241595 0.0087392621637971714 0.001160832256511293 -0.0061308715198351606 0.0015690131005621085
leaf_weight=23 13.999999999999998 12.999999999999998 14.999999999999998 23 21 14.999999999999998
leaf_count=23 14 13 15 23 21 15
internal_value=0.000735211 0.00210481 0.00110363 0.00422322 -0.00127295 -0.00286414
internal_weight=124 101 87 38 49 36
internal_count=124 101 87 38 49 36
is_linear=0
shrinkage=0.028


Tree=62
num_leaves=8
num_cat=0
split_feature=14 16 0 11 18 2 21
split_gain=1.08048 1.56094 0.84396 1.04772 0.710512 0.527472 0.662648
threshold=0.024352638982236389 0.93802598118782055 5.994802951812745 1.2661454081535342 10.00624465942383 0.042215833440423019 0.06360895931720735
decision_type=2 2 2 2 2 2 2
left_child=1 -1 3 -2 -5 6 -6
right_child=2 -3 -4 4 5 -7 -8
leaf_value=-0.011183891581126489 -0.0050928443488283239 0.0023943547047105039 0.0090339106527829397 0.0069270186922468771 0.0018409892103560541 0.0055201332806994064 -0.0060756354768068416
leaf_weight=13.000000000000002 17 12.999999999999998 11.999999999999998 21 22 12.999999999999998 12.999999999999998
leaf_count=13 17 13 12 21 22 13 13
internal_value=0.000715839 -0.00432236 0.00207778 0.00107364 0.00262948 0.000694323 -0.00104277
internal_weight=124 26 98 86 69 48 35
internal_count=124 26 98 86 69 48 35
is_linear=0
shrinkage=0.028


Tree=63
num_leaves=10
num_cat=0
split_feature=11 19 0 0 2 5 3 22 22
split_gain=2.2125 1.04522 1.14804 0.611938 0.527798 0.53222 0.494308 0.349784 0.0764793
threshold=1.2661454081535342 0.87726008892059337 5.7535235881805429 5.9344971179962167 0.042215833440423019 3.8999999761581425 270.50000000000006 0.065332751721143736 0.051628792658448226
decision_type=2 2 2 2 2 2 2 2 2
left_child=1 -1 -3 4 5 7 -7 -2 -6
right_child=3 2 -4 -5 8 6 -8 -9 -10
leaf_value=-0.012168502976168069 0.0062219110525382499 -0.0084296245185152552 0.0032771347498214295 0.0085992320533410105 0.0032953921177336191 -0.0061012438018382938 0.00089656536128433046 0 0.006973574618482037
leaf_weight=11.999999999999998 14.000000000000002 12.000000000000002 13.999999999999998 11.999999999999998 13.000000000000002 14.000000000000002 17 12.999999999999998 11.999999999999998
leaf_count=12 14 12 14 12 13 14 17 13 12
internal_value=0.000361197 -0.00532257 -0.00204938 0.00266083 0.00176785 0.000259094 -0.00219923 0.00316249 0.00516685
internal_weight=133 38 26 95 83 58 31 27 25
internal_count=133 38 26 95 83 58 31 27 25
is_linear=0
shrinkage=0.028


Tree=64
num_leaves=10
num_cat=0
split_feature=11 25 0 2 5 3 3 22 22
split_gain=2.09195 1.01294 0.577807 0.4993 0.502267 0.467504 0.371529 0.331007 0.0714883
threshold=1.2661454081535342 691.13500976562511 5.9344971179962167 0.042215833440423019 3.8999999761581425 270.50000000000006 9.5000000000000018 0.065332751721143736 0.051628792658448226
decision_type=2 2 2 2 2 2 2 2 2
left_child=1 -1 3 4 7 -6 -3 -2 -5
right_child=2 6 -4 8 5 -7 -8 -9 -10
leaf_value=-0.011521141327484666 0.0060486873031212847 -0.0053349996634962527 0.0083600478862221068 0.0032036854958315498 -0.005931379570541055 0.00087157918121971093 0.0013835118057317348 0 0.0067796076526310273
leaf_weight=12.999999999999998 14.000000000000002 12.000000000000002 11.999999999999998 13.000000000000002 14.000000000000002 17 12.999999999999998 12.999999999999998 11.999999999999998
leaf_count=13 14 12 12 13 14 17 13 13 12
internal_value=0.000351656 -0.00517455 0.00258819 0.0017195 0.000250932 -0.00213601 -0.00175879 0.00307243 0.00502559
internal_weight=133 38 95 83 58 31 25 27 25
internal_count=133 38 95 83 58 31 25 27 25
is_linear=0
shrinkage=0.028


Tree=65
num_leaves=10
num_cat=0
split_feature=11 19 0 0 2 18 0 15 7
split_gain=1.97795 0.969796 1.06467 0.566218 0.441767 0.429062 0.25585 0.295057 0.239094
threshold=1.2661454081535342 0.87726008892059337 5.7535235881805429 5.5562388896942148 0.045529808849096305 10.015578269958498 5.9344971179962167 0.30517323315143591 1.0879999995231631
decision_type=2 2 2 2 2 2 2 2 2
left_child=1 -1 -3 4 5 -2 7 -5 -9
right_child=3 2 -4 6 -6 -7 -8 8 -10
leaf_value=-0.011624295729082941 -0.0054299424832517443 -0.0080230257524954527 0.003251087685483402 0.0066237043924206361 0.0042855928884278013 0.00139397597219795 0.0081275169165767967 -0.00096334411661055919 0.0041039777630093423
leaf_weight=11.999999999999998 14.000000000000002 12.000000000000002 13.999999999999998 13.999999999999998 12.999999999999998 13.999999999999998 11.999999999999998 14.000000000000002 13.999999999999998
leaf_count=12 14 12 14 14 13 14 12 14 14
internal_value=0.000342404 -0.00503058 -0.00187511 0.00251758 0 -0.00194396 0.00439908 0.00326715 0.00149502
internal_weight=133 38 26 95 41 28 54 42 28
internal_count=133 38 26 95 41 28 54 42 28
is_linear=0
shrinkage=0.028


Tree=66
num_leaves=10
num_cat=0
split_feature=12 0 15 18 3 12 22 2 16
split_gain=1.04231 0.589646 0.457303 0.470784 0.473522 0.347515 0.404335 0.273664 0.201128
threshold=0.0018294802284799518 5.5562388896942148 0.23966328054666522 10.010861873626711 293.00000000000006 0.31374490261077886 0.048018258064985282 0.0011795056052505972 0.94642716646194469
decision_type=2 2 2 2 2 2 2 2 2
left_child=-1 5 -3 4 8 7 -7 -2 -4
right_child=1 2 3 -5 -6 6 -8 -9 -10
leaf_value=-0.0069696245830540259 0 0.0068066975576885512 -0.0043923890084887913 0.0052908089434731938 0.0039632568492971613 0.0048778869458203635 -0.0017901894548902936 -0.0056925556576892297 0.00030418409264664972
leaf_weight=12.999999999999998 12.000000000000002 18 15.000000000000002 19 14.999999999999998 13.000000000000002 14.999999999999998 14.999999999999998 11.999999999999998
leaf_count=13 12 18 15 19 15 13 15 15 12
internal_value=0.000548705 0.00129853 0.00285403 0.00164361 0 -0.000895982 0.00123101 -0.00318159 -0.00222757
internal_weight=147 134 79 61 42 55 28 27 27
internal_count=147 134 79 61 42 55 28 27 27
is_linear=0
shrinkage=0.028


Tree=67
num_leaves=10
num_cat=0
split_feature=12 0 0 2 4 3 11 22 18
split_gain=0.985271 0.557957 0.338303 0.333969 0.439054 0.451994 0.304743 0.573428 0.429055
threshold=0.0018294802284799518 5.5562388896942148 5.6425998210906991 0.045529808849096305 -0.42855000495910639 221.50000000000003 1.4501932263374331 0.033981248736381538 10.008860111236574
decision_type=2 2 2 2 2 2 2 2 2
left_child=-1 3 -3 4 5 -2 7 -4 -9
right_child=1 2 6 -5 -6 -7 -8 8 -10
leaf_value=-0.006775668514795624 -0.0081611130154643184 0.0069586240229530067 0.0051778350858072151 0.0023181492372370159 0.0016841583348560043 -0.00042209677378468163 0.004914062277013651 -0.0046901508771480804 0.0017168199499994889
leaf_weight=12.999999999999998 13.000000000000002 12.999999999999998 14.999999999999998 17 12.999999999999998 11.999999999999998 19 15.999999999999998 15.999999999999998
leaf_count=13 13 13 15 17 13 12 19 16 16
internal_value=0.000533318 0.00126273 0.00277605 -0.00087116 -0.00235865 -0.0045489 0.00191088 0.000642961 -0.00142055
internal_weight=147 134 79 55 38 25 66 47 32
internal_count=147 134 79 55 38 25 66 47 32
is_linear=0
shrinkage=0.028


Tree=68
num_leaves=9
num_cat=0
split_feature=3 16 14 18 22 2 4 19
split_gain=0.907448 0.804469 0.708388 0.818851 0.609645 0.540296 0.18738 0.169288
threshold=293.00000000000006 0.99100571870803844 0.024352638982236389 10.00979804992676 0.03747179917991162 0.019788141362369064 -0.42855000495910639 0.88930302858352672
decision_type=2 2 2 2 2 2 2 2
left_child=1 2 -1 7 -3 6 -2 -4
right_child=5 4 3 -5 -6 -7 -8 -9
leaf_value=-0.0072280323432138815 -0.0014883929300954599 0.0064245916788480181 -0.0066326118749905575 0.0035022606160530758 -0.00066848298868137437 0.0071236221212646325 0.0033763768597203769 -0.00170408976096902
leaf_weight=20 12.000000000000002 15.999999999999998 12.000000000000002 19 22 21 11.999999999999998 12.999999999999998
leaf_count=20 12 16 12 19 22 21 12 13
internal_value=0.000518853 -0.00092496 -0.00285529 -0.000807357 0.00226647 0.00383702 0.000854105 -0.00417271
internal_weight=147 102 64 44 38 45 24 25
internal_count=147 102 64 44 38 45 24 25
is_linear=0
shrinkage=0.028


Tree=69
num_leaves=9
num_cat=0
split_feature=13 8 0 6 23 2 5 23
split_gain=1.01748 0.807973 0.799681 0.477399 0.705653 0.307312 0.338898 0.298556
threshold=3.6721000671386723 0.35997499525547033 5.5562388896942148 0.93310001492500316 35.510000228881843 0.046260297298431403 4.2574501037597665 27.585000038146976
decision_type=2 2 2 2 2 2 2 2
left_child=1 -1 5 -4 7 6 -2 -5
right_child=2 -3 3 4 -6 -7 -8 -9
leaf_value=-0.010259772144702093 -0.00060503375337299598 -2.5260781271195188e-05 -0.0016119574852139745 0.004232490163601812 0.0085809664644108004 0.0019724135764330538 -0.0065484757998143682 -0.0011844922096722508
leaf_weight=12.000000000000002 20 12.999999999999998 11.999999999999998 17.000000000000004 20 12.999999999999998 12.999999999999998 13.999999999999998
leaf_count=12 20 13 12 17 20 13 13 14
internal_value=2.39723e-05 -0.0050442 0.00120978 0.00326897 0.004462 -0.00156259 -0.00302428 0.00171729
internal_weight=134 25 109 63 51 46 33 31
internal_count=134 25 109 63 51 46 33 31
is_linear=0
shrinkage=0.028


Tree=70
num_leaves=9
num_cat=0
split_feature=13 8 0 23 23 23 10 19
split_gain=0.96204 0.762872 0.755588 0.33575 0.444754 0.415276 0.221621 0.348966
threshold=3.6721000671386723 0.35997499525547033 5.5562388896942148 36.425001144409187 51.510000228881843 29.414999961853031 0.055519675835967071 0.92988377809524547
decision_type=2 2 2 2 2 2 2 2
left_child=1 -1 6 5 -5 -4 7 -2
right_child=2 -3 3 4 -6 -7 -8 -9
leaf_value=-0.0099744005790412 -0.0061721941092559547 -2.4557801903387821e-05 0.0038276750874516765 0.0093343528923364935 0.0015898821690607052 -0.0020881484785272839 0.0010367617647149671 0
leaf_weight=12.000000000000002 14.000000000000002 12.999999999999998 23 13.000000000000002 11.999999999999998 14.999999999999998 15.999999999999998 15.999999999999998
leaf_count=12 14 13 23 13 12 15 16 16
internal_value=2.1339e-05 -0.00490638 0.00117485 0.0031768 0.00572325 0.00143418 -0.00151909 -0.0029558
internal_weight=134 25 109 63 25 38 46 30
internal_count=134 25 109 63 25 38 46 30
is_linear=0
shrinkage=0.028


Tree=71
num_leaves=9
num_cat=0
split_feature=16 11 22 13 14 3 11 7
split_gain=0.94685 1.33238 0.80663 0.45942 0.40067 0.385093 0.28285 0.129804
threshold=0.99100571870803844 1.2661454081535342 0.03747179917991162 3.4604001045227055 0.024352638982236389 264.50000000000006 1.469269931316376 1.2093499898910525
decision_type=2 2 2 2 2 2 2 2
left_child=1 3 -2 -1 -3 7 -4 -6
right_child=2 4 6 -5 5 -7 -8 -9
leaf_value=-0.011208244263435039 0.0074297900453684828 -0.0037892699438326675 -0.002533281763131169 -0.0032651965204649105 -0.0025214742130432763 0.0045431568442933987 0.0028823365194411746 0.0014537926265439452
leaf_weight=12.000000000000002 20 12.999999999999998 15.000000000000002 12.999999999999998 13.000000000000002 21 14.999999999999998 11.999999999999998
leaf_count=12 20 13 15 13 13 21 15 12
internal_value=1.98135e-05 -0.00177875 0.00308414 -0.00719076 0.000483193 0.00174372 0.000100523 -0.000525481
internal_weight=134 84 50 25 59 46 30 25
internal_count=134 84 50 25 59 46 30 25
is_linear=0
shrinkage=0.028


Tree=72
num_leaves=10
num_cat=0
split_feature=10 25 9 13 23 24 8 2 21
split_gain=1.0321 0.914426 0.843491 0.838341 0.597921 0.42658 0.342011 0.324299 0.357896
threshold=0.045052982866764076 371.09500122070318 0.037543801590800292 4.5058500766754159 20.575000762939457 78.860000610351577 0.97182160615921032 0.042215833440423019 0.072174794971942915
decision_type=2 2 2 2 2 2 2 2 2
left_child=1 -1 -3 -4 -2 -6 -5 8 -7
right_child=4 2 3 6 5 7 -8 -9 -10
leaf_value=-0.0088611793395484972 -0.0027804151965071665 0.0059310665978797228 -0.008086171782087398 0.0033823896550192411 0.0082964899578225719 0.0036319928675964098 -0.0022019159829217024 0.0056773031059912044 -0.002339142092965563
leaf_weight=12.999999999999998 12.999999999999998 11.999999999999998 13.999999999999998 13.999999999999998 12.999999999999998 16.000000000000004 22 15.999999999999998 14.999999999999998
leaf_count=13 13 12 14 14 13 16 22 16 15
internal_value=0.000170347 -0.00211913 -0.000659798 -0.00229328 0.00255295 0.00374796 0 0.00243031 0.000672078
internal_weight=148 75 62 50 73 60 36 47 31
internal_count=148 75 62 50 73 60 36 47 31
is_linear=0
shrinkage=0.028


Tree=73
num_leaves=10
num_cat=0
split_feature=10 0 13 2 13 4 11 18 24
split_gain=0.975431 0.927536 0.511679 0.507137 0.486098 0.41162 0.661851 0.156389 0.0878792
threshold=0.045052982866764076 5.4874842166900644 4.0103499889373788 0.033923814073205001 5.0581498146057138 -0.47139999270439142 1.4757328629493716 10.008655548095705 76.444999694824233
decision_type=2 2 2 2 2 2 2 2 2
left_child=1 -1 -3 5 -4 6 -2 -5 -6
right_child=3 2 4 7 8 -7 -8 -9 -10
leaf_value=-0.0078012801188914521 -0.0061295861607753525 -0.0047987460317016045 0.0045471325662276036 0.0080565761856685389 -0.0030925206265085374 0.0036827621466788167 0.0027153743654717362 0.0033340904296126307 0.00012729384935158765
leaf_weight=17 13.000000000000002 14.999999999999998 19 12.000000000000002 12.000000000000002 20 12.999999999999998 14.999999999999998 11.999999999999998
leaf_count=17 13 15 19 12 12 20 13 15 12
internal_value=0.000165194 -0.00206009 -0.000330333 0.00248185 0.00118244 0.000635677 -0.00162645 0.00553329 -0.00139452
internal_weight=148 75 58 73 43 46 26 27 24
internal_count=148 75 58 73 43 46 26 27 24
is_linear=0
shrinkage=0.028


Tree=74
num_leaves=9
num_cat=0
split_feature=10 0 23 16 21 11 11 7
split_gain=0.922605 0.877917 0.561322 0.459456 0.690012 0.398378 0.318473 0.274512
threshold=0.045052982866764076 5.4762494564056405 20.575000762939457 0.94642716646194469 0.045118434354662902 1.3089792728424074 1.5004487037658694 1.1473000049591067
decision_type=2 2 2 2 2 2 2 2
left_child=1 -1 -2 5 -5 -3 7 -4
right_child=2 3 6 4 -6 -7 -8 -9
leaf_value=-0.0080513691619947675 -0.0027514609008549001 -0.0063887195742519725 0.0038770994593606977 0.0057000109316384202 -0.0026079103788678448 2.4239041558429793e-05 0.0061994697003717337 -0.00092933747180260786
leaf_weight=14.999999999999998 12.999999999999998 14.000000000000002 22 17.000000000000004 13.999999999999998 14.999999999999998 23 14.999999999999998
leaf_count=15 13 14 22 17 14 15 23 15
internal_value=0.000161002 -0.00200274 0.00241443 -0.000444588 0.00187892 -0.0030037 0.00357316 0.00187033
internal_weight=148 75 73 60 31 29 60 37
internal_count=148 75 73 60 31 29 60 37
is_linear=0
shrinkage=0.028


Tree=75
num_leaves=10
num_cat=0
split_feature=15 19 20 0 22 14 23 0 19
split_gain=0.796373 0.814633 0.642657 0.42297 0.27381 0.47294 0.387683 0.239231 0.391917
threshold=0.7326129972934724 0.87726008892059337 0.042575469240546233 5.1710519790649423 0.034922653809189803 0.025844139978289608 24.534999847412113 5.5562388896942148 0.89637643098831188
decision_type=2 2 2 2 2 2 2 2 2
left_child=3 -2 -3 -1 5 -5 -6 -8 -9
right_child=1 2 -4 4 6 -7 7 8 -10
leaf_value=-0.00340177121324255 -0.0093088279924053233 -0.0041213209880535465 0.0037387999747138978 0.00072712881694510787 -0.0025901685200830859 0.0086374693678334252 -0.0002846598117674061 0.0075560208860192338 0.00083399830324881112
leaf_weight=11.999999999999998 11.999999999999998 19 13.999999999999998 13.000000000000002 15.999999999999998 11.999999999999998 14.999999999999998 13.000000000000002 15.999999999999998
leaf_count=12 12 19 14 13 16 12 15 13 16
internal_value=0 -0.00307105 -0.000718032 0.00143242 0.00214377 0.00462885 0.00106626 0.00244897 0.00393684
internal_weight=142 45 33 97 85 25 60 44 29
internal_count=142 45 33 97 85 25 60 44 29
is_linear=0
shrinkage=0.028


Tree=76
num_leaves=10
num_cat=0
split_feature=15 13 0 22 20 18 15 24 16
split_gain=0.752657 1.04381 0.400099 0.259008 0.359359 0.409063 0.233036 0.201072 0.199036
threshold=0.7326129972934724 3.9929000139236455 5.1710519790649423 0.034922653809189803 0.060953084379434593 10.009567260742189 0.30517323315143591 94.14499664306642 0.92673572897911083
decision_type=2 2 2 2 2 2 2 2 2
left_child=2 -2 -1 6 5 -5 -4 -6 -3
right_child=1 8 3 4 7 -7 -8 -9 -10
leaf_value=-0.003307152342914745 -0.0075440000631887142 -0.0014949628138260925 0.0071371984521570713 -0.0051585194891536849 0.0047957968687660909 0.0016011032944369082 0.0014346069812231901 2.0394957063115192e-05 0.0035180654637515544
leaf_weight=11.999999999999998 21 12.000000000000002 13.000000000000002 12.000000000000002 20 15.999999999999998 11.999999999999998 11.999999999999998 11.999999999999998
leaf_count=12 21 12 13 12 20 16 12 12 12
internal_value=0 -0.00298555 0.00139257 0.00208488 0.00103557 -0.00122255 0.00450258 0.00307936 0.000921889
internal_weight=142 45 97 85 60 28 25 32 24
internal_count=142 45 97 85 60 28 25 32 24
is_linear=0
shrinkage=0.028


Tree=77
num_leaves=8
num_cat=0
split_feature=14 4 22 21 2 21 9
split_gain=0.743695 1.1014 0.625336 0.799127 0.445883 0.566521 0.460809
threshold=0.024352638982236389 -0.7004999816417693 0.032370394095778472 0.048701716586947448 0.03835802152752877 0.061349755153059966 0.11732842028141023
decision_type=2 2 2 2 2 2 2
left_child=1 -1 -2 -4 5 -5 -7
right_child=2 -3 3 4 -6 6 -8
leaf_value=0.00085177127444370894 0.006510417234162437 -0.0086358629992750839 -0.0051046441722600189 0.0046213725582986585 0.0055849220192701115 -0.0049466634109372005 0.0011837906404849024
leaf_weight=21 14.999999999999998 17 17 17 17 17 21
leaf_count=21 15 17 17 17 17 17 21
internal_value=0 -0.0033431 0.00123 0.000309851 0.0016236 0.000352185 -0.00150459
internal_weight=142 38 104 89 72 55 38
internal_count=142 38 104 89 72 55 38
is_linear=0
shrinkage=0.028


Tree=78
num_leaves=10
num_cat=0
split_feature=12 0 18 9 6 12 1 3 0
split_gain=0.604686 0.713343 0.52398 0.417897 0.319689 0.150842 0.3503 0.101743 0.0898547
threshold=0.30926588177680975 5.4874842166900644 10.010861873626711 0.1289215758442879 1.2141500115394595 0.039717718958854682 0.05406607314944268 363.50000000000006 5.61403512954712
decision_type=2 2 2 2 2 2 2 2 2
left_child=1 -1 3 5 7 -3 -7 -2 -4
right_child=4 2 8 -5 -6 6 -8 -9 -10
leaf_value=-0.0054908677197893843 -0.00068536694733956375 -0.0024121235385537146 0.0054818673058758339 -0.005850054810323216 0.0062292110532967014 0.0048708229660494422 -0.0016665479488875889 0.0027720063225756359 0.0017477944910708552
leaf_weight=21 12.000000000000002 11.999999999999998 12.000000000000002 11.999999999999998 15.999999999999998 12.000000000000002 12.999999999999998 12.999999999999998 12.999999999999998
leaf_count=21 12 12 12 12 16 12 13 13 13
internal_value=0.000268026 -0.000940591 0.000325001 -0.00132449 0.00311938 9.23043e-05 0.0013876 0.00102626 0.00364123
internal_weight=136 95 74 49 41 37 25 25 25
internal_count=136 95 74 49 41 37 25 25 25
is_linear=0
shrinkage=0.028


Tree=79
num_leaves=8
num_cat=0
split_feature=10 22 13 6 16 15 4
split_gain=0.566151 0.909831 0.497947 0.537669 0.542622 0.43737 0.376915
threshold=0.034423403441905982 0.03573258966207505 5.6445000171661386 1.3942500352859499 0.91285049915313732 0.65765810012817394 -0.7004999816417693
decision_type=2 2 2 2 2 2 2
left_child=1 -1 3 5 -5 6 -2
right_child=2 -3 -4 4 -6 -7 -8
leaf_value=0.001499342729619795 -0.0026831288739890611 -0.0074366968324804895 0.006691470327928958 0 0.0068452752715617909 -0.0050691165934821864 0.003049190339469072
leaf_weight=18 15.999999999999995 17 11.999999999999998 20 17 15.999999999999998 20.000000000000004
leaf_count=18 16 17 12 20 17 16 20
internal_value=0.000260142 -0.00278423 0.00133865 0.000586415 0.00317978 -0.0012179 0.000439108
internal_weight=136 35 101 89 37 52 36
internal_count=136 35 101 89 37 52 36
is_linear=0
shrinkage=0.028


Tree=80
num_leaves=8
num_cat=0
split_feature=12 25 5 18 6 18 3
split_gain=0.544025 0.676516 0.615516 0.733797 0.292758 0.255726 0.0941308
threshold=0.30926588177680975 393.50000000000006 2.9557999372482304 10.010861873626711 1.2141500115394595 10.004257202148439 363.50000000000006
decision_type=2 2 2 2 2 2 2
left_child=1 -1 -3 5 6 -4 -2
right_child=4 2 3 -5 -6 -7 -8
leaf_value=-0.0059438814272890338 -0.00069119129347189356 -0.0038716369392138251 0.0021008282070667087 0.0067960999320071215 0.0059346925899460548 -0.0023131644398503791 0.0026336421485340924
leaf_weight=17 12.000000000000002 21 19 15.999999999999998 15.999999999999998 22 12.999999999999998
leaf_count=17 12 21 19 16 16 22 13
internal_value=0.000253109 -0.000892356 0.000184891 0.00172198 0.00295833 -0.00021302 0.000951294
internal_weight=136 95 78 57 41 41 25
internal_count=136 95 78 57 41 41 25
is_linear=0
shrinkage=0.028


Tree=81
num_leaves=8
num_cat=0
split_feature=14 15 1 6 0 19 23
split_gain=0.6893 0.508284 0.475748 0.366905 0.391521 0.296299 0.291463
threshold=0.02392208389937878 0.75893920660018932 0.019577548839151863 0.90909999608993541 5.7375390529632577 0.91877907514572155 35.510000228881843
decision_type=2 2 2 2 2 2 2
left_child=1 -1 -2 -4 6 -6 -5
right_child=2 -3 3 4 5 -7 -8
leaf_value=0.00073537158276039069 -0.0024932345114228485 -0.0063307669595128206 0.0071624702146609893 -0.0021396439151426748 0.0072561308670291581 0.0011435804149699867 0.0024598613423021404
leaf_weight=14.000000000000002 17 17 11.999999999999998 22 14.000000000000002 12.999999999999998 21
leaf_count=14 17 17 12 22 14 13 21
internal_value=0.000539188 -0.00307386 0.00169472 0.00259183 0.00176905 0.00440784 5.50264e-05
internal_weight=130 31 99 82 70 27 43
internal_count=130 31 99 82 70 27 43
is_linear=0
shrinkage=0.028


Tree=82
num_leaves=8
num_cat=0
split_feature=14 15 1 6 0 19 23
split_gain=0.651139 0.480826 0.45016 0.346257 0.370425 0.279347 0.275437
threshold=0.02392208389937878 0.75893920660018932 0.019577548839151863 0.90909999608993541 5.7375390529632577 0.91877907514572155 35.510000228881843
decision_type=2 2 2 2 2 2 2
left_child=1 -1 -2 -4 6 -6 -5
right_child=2 -3 3 4 5 -7 -8
leaf_value=0.00071489821594547119 -0.0024237509524205427 -0.0061543357330756119 0.0069632491067742669 -0.0020799509313841609 0.0070541136885030097 0.0011117560050082863 0.0023912465449995178
leaf_weight=14.000000000000002 17 17 11.999999999999998 22 14.000000000000002 12.999999999999998 21
leaf_count=14 17 17 12 22 14 13 21
internal_value=0.000524707 -0.00298617 0.00164821 0.00252122 0.00172069 0.00428743 5.20464e-05
internal_weight=130 31 99 82 70 27 43
internal_count=130 31 99 82 70 27 43
is_linear=0
shrinkage=0.028


Tree=83
num_leaves=9
num_cat=0
split_feature=20 22 15 5 17 5 5 15
split_gain=0.621309 0.79167 0.536981 0.495283 0.36152 0.207709 0.183865 0.1437
threshold=0.046424735337495811 0.040527991950511939 0.36277651786804205 4.3467001914978036 0.080260477960109725 3.4953500032424931 3.9939999580383305 0.44088536500930792
decision_type=2 2 2 2 2 2 2 2
left_child=1 2 -1 4 7 -6 -4 -2
right_child=3 -3 6 -5 5 -7 -8 -9
leaf_value=0.0047354017211208967 0.0051925566195753729 -0.0074055665023307401 0.00047310287581716818 0.0066163876952408862 0.0011721648009284241 -0.0037356570867228918 -0.0038094545704327894 0.0010790633131652627
leaf_weight=13.999999999999998 14.000000000000002 13.999999999999998 13.000000000000002 15.999999999999998 12.000000000000002 13.999999999999998 17 15.999999999999998
leaf_count=14 14 14 13 16 12 14 17 16
internal_value=0.000510628 -0.00162247 0.000176887 0.00225993 0.000967622 -0.00138797 -0.00188289 0.00308187
internal_weight=130 58 44 72 56 26 30 30
internal_count=130 58 44 72 56 26 30 30
is_linear=0
shrinkage=0.028


Tree=84
num_leaves=7
num_cat=0
split_feature=25 23 25 14 16 19
split_gain=0.605935 0.39659 0.201455 0.201692 0.34678 0.19184
threshold=353.56999206542974 58.979999542236335 447.90000915527349 0.024352638982236389 1.0221053361892702 0.87726008892059337
decision_type=2 2 2 2 2 2
left_child=-1 2 -2 -4 5 -5
right_child=1 -3 3 4 -6 -7
leaf_value=-0.0053732860123469912 -0.0016064743793578775 -0.003130039718454756 -0.00049647944503281786 0.00097126573046535966 -0.0012905642642477239 0.0050422772740659951
leaf_weight=15.999999999999998 15.999999999999998 20 21 14.999999999999998 12.999999999999998 31
leaf_count=16 16 20 21 15 13 31
internal_value=-0.000269166 0.000418771 0.00118341 0.00177041 0.00261476 0.00376738
internal_weight=132 116 96 80 59 46
internal_count=132 116 96 80 59 46
is_linear=0
shrinkage=0.028


Tree=85
num_leaves=8
num_cat=0
split_feature=0 25 9 15 9 1 12
split_gain=0.606231 0.68857 0.478854 0.453832 0.342623 0.272397 0.105691
threshold=5.4874842166900644 899.00997924804699 0.044815607368946082 0.29053033888340002 0.11732842028141023 0.021973320282995704 0.15001009404659274
decision_type=2 2 2 2 2 2 2
left_child=1 2 -1 -2 5 -5 -7
right_child=3 -3 -4 4 -6 6 -8
leaf_value=-0.0011574735169773856 0.0046447063226401249 0.0015638225898517307 -0.0087995685061430604 -0.0040199938679002728 0.0032264941208295329 0.0022183428263741704 -0.001060918363238751
leaf_weight=12.000000000000002 21 15.999999999999998 15.999999999999998 18 18 13.000000000000002 18
leaf_count=12 21 16 16 18 18 13 18
internal_value=-0.000262679 -0.00295674 -0.00561679 0.00106038 -3.38693e-05 -0.0012805 0.000244354
internal_weight=132 44 28 88 67 49 31
internal_count=132 44 28 88 67 49 31
is_linear=0
shrinkage=0.028


Tree=86
num_leaves=8
num_cat=0
split_feature=0 20 25 15 9 1 13
split_gain=0.572961 0.674911 0.510186 0.428858 0.323788 0.25739 0.111244
threshold=5.4874842166900644 0.042575469240546233 641.60501098632824 0.29053033888340002 0.11732842028141023 0.021973320282995704 5.0581498146057138
decision_type=2 2 2 2 2 2 2
left_child=1 -1 -3 -2 5 -5 -7
right_child=3 2 -4 4 -6 6 -8
leaf_value=-0.0082214348686215338 0.0045151480478102055 -0.0048138253075890912 0.0024224920318981187 -0.0039079320690289668 0.0031365520969997532 0.0016287954650210132 -0.0017810986581981638
leaf_weight=12.999999999999998 21 13.000000000000002 18 18 18 19.000000000000004 11.999999999999998
leaf_count=13 21 13 18 18 18 19 12
internal_value=-0.000254906 -0.00287438 -0.0005446 0.00103082 -3.19738e-05 -0.00124478 0.000235577
internal_weight=132 44 31 88 67 49 31
internal_count=132 44 31 88 67 49 31
is_linear=0
shrinkage=0.028


Tree=87
num_leaves=10
num_cat=0
split_feature=13 15 10 13 0 16 17 7 9
split_gain=0.558523 0.779817 0.635576 0.471372 0.282272 0.345135 0.300734 0.0928146 0.0953441
threshold=3.9375499486923222 1.0102582573890688 0.050352891907095916 4.243499994277955 5.4585182666778573 0.96922472119331371 0.053572237491607673 1.0757000446319582 0.09346827864646913
decision_type=2 2 2 2 2 2 2 2 2
left_child=1 2 -1 -2 5 -5 -6 -8 -9
right_child=3 -3 -4 4 6 -7 7 8 -10
leaf_value=-0.0039223618446120522 0.0063034634805236023 -0.0085162126322135025 0.0045120214137906595 0.0011022026155212328 -0.0013384527561569148 -0.0053583184968162053 0.00075012719820918079 0.0056028609384956348 0.002161253801440582
leaf_weight=15.000000000000002 12.999999999999998 11.999999999999998 12.999999999999998 13.000000000000002 19 11.999999999999998 14.999999999999998 12.999999999999998 19
leaf_count=15 13 12 13 13 19 12 15 13 19
internal_value=0.000219782 -0.00257006 0 0.00131547 0.000573394 -0.00191673 0.0015517 0.00276793 0.00363972
internal_weight=144 40 28 104 91 25 66 47 32
internal_count=144 40 28 104 91 25 66 47 32
is_linear=0
shrinkage=0.028


Tree=88
num_leaves=9
num_cat=0
split_feature=4 20 9 6 0 22 7 0
split_gain=0.496213 0.807434 0.515919 0.490265 0.480526 0.331797 0.529924 0.220066
threshold=-0.59409999847412098 0.04914273880422116 0.09346827864646913 1.1100999712944033 5.8780157566070566 0.0664043463766575 1.0028499960899355 5.5282366275787362
decision_type=2 2 2 2 2 2 2 2
left_child=4 3 -3 -2 5 6 -1 -8
right_child=1 2 -4 -5 -6 -7 7 -9
leaf_value=0.0031948093795968642 -0.0016548056427664196 -0.0022629029248558471 0.0045813132123939237 -0.0090794829450382506 0.0066272409267350467 0.0047102346978412325 -0.0055158204721496591 -0.00062160575507205177
leaf_weight=21 17.000000000000004 15.999999999999998 18 12.999999999999998 12.999999999999998 12.999999999999998 11.999999999999998 21
leaf_count=21 17 16 18 13 13 13 12 21
internal_value=0.000214083 -0.00160457 0.00129703 -0.00496222 0.00169713 0.000700386 -0.000229068 -0.00247807
internal_weight=144 64 34 30 80 67 54 33
internal_count=144 64 34 30 80 67 54 33
is_linear=0
shrinkage=0.028


Tree=89
num_leaves=9
num_cat=0
split_feature=13 15 10 13 10 23 9 4
split_gain=0.51326 0.719267 0.572389 0.441283 0.264155 0.19366 0.133039 0.119493
threshold=3.9375499486923222 1.0102582573890688 0.050352891907095916 4.243499994277955 0.045884197577834136 20.575000762939457 0.10581122338771821 -0.97345000505447377
decision_type=2 2 2 2 2 2 2 2
left_child=1 2 -1 -2 5 -5 -6 -7
right_child=3 -3 -4 4 6 7 -8 -9
leaf_value=-0.0037205407229358371 0.0060844458851974674 -0.0081770928106486597 0.004283612342824766 0.0021727960934702136 0.0038510999670252205 0 0.00055403295506603438 -0.0032437112243895536
leaf_weight=15.000000000000002 12.999999999999998 11.999999999999998 12.999999999999998 11.999999999999998 20 15.999999999999995 22 21.000000000000004
leaf_count=15 13 12 13 12 20 16 22 21
internal_value=0.000207218 -0.00246645 0 0.00125818 0.000539381 -0.000823885 0.00218163 -0.00185878
internal_weight=144 40 28 104 91 49 42 37
internal_count=144 40 28 104 91 49 42 37
is_linear=0
shrinkage=0.028


Tree=90
num_leaves=8
num_cat=0
split_feature=22 17 16 15 2 0 21
split_gain=0.43212 0.907057 0.717791 0.397348 0.269086 0.450721 0.232235
threshold=0.036479303613305099 0.061368677765131004 0.99100571870803844 0.53192517161369335 0.035660708323121078 5.4251370429992685 0.061349755153059966
decision_type=2 2 2 2 2 2 2
left_child=2 -2 3 -1 5 -3 -7
right_child=1 4 -4 -5 -6 6 -8
leaf_value=0.0022734631390845983 -0.0066964985772623711 -0.0056636373468976165 0.0062424243973642282 -0.0041371222324325403 0.0027521268145005774 0.0035634344576285517 -0.0011498746131803042
leaf_weight=16.000000000000004 19 11.999999999999998 19 13.999999999999998 22 12.999999999999998 21
leaf_count=16 19 12 19 14 22 13 21
internal_value=-9.84461e-05 -0.00129822 0.00198476 -0.000646722 0.000183322 -0.00099927 0.00059068
internal_weight=136 87 49 30 68 46 34
internal_count=136 87 49 30 68 46 34
is_linear=0
shrinkage=0.028


Tree=91
num_leaves=9
num_cat=0
split_feature=0 11 0 12 21 17 16 0
split_gain=0.417212 0.519268 0.313551 0.347842 0.402233 0.372082 0.263203 0.213982
threshold=5.4874842166900644 1.5260570645332339 5.7021131515502939 0.26480448246002203 0.040885429829359062 0.065560750663280501 1.0048460364341738 5.3356125354766855
decision_type=2 2 2 2 2 2 2 2
left_child=1 7 6 4 -4 -6 -2 -1
right_child=2 -3 3 -5 5 -7 -8 -9
leaf_value=-0.0022001109556449164 0.0009154314733717349 0.00081052715330962564 0.0027026843213482409 0.0029214838531862694 -0.0071171038033354343 -0.00067545987842057835 0.006594728510876168 -0.0078466468726759719
leaf_weight=12.000000000000002 16.000000000000004 21 11.999999999999998 20 12.000000000000002 19 11.999999999999998 11.999999999999998
leaf_count=12 16 21 12 20 12 19 12 12
internal_value=-9.52751e-05 -0.0023132 0.000977974 -8.41878e-05 -0.001537 -0.00325297 0.00344104 -0.00513309
internal_weight=136 45 91 63 43 31 28 24
internal_count=136 45 91 63 43 31 28 24
is_linear=0
shrinkage=0.028


Tree=92
num_leaves=9
num_cat=0
split_feature=21 17 2 2 20 21 23 3
split_gain=0.404552 1.031 0.334997 0.39936 0.310296 0.484186 0.163105 0.123624
threshold=0.036786895245313651 0.053020307794213302 0.028414443135261539 0.013630606234073641 0.046424735337495811 0.061349755153059966 35.510000228881843 293.00000000000006
decision_type=2 2 2 2 2 2 2 2
left_child=-1 -2 3 4 -3 -6 7 -4
right_child=1 2 6 -5 5 -7 -8 -9
leaf_value=0.0043827699948610233 -0.0074865976627817282 -0.0033611490455269528 -0.00068979755386879482 -0.0047230777305351636 0.0053386686144035259 -0.00098809920137653664 0.0049738798263605213 0.0029999663422641768
leaf_weight=13.999999999999998 14.999999999999998 12.999999999999998 14.000000000000002 15.999999999999998 15.999999999999998 22 12.999999999999998 12.999999999999998
leaf_count=14 15 13 14 16 16 22 13 13
internal_value=-9.17496e-05 -0.000626103 0.000319604 -0.000866463 0.000305104 0.0016226 0.00235992 0.00100765
internal_weight=136 122 107 67 51 38 40 27
internal_count=136 122 107 67 51 38 40 27
is_linear=0
shrinkage=0.028


Tree=93
num_leaves=8
num_cat=0
split_feature=25 3 5 1 15 21 17
split_gain=0.477095 0.477432 0.558936 0.448562 0.310416 0.188956 0.241627
threshold=1091.0349731445315 1.5000000000000002 3.4953500032424931 0.029480921104550365 0.63692545890808117 0.044159397482872016 0.080260477960109725
decision_type=2 2 2 2 2 2 2
left_child=1 -1 -3 -4 -2 -5 -7
right_child=4 2 3 5 -6 6 -8
leaf_value=-0.0024994673264097885 -9.8367034591993876e-05 0.0078791062065603715 -0.0031207959749894642 -0.00022678546230732037 -0.0061942461688589577 0.005123911899533806 0.00054510550549374294
leaf_weight=20 16.000000000000004 11.999999999999998 13.999999999999998 13.999999999999998 11.999999999999998 25 15.999999999999998
leaf_count=20 16 12 14 14 12 25 16
internal_value=0.00040286 0.00131469 0.00228563 0.00127242 -0.00280086 0.00243428 0.00339613
internal_weight=129 101 81 69 28 55 41
internal_count=129 101 81 69 28 55 41
is_linear=0
shrinkage=0.028


Tree=94
num_leaves=8
num_cat=0
split_feature=19 0 9 12 22 7 8
split_gain=0.425869 0.426785 0.471954 0.426227 0.245707 0.188213 0.163203
threshold=0.86414688825607311 5.994802951812745 0.054509162902832038 0.38309021294116979 0.038176594302058227 1.1326500177383425 1.1588912010192873
decision_type=2 2 2 2 2 2 2
left_child=-1 2 4 5 -2 -4 -6
right_child=1 -3 3 -5 6 -7 -8
leaf_value=-0.003124014981880622 0.0060941342881194313 0.0061090084115252982 -0.0043247401172898884 0.0025848699001992338 -0.0010055758325962828 -0.00035457881508741231 0.0035011429162510968
leaf_weight=22 12.999999999999998 11.999999999999998 23 17 12.000000000000002 18 11.999999999999998
leaf_count=22 13 12 23 17 12 18 12
internal_value=0.000390146 0.0011354 0.000478981 -0.00106881 0.00296272 -0.00264036 0.00115891
internal_weight=129 107 95 58 37 41 24
internal_count=129 107 95 58 37 41 24
is_linear=0
shrinkage=0.028


Tree=95
num_leaves=9
num_cat=0
split_feature=25 3 13 7 25 15 4 8
split_gain=0.443823 0.442102 0.328672 0.350062 0.330024 0.286844 0.190956 0.175921
threshold=1091.0349731445315 1.5000000000000002 4.5723998546600351 1.1952500343322756 548.48501586914074 0.63692545890808117 -0.32905000448226923 1.365380644798279
decision_type=2 2 2 2 2 2 2 2
left_child=1 -1 6 4 -4 -2 -3 -5
right_child=5 2 3 7 -6 -7 -8 -9
leaf_value=-0.0024094915868217255 -0.00010651504084820029 0.006546710526356931 -0.004796143725613094 0.00068573746785817534 0.0012606713898961818 -0.0059730510296953834 0.0016198940644694482 0.0057246939027990329
leaf_weight=20 16.000000000000004 17.000000000000004 12.000000000000002 12.000000000000002 15.999999999999998 11.999999999999998 11.999999999999998 11.999999999999998
leaf_count=20 16 17 12 12 16 12 12 12
internal_value=0.000378901 0.00125896 0.00219386 0.000806686 -0.0012616 -0.00271037 0.00459512 0.00330889
internal_weight=129 101 81 52 28 28 29 24
internal_count=129 101 81 52 28 28 29 24
is_linear=0
shrinkage=0.028


Tree=96
num_leaves=9
num_cat=0
split_feature=15 25 25 0 23 3 15 15
split_gain=0.553863 1.06437 0.924245 0.42538 0.370296 0.392119 0.286145 0.233963
threshold=0.65765810012817394 495.14999389648443 790.26998901367199 5.9148530960083017 35.510000228881843 221.50000000000003 0.77711656689643871 0.2640420943498612
decision_type=2 2 2 2 2 2 2 2
left_child=3 -2 -3 4 5 -1 -4 -6
right_child=1 2 6 -5 7 -7 -8 -9
leaf_value=-0.003695359265912608 -0.0092144347415604733 0.0055091182267273577 -0.0063457711243767589 0.0062596434710534997 0.0058122729274703447 0.0016023216812502048 -0.0005407410384934457 0.00041029783435673876
leaf_weight=22 12.999999999999998 14.999999999999998 12.000000000000002 11.999999999999998 13.000000000000002 21 17 13.999999999999998
leaf_count=22 13 15 12 12 13 21 17 14
internal_value=-6.65707e-05 -0.00220007 -6.38673e-05 0.00138988 0.000516908 -0.00105795 -0.0030307 0.00310345
internal_weight=139 57 44 82 70 43 29 27
internal_count=139 57 44 82 70 43 29 27
is_linear=0
shrinkage=0.028


Tree=97
num_leaves=9
num_cat=0
split_feature=15 13 0 23 11 11 15 24
split_gain=0.524286 0.521115 0.401689 0.350195 0.374796 0.331647 0.220642 0.171769
threshold=0.65765810012817394 3.8131500482559209 5.9148530960083017 35.510000228881843 1.3580852150917055 1.3580852150917055 0.2640420943498612 74.029998779296889
decision_type=2 2 2 2 2 2 2 2
left_child=2 -2 3 4 -1 -3 -5 -6
right_child=1 5 -4 6 7 -7 -8 -9
leaf_value=-0.0052291669008747632 -0.0057743518850858887 0.0024050337395335958 0.0060855340960602102 0.0056505245766246435 -0.0018136350753238644 -0.0028810475286491942 0.00039887476081705906 0.0023588643822555259
leaf_weight=11.999999999999998 20 19 11.999999999999998 13.000000000000002 13.000000000000002 18 13.999999999999998 18
leaf_count=12 20 19 12 13 13 18 14 18
internal_value=-6.38081e-05 -0.00213998 0.00135278 0.000503462 -0.00102698 -0.000106831 0.00301939 0.00053687
internal_weight=139 57 82 70 43 37 27 31
internal_count=139 57 82 70 43 37 27 31
is_linear=0
shrinkage=0.028


Tree=98
num_leaves=10
num_cat=0
split_feature=12 24 25 14 22 5 13 19 24
split_gain=0.535162 0.634159 0.34091 0.292993 0.388591 0.386423 0.678445 0.162053 0.0720195
threshold=0.042670318856835372 76.444999694824233 931.01501464843761 0.024352638982236389 0.03747179917991162 4.3467001914978036 4.8059499263763437 0.92988377809524547 84.495002746582045
decision_type=2 2 2 2 2 2 2 2 2
left_child=1 -1 -3 7 -5 6 8 -2 -6
right_child=3 2 -4 4 5 -7 -8 -9 -10
